{
  "model_type": "dqn",
  "format_version": 4,
  "input_size": 74,
  "output_size": 9,
  "ray_count": 36,
  "hidden_sizes": [
    128,
    128
  ],
  "training_seeds": [
    2,
    3,
    4,
    5,
    6,
    7,
    8,
    9,
    10,
    11,
    12,
    13,
    14,
    15,
    16,
    17,
    18,
    19,
    20,
    21,
    22,
    23,
    24,
    25
  ],
  "random_seeds_per_cycle": 2,
  "action_repeat": 2,
  "episodes_completed": 37687,
  "total_steps_completed": 6000066,
  "best_metrics": {
    "average_survival_time": 20.016539,
    "average_return": 2407.0574,
    "average_evades": 100.041664,
    "min_survival_time": 20.016533,
    "min_return": 2310.2783,
    "timeouts": 24
  },
  "layers": [
    {
      "input_size": 74,
      "output_size": 128,
      "weights": [
        -0.11842333,
        -0.112533905,
        -0.10451181,
        -0.1091206,
        -0.07539591,
        0.06587246,
        -0.15402992,
        0.07264511,
        -0.1427674,
        0.03163375,
        0.10036292,
        -0.04737537,
        -0.08526656,
        -0.13715053,
        -0.080375224,
        0.114553034,
        -0.0468034,
        -0.045679487,
        -0.0035609487,
        0.15966631,
        -0.014978654,
        -0.09929195,
        0.077258766,
        -0.038884122,
        0.012753064,
        0.0054715024,
        0.1286915,
        -0.08177232,
        -0.040807184,
        -0.025783753,
        -0.08384338,
        0.007453784,
        0.10130122,
        -0.066388614,
        0.15639295,
        -0.14050479,
        0.05751595,
        -0.058232494,
        -0.1601473,
        -0.09293204,
        -0.06810395,
        -0.020308316,
        -0.080101185,
        0.10513146,
        -0.032858685,
        -0.15666214,
        -0.14423844,
        -0.13943073,
        -0.0088085085,
        -0.07277836,
        0.014175072,
        -0.005949676,
        -0.08834386,
        0.12693338,
        0.09279363,
        -0.13857159,
        -0.113148704,
        -0.11662416,
        0.021280631,
        0.15687124,
        -0.11489621,
        0.0668616,
        -0.020074353,
        -0.023772389,
        0.15511872,
        0.024107248,
        -0.030848488,
        -0.052891366,
        -0.11232481,
        -0.0012181699,
        -0.05649659,
        0.005308792,
        0.008274615,
        -0.089514405,
        -0.6608029,
        -2.5076323,
        -2.1951132,
        -0.8262269,
        0.82707596,
        1.2477937,
        0.31683087,
        0.97502553,
        0.42840043,
        -0.016083613,
        -0.34575555,
        0.015312901,
        -0.22817081,
        0.1671269,
        -0.047539398,
        0.16862004,
        0.19066304,
        0.09866306,
        -0.28119028,
        -0.6539468,
        -0.15014292,
        -0.19982491,
        0.16097324,
        0.025885824,
        -0.17356563,
        -0.3268582,
        -0.6185499,
        -0.8539914,
        -0.7144094,
        -0.3633734,
        0.26069927,
        0.3820251,
        0.5739628,
        -0.12409971,
        0.6488106,
        0.8085607,
        0.036626607,
        0.15515418,
        0.06564626,
        0.07791747,
        0.07483363,
        0.034232482,
        -0.12450972,
        -0.06726978,
        0.083508,
        -0.14079736,
        -0.10856786,
        -0.07871777,
        -0.010895088,
        0.11587928,
        0.08978979,
        0.020773485,
        -0.07774141,
        -0.013518304,
        0.14820297,
        -0.056671247,
        0.12261407,
        0.042081133,
        -0.026172817,
        0.09625517,
        -0.09795055,
        -0.118377075,
        -0.09475531,
        0.12927087,
        -0.11980568,
        -0.07507468,
        -0.1149017,
        0.010308251,
        0.16061209,
        -0.11128193,
        0.01166752,
        -0.048803322,
        -0.044844784,
        0.1359436,
        -0.084946096,
        0.18901308,
        0.115663804,
        0.3580606,
        0.4154669,
        0.66409945,
        0.6335922,
        0.23614158,
        -0.024029367,
        -0.012560395,
        -0.9377268,
        -1.6376227,
        -1.5985184,
        -1.8036318,
        -1.3830037,
        -1.0318326,
        -0.56504864,
        0.41303122,
        0.6500971,
        0.97151077,
        -0.37462425,
        -0.87697536,
        -0.56755716,
        0.06512606,
        -0.08682075,
        -0.36580485,
        0.2010757,
        0.38397503,
        0.28694716,
        -0.058155917,
        -0.25128528,
        0.5259908,
        0.3241319,
        0.046413768,
        -0.40920082,
        -0.18559536,
        -0.12098363,
        0.010730982,
        -0.13316332,
        0.09700574,
        0.032851428,
        0.017060906,
        -0.12775874,
        -0.027245447,
        -0.034216583,
        0.10848303,
        -0.12418161,
        -0.071293816,
        -0.13307819,
        0.04684776,
        -0.11573242,
        -0.10210428,
        -0.09864996,
        0.089029714,
        0.14306606,
        0.126334,
        -0.11501756,
        0.1032597,
        0.13456617,
        0.011717647,
        0.056171924,
        -0.06849406,
        -0.04580822,
        0.023086935,
        -0.012326404,
        0.051731408,
        0.06859879,
        -0.15691537,
        -0.1345213,
        0.037463203,
        -0.07822481,
        -0.11032963,
        0.15437298,
        0.14286436,
        -0.07456726,
        -0.13912426,
        -0.016090415,
        -0.06741401,
        0.0019811536,
        -0.12128887,
        -0.15908144,
        -0.031887844,
        0.14785533,
        -0.074347414,
        -0.06327447,
        -0.013224556,
        0.01864948,
        -0.071158506,
        0.058808424,
        -0.0068638283,
        0.07423754,
        0.12849185,
        -0.046287324,
        -0.021130873,
        -0.099813595,
        0.04311449,
        -0.1102995,
        0.08937761,
        -0.111296125,
        -0.019420719,
        0.013515036,
        0.09328169,
        -0.1378155,
        0.034541417,
        -0.050376847,
        -0.11254963,
        0.09148125,
        -0.00751414,
        0.11107378,
        -0.052662198,
        0.15886606,
        -0.066925645,
        0.12746249,
        -0.10272753,
        0.108744875,
        -0.06608144,
        0.10074936,
        -0.05811835,
        -0.13898766,
        -0.101554714,
        0.11330007,
        -0.06043616,
        0.11458449,
        -0.096264735,
        0.04486893,
        -0.02658242,
        0.14231236,
        0.14113511,
        0.12714748,
        0.046699688,
        -0.091997415,
        -0.11710195,
        -0.023764476,
        -0.025650099,
        -0.10302142,
        0.12838484,
        0.07766536,
        0.12305893,
        0.15138952,
        -0.052722156,
        -0.12429677,
        0.12938567,
        0.13756664,
        0.030194625,
        -0.07428955,
        -0.050960384,
        0.06408195,
        -0.09442281,
        0.6495276,
        0.37917653,
        -0.0020798668,
        -0.29769918,
        -0.35227817,
        -0.55129707,
        -0.8895867,
        -0.7854658,
        -0.73179346,
        -0.19715697,
        -0.47496775,
        -0.17585151,
        0.06774202,
        -0.614482,
        0.26986963,
        0.14942326,
        0.30230334,
        0.1456654,
        -0.0041167485,
        0.06558554,
        0.33288592,
        -0.06776265,
        0.59226054,
        0.059509333,
        -0.1046404,
        -0.059981614,
        -0.38444075,
        0.19923563,
        0.5750877,
        0.5019258,
        0.36404833,
        -0.23787084,
        0.09991432,
        0.23967536,
        0.4099718,
        0.65104175,
        -0.11180119,
        0.04443641,
        -0.013302535,
        0.08454423,
        0.13927226,
        0.0748453,
        0.05527015,
        0.15028702,
        0.15934332,
        0.09377451,
        0.14553176,
        0.027801529,
        0.13410078,
        -0.040081203,
        -0.07061389,
        -0.028792277,
        0.11788641,
        -0.050270222,
        -0.11600208,
        0.001743108,
        0.0870841,
        0.08940892,
        0.05569774,
        0.07883003,
        -0.0053434074,
        -0.14069444,
        -0.114162035,
        -0.12949781,
        -0.025329992,
        -0.14751494,
        -0.111431226,
        0.07226333,
        -0.15318014,
        -0.002664104,
        0.037730828,
        -0.02859813,
        -0.12079181,
        0.09303419,
        -0.70852125,
        -0.9217215,
        0.18193819,
        -0.40128005,
        -0.1601086,
        -0.24903265,
        0.27297908,
        0.5009312,
        -0.3575683,
        -0.82132703,
        0.23090957,
        -0.072988264,
        0.27736643,
        0.11338747,
        -0.24472904,
        0.07885159,
        0.49865964,
        -0.01683488,
        -0.8439224,
        -0.59280574,
        -0.9195939,
        -1.073453,
        -1.25898,
        -0.8934941,
        -0.76903415,
        -0.8431087,
        -0.23532617,
        -0.69384384,
        0.8020535,
        1.232124,
        1.2251061,
        1.2242004,
        0.94206285,
        -0.057810593,
        -0.6370544,
        -0.2892795,
        -0.075005695,
        -0.024454013,
        0.07757333,
        0.08043173,
        -0.148748,
        0.12674035,
        0.05299644,
        0.005571246,
        0.14028747,
        0.022159413,
        0.008543462,
        -0.021399751,
        -0.015675917,
        -0.03906901,
        -0.12757733,
        -0.13124771,
        -0.11853284,
        -0.015622303,
        -0.10622932,
        -0.12467289,
        -0.082529716,
        0.1027195,
        0.11580612,
        0.15222909,
        0.09614186,
        0.060674474,
        0.12107451,
        -0.15825662,
        0.023529097,
        -0.072006084,
        0.051875755,
        0.13723548,
        -0.048269868,
        -0.052330077,
        0.06837319,
        0.062002733,
        0.13117664,
        0.1429279,
        1.3710036,
        1.5752537,
        1.4139012,
        1.112996,
        0.31742886,
        -0.4493672,
        -2.2329729,
        -2.0103223,
        -1.6077691,
        -1.1748763,
        -1.2425178,
        -1.0104916,
        0.063282706,
        -0.00012917968,
        0.66529083,
        -0.26252756,
        0.6648177,
        1.2454797,
        -0.37752625,
        0.39690074,
        -0.16464055,
        -0.37152928,
        -1.1580352,
        0.79992855,
        0.76230985,
        1.4166673,
        -0.47220367,
        -0.69592303,
        -1.0261883,
        -0.4784979,
        -0.020089405,
        -0.3892063,
        -1.6338117,
        -1.0276998,
        -0.2601338,
        0.30532473,
        0.10163851,
        0.0766177,
        -0.061288625,
        0.0065063834,
        -0.036647737,
        -0.006361872,
        -0.09077133,
        0.09690513,
        -0.153193,
        0.07343492,
        -0.13622679,
        0.09222974,
        0.097433254,
        -0.003236428,
        -0.09243821,
        -0.04277376,
        0.061965182,
        -0.023482233,
        -0.055796243,
        -0.035036832,
        0.108655706,
        0.05041121,
        -0.0130701065,
        0.001182422,
        0.0695253,
        -0.10458137,
        0.09912242,
        0.08947073,
        -0.14630309,
        -0.09850109,
        -0.013603643,
        -0.14277793,
        0.071334615,
        -0.081245504,
        0.031958044,
        -0.061523095,
        0.00628528,
        -0.10934915,
        0.20539092,
        0.15298773,
        0.33722827,
        -0.26640573,
        -0.10489124,
        -0.17055838,
        -0.27637833,
        -0.03000126,
        0.06645803,
        0.13780315,
        0.07712942,
        0.29580942,
        0.26152578,
        -0.1472024,
        0.013814272,
        0.040498964,
        -0.056986492,
        -0.052692197,
        0.1746258,
        0.19534667,
        -0.07970232,
        0.16409892,
        0.13013591,
        -0.09824009,
        -0.027213098,
        0.16254954,
        -0.3448017,
        0.26411384,
        0.0065094987,
        -0.0032019746,
        0.38018814,
        0.46384174,
        0.38698953,
        0.3548941,
        0.01712555,
        0.27295917,
        0.104541525,
        -0.011793777,
        0.13625424,
        0.1016673,
        0.13223101,
        0.12320863,
        0.02745977,
        -0.16090456,
        -0.019076467,
        0.1575147,
        -0.018501103,
        -0.14344752,
        0.03604698,
        0.054769814,
        0.14073326,
        -0.102230415,
        0.11540945,
        -0.13738263,
        0.00024396181,
        0.094004974,
        -0.15445164,
        -0.08333213,
        -0.13781738,
        0.13108437,
        -0.07051343,
        0.104147986,
        -0.020761654,
        -0.04650402,
        -0.05643431,
        -0.059041217,
        0.10315128,
        -0.08500736,
        0.006097451,
        -0.14562574,
        0.11690362,
        0.09694715,
        -0.03811401,
        -0.1585603,
        0.11386114,
        0.4314156,
        0.47470447,
        0.37200788,
        0.3346381,
        0.20847447,
        -0.2974338,
        -0.40526435,
        -0.15655348,
        -0.16600634,
        -0.6564428,
        -0.5652344,
        -0.2866073,
        0.19322996,
        0.4104769,
        0.27649808,
        0.54313266,
        0.21541306,
        -0.4026216,
        -0.25797945,
        -0.47818008,
        -0.6658666,
        -0.6384373,
        -0.051458582,
        0.16352025,
        0.5649885,
        0.366023,
        -0.26573265,
        -0.43225735,
        -0.3327428,
        -0.053686086,
        0.08207391,
        -0.15394008,
        -0.4129834,
        -0.35256726,
        -0.23658222,
        0.13722278,
        0.023373142,
        0.13757493,
        0.08219902,
        0.06876969,
        -0.14714731,
        0.107252255,
        -0.08334346,
        -0.13877639,
        -0.15592521,
        -0.06526739,
        -0.040560454,
        0.10796584,
        -0.065128595,
        0.12607427,
        0.1256781,
        -0.13613452,
        -0.16248827,
        0.1500835,
        0.1407906,
        -0.104977176,
        -0.1033179,
        0.118535146,
        -0.10877046,
        -0.02627857,
        -0.049966924,
        -0.04910156,
        0.016396806,
        -0.049141422,
        -0.13252503,
        0.056502476,
        0.006645292,
        0.07411909,
        -0.12195274,
        0.08766036,
        0.025288567,
        0.10840376,
        -0.10197784,
        -0.1543191,
        -0.16309452,
        0.13435301,
        -0.16941485,
        0.062357686,
        0.13209386,
        0.11721276,
        0.06409644,
        0.08362553,
        0.112056345,
        0.0329268,
        0.14593086,
        0.040312916,
        0.14128056,
        -0.011981202,
        -0.06311418,
        -0.14155076,
        -0.12839566,
        -0.051457863,
        -0.0019051473,
        -0.048094474,
        -0.03996152,
        -0.06663385,
        -0.103707045,
        -0.09694501,
        -0.06559079,
        -0.08424051,
        -0.13929391,
        -0.06723111,
        -0.13603315,
        -0.08673409,
        0.010622984,
        0.1142699,
        -0.059897296,
        -0.14327809,
        -0.09603927,
        0.10214661,
        0.06871423,
        0.073139235,
        -0.02287367,
        0.13257675,
        0.1615041,
        0.0692182,
        0.13767184,
        -0.10157224,
        -0.021911457,
        0.0513075,
        -0.00073958933,
        -0.099712595,
        -0.070864625,
        -0.036279917,
        0.009568632,
        -0.03322348,
        0.11244582,
        0.12823607,
        0.009008363,
        0.01739575,
        -0.11722574,
        -0.10377622,
        0.14446904,
        -0.03265275,
        0.020874813,
        0.00633204,
        -0.0007971972,
        -0.051759034,
        -0.04963059,
        -0.116027206,
        0.13181104,
        -0.017420515,
        0.0800899,
        -0.13472421,
        -0.09554091,
        0.097341016,
        -0.062399156,
        -0.9579994,
        -1.1680886,
        -0.5610747,
        -0.032705147,
        -0.8254986,
        -0.532559,
        -0.6881555,
        -0.11399066,
        -0.25612402,
        0.3460934,
        0.5540094,
        0.5000099,
        0.1498319,
        0.11958979,
        0.35499027,
        0.35478374,
        -0.40434864,
        -0.27896178,
        -0.81308156,
        -0.9026018,
        -0.62324405,
        -0.634972,
        -1.2211906,
        0.37925136,
        0.88913846,
        0.6333808,
        0.26435867,
        0.4300681,
        0.8318529,
        0.7211637,
        0.51365787,
        0.47445905,
        -0.35396653,
        -1.1258826,
        -0.48377088,
        -0.13154072,
        0.08675836,
        -0.067790814,
        0.017549127,
        -0.061556883,
        0.031776562,
        0.1530943,
        0.14587428,
        -0.1465221,
        0.018238217,
        -0.039186716,
        0.03275457,
        0.069292605,
        -0.13722679,
        -0.12706368,
        0.045260772,
        0.13381235,
        0.09416859,
        0.024741903,
        -0.011716366,
        0.1520905,
        -0.13342331,
        -0.121096045,
        0.011203334,
        0.06640257,
        0.11360945,
        0.057435095,
        -0.006315142,
        -0.045754008,
        0.09557067,
        0.08765103,
        0.023836091,
        0.06015171,
        0.053238913,
        0.074031994,
        0.10592987,
        -0.065191664,
        0.01665397,
        -0.076043054,
        0.10763036,
        -0.19566831,
        -0.36261788,
        -0.43916437,
        0.5870209,
        0.5248051,
        0.008807579,
        -0.026400167,
        -0.29356802,
        -0.06490058,
        -0.38759965,
        -0.3225203,
        -0.18152726,
        -0.062683314,
        -0.2562337,
        0.7192006,
        0.91811967,
        0.502139,
        0.5200396,
        0.26806843,
        0.43859723,
        0.2965729,
        -1.1318395,
        -0.85543424,
        -0.43993074,
        -0.42558825,
        0.37003112,
        -0.27814865,
        -0.42097414,
        -0.73777467,
        -0.8954137,
        -0.54340726,
        0.07545146,
        0.4616509,
        -0.075456366,
        -0.014151676,
        -0.0025454164,
        -0.022215217,
        0.04901035,
        -0.12973902,
        0.06465538,
        -0.082775824,
        -0.0010803193,
        0.04329765,
        0.13687856,
        0.125185,
        0.07416016,
        0.10437481,
        -0.07160119,
        -0.015036166,
        0.106731996,
        0.09225972,
        -0.15039814,
        -0.034172088,
        0.11706863,
        0.014038324,
        0.07107192,
        -0.08856834,
        0.14352022,
        -0.037286192,
        -0.11093572,
        -0.089959316,
        -0.15593646,
        -0.016892165,
        -0.01849088,
        0.034779698,
        -0.06452941,
        -0.03242643,
        0.058678776,
        0.06835829,
        -0.010864526,
        -0.099929735,
        -0.15069109,
        -0.10994735,
        -0.1564957,
        -0.042526707,
        -0.051618874,
        0.014499769,
        -0.1379681,
        0.11910759,
        -0.115647085,
        0.07782525,
        0.010945573,
        -0.11886859,
        -0.15262544,
        -0.15047343,
        -0.1129583,
        -0.086439334,
        -0.009135708,
        -0.003968686,
        -0.027063504,
        0.10519309,
        -0.108263224,
        0.04633069,
        -0.102298886,
        -0.055821873,
        -0.088767216,
        0.07450141,
        -0.050845504,
        -0.008678839,
        0.004670173,
        -0.11452217,
        -0.051136725,
        0.12184577,
        -0.103813685,
        0.1276419,
        -0.122693546,
        -0.08466894,
        -0.15145124,
        0.012085304,
        -0.07201188,
        -0.1410445,
        -0.11298515,
        -0.042436756,
        -0.09285431,
        0.06835973,
        0.14478968,
        0.14334418,
        -0.15197031,
        -0.095050685,
        0.13408129,
        0.14404552,
        -0.08988198,
        0.15844457,
        0.09173636,
        0.007920012,
        -0.010164201,
        -0.1363354,
        -0.09135747,
        -0.15118805,
        -0.033404946,
        -0.12952995,
        -0.12549047,
        -0.12077977,
        -0.09658759,
        -0.10243431,
        -0.040264957,
        0.14292832,
        -0.056363128,
        0.0702997,
        0.0009762496,
        -0.05594883,
        -0.027459577,
        0.0075311214,
        0.15127231,
        0.15628426,
        0.023268104,
        0.15007396,
        -0.012770062,
        0.1288284,
        -0.07507472,
        0.02476482,
        0.07988085,
        -0.08969097,
        -0.1268345,
        -0.091543704,
        0.15287603,
        -0.12534888,
        -0.09293738,
        -0.012373774,
        0.044354804,
        0.07043848,
        -0.060786594,
        -0.012014527,
        0.10473589,
        0.13285013,
        0.11328709,
        -0.13522047,
        -0.15773784,
        -0.037940845,
        -0.117080934,
        -0.08611577,
        -0.16501147,
        -0.13647379,
        -0.14961196,
        0.020489566,
        -0.012863333,
        -0.1356416,
        -0.019960305,
        -0.02763398,
        -0.10819634,
        -0.047462996,
        0.1113178,
        0.11974246,
        -0.13069235,
        0.039365366,
        -0.098195486,
        0.107410684,
        -0.15804213,
        0.008359328,
        -0.10194962,
        0.1475778,
        -0.1606378,
        0.065761134,
        0.0584902,
        0.054854333,
        0.1366479,
        -0.08133703,
        0.156487,
        0.07623449,
        0.113468036,
        0.07520418,
        0.040979892,
        0.1483611,
        0.13976322,
        0.14021857,
        0.08584036,
        0.09871681,
        -0.117495716,
        0.0069345534,
        -0.0010170937,
        0.025462002,
        0.1559221,
        0.12785484,
        -0.038620144,
        0.06788531,
        0.034923196,
        0.007644072,
        -0.015771434,
        -0.11861126,
        0.06331265,
        0.11325826,
        -1.4925987,
        0.014989397,
        0.7471845,
        0.90491164,
        0.6541392,
        0.25064716,
        0.06457559,
        -0.41434246,
        -0.15292895,
        -0.2147711,
        0.09958995,
        -0.1887017,
        -0.11823499,
        -0.24653406,
        0.07972729,
        0.022897892,
        -0.1293019,
        -0.03209934,
        -0.34864143,
        0.26258054,
        -0.13525406,
        -0.043948907,
        0.09188163,
        -0.22494093,
        -0.119012065,
        0.008989912,
        -0.08627255,
        0.09790356,
        0.49990332,
        0.26336437,
        0.56062734,
        0.8962563,
        0.7389649,
        -0.08163765,
        -1.5636232,
        -2.14237,
        0.09962545,
        -0.0892661,
        -0.13088468,
        -0.028782755,
        -0.039439842,
        -0.12859239,
        0.03380592,
        -0.02309376,
        -0.13433531,
        -0.14426075,
        0.0035280436,
        -0.102651805,
        -0.09899464,
        -0.027798027,
        0.1213799,
        -0.0005031526,
        0.15537266,
        -0.039974824,
        -0.011227518,
        -0.011550203,
        0.02652292,
        -0.058658436,
        -0.06397299,
        0.07225956,
        0.02091235,
        0.044927135,
        0.035708994,
        -0.012079075,
        -0.1054741,
        -0.0771704,
        -0.07695965,
        -0.092466824,
        -0.052928366,
        -0.12216836,
        0.049636662,
        -0.02222608,
        0.01338838,
        -0.12861912,
        0.39024416,
        0.46670824,
        0.5528998,
        -0.315413,
        0.41839218,
        -0.32440805,
        -0.3973761,
        -0.9626322,
        -0.32904145,
        0.014760619,
        -0.02973741,
        0.2132525,
        0.5841678,
        -0.15096861,
        -0.015409064,
        0.19727236,
        -0.03618695,
        -0.13740717,
        0.95941854,
        0.70962083,
        0.40036687,
        0.82796943,
        -0.39713088,
        -1.0117615,
        -1.683945,
        -1.3600657,
        -1.0849651,
        -0.8129073,
        -0.73298264,
        -0.90187776,
        -0.48248488,
        0.22400111,
        0.4655441,
        0.46072003,
        0.2656731,
        -0.011839942,
        -0.082821526,
        0.08725266,
        0.0791049,
        0.14237528,
        0.051570937,
        -0.070901856,
        -0.007044539,
        -0.09268291,
        -0.08791635,
        -0.037369058,
        -0.013203844,
        0.15352283,
        -0.039108947,
        0.11535962,
        0.14461695,
        -0.07109337,
        -0.02018857,
        -0.061227128,
        0.08789925,
        -0.07583366,
        0.06697464,
        0.0011539608,
        0.04642676,
        -0.057544492,
        -0.03799191,
        0.15836193,
        -0.14163682,
        -0.03165126,
        -0.14970112,
        0.0093845725,
        -0.04053717,
        0.052951023,
        0.1418796,
        -0.08530101,
        -0.15025918,
        -0.16409898,
        -0.11204934,
        0.06631948,
        0.6400266,
        0.12034422,
        0.0008646188,
        -0.20902644,
        -0.19206369,
        -0.78075284,
        -1.550577,
        -1.4775355,
        -1.5008918,
        -1.2121141,
        -0.57702667,
        -1.0724512,
        0.15945928,
        0.007919166,
        0.061253794,
        -0.29700354,
        0.0070621353,
        0.6684632,
        -0.0069451747,
        0.3612276,
        -0.024116656,
        0.16675986,
        -0.27824694,
        0.2563117,
        0.4151262,
        0.014001248,
        -0.4884401,
        -0.1448605,
        -0.2844469,
        -0.42576694,
        0.69288325,
        0.54940337,
        0.39374143,
        0.64623225,
        0.77105194,
        0.7272678,
        0.09232743,
        -0.043485984,
        -0.066979736,
        -0.098964386,
        -0.1079593,
        -0.05834961,
        0.03399065,
        0.103404924,
        0.07552834,
        0.004798427,
        0.050691888,
        0.14194866,
        0.017137453,
        0.0032322407,
        -0.16192153,
        0.022253916,
        -0.08541335,
        0.007637456,
        0.04065217,
        0.12551518,
        -0.09047458,
        0.1363462,
        -0.09996717,
        0.04271692,
        -0.13356107,
        0.02455388,
        0.12685348,
        0.11039372,
        -0.16043997,
        -0.023194537,
        0.07759896,
        -0.04667095,
        -0.10736996,
        -0.046085134,
        0.043401197,
        -0.03457533,
        0.06243491,
        -0.0632392,
        0.44884875,
        0.49513826,
        0.4848294,
        -0.118765526,
        0.17269146,
        -0.083199926,
        0.24964431,
        0.5248269,
        0.13292912,
        0.19332221,
        0.12599581,
        0.22723162,
        -0.026777891,
        -0.23791741,
        -0.7456378,
        -0.6102612,
        -0.7011654,
        -0.6242827,
        -0.22717242,
        -0.3289144,
        -0.23668307,
        -0.15215355,
        0.17488848,
        -0.34462237,
        0.09257888,
        0.16793624,
        -0.028503325,
        -0.19761188,
        -0.278398,
        0.19735251,
        0.10761872,
        0.35008898,
        0.2911579,
        0.39701962,
        0.57545537,
        0.32491717,
        0.08420631,
        0.124959126,
        -0.12769818,
        0.13773935,
        0.13030304,
        0.053079933,
        -0.05134462,
        -0.12717849,
        0.032211006,
        0.10318129,
        -0.09829151,
        -0.090683654,
        -0.08068877,
        -0.028976455,
        0.018171087,
        -0.11514284,
        -0.13337603,
        -0.043773405,
        0.036292538,
        0.13256241,
        -0.11085548,
        -0.014266863,
        -0.050595313,
        -0.033272,
        0.08403401,
        -0.07665776,
        -0.1514469,
        0.03214097,
        0.13217406,
        0.022836715,
        -0.06983891,
        0.14918394,
        0.007830843,
        -0.07178502,
        0.15205286,
        -0.06423485,
        -0.049920954,
        0.15652888,
        0.13313471,
        0.4044805,
        0.15855832,
        0.23639973,
        0.16520499,
        0.0957212,
        0.07137716,
        -0.04472299,
        -0.07926196,
        -0.11931296,
        0.25504667,
        -0.033663552,
        0.11651681,
        -0.008942004,
        -0.14639303,
        -0.033861414,
        0.041664314,
        -0.07172988,
        -0.2339232,
        -0.2657997,
        -0.10217053,
        0.14025488,
        -0.048096705,
        -0.13847254,
        0.0031859935,
        0.19434841,
        0.26342797,
        0.2754116,
        -0.008363422,
        0.041118726,
        -0.07327738,
        -0.33275825,
        -0.45526153,
        -0.09963006,
        -0.009012396,
        -0.050060455,
        0.1300583,
        -0.16438182,
        -0.019246414,
        -0.123741165,
        -0.008701891,
        -0.069374755,
        0.16210048,
        0.054360896,
        0.15672167,
        0.088200495,
        -0.08889687,
        -0.044999175,
        0.09767987,
        -0.063437454,
        0.16407217,
        0.014678344,
        -0.019296631,
        0.057651147,
        -0.0053806007,
        -0.15748458,
        0.11625193,
        0.14909051,
        0.010031134,
        -0.0040331334,
        0.040697277,
        0.104764864,
        0.099350825,
        0.14498337,
        -0.019580558,
        -0.09459147,
        0.1341085,
        -0.12741876,
        -0.014884755,
        0.13573037,
        -0.10144089,
        0.16208346,
        -0.12023374,
        -0.020085841,
        -0.73182636,
        -0.7671345,
        -0.6991472,
        -0.51619977,
        -0.49894884,
        -0.5283704,
        -0.46048766,
        0.2657397,
        0.39116356,
        0.4000305,
        0.29719302,
        0.1855934,
        0.17200369,
        0.29267228,
        0.16905594,
        0.49569157,
        0.3941907,
        0.070585854,
        0.0447727,
        0.013107734,
        -0.06178345,
        -0.26003298,
        -0.2529568,
        -0.15799633,
        0.38998404,
        0.17092195,
        0.42963052,
        0.4828415,
        0.31250063,
        0.189475,
        0.08503624,
        -0.01654581,
        -0.35790318,
        -0.3797204,
        -1.0650687,
        -1.070702,
        -0.07870793,
        -0.15215038,
        0.0711633,
        0.1618291,
        -0.14287807,
        0.086148426,
        -0.113617525,
        -0.0053152144,
        0.16114531,
        -0.10628655,
        -0.11186434,
        0.032323107,
        -0.14356227,
        0.097047284,
        -0.11402885,
        -0.025751159,
        -0.08588911,
        0.036505654,
        0.15732451,
        -0.02767022,
        0.08738281,
        0.0066918135,
        -0.1422609,
        0.13079323,
        -0.07774587,
        0.07181296,
        0.11129032,
        0.019315407,
        -0.10093346,
        -0.083046004,
        -0.047822252,
        0.08668722,
        -0.11814864,
        -0.1444946,
        -0.15685634,
        -0.034831837,
        -0.13465711,
        -0.13105503,
        0.32158133,
        -0.27386355,
        -0.13165328,
        -0.4678676,
        -1.3115901,
        -1.056741,
        -1.7571285,
        -1.2783669,
        -0.3115999,
        -0.37023172,
        -0.10904345,
        0.64657223,
        0.73299134,
        0.70999354,
        0.36139408,
        -0.17850575,
        -0.5446152,
        -0.23238164,
        -0.5775417,
        -0.09182396,
        -0.40118626,
        0.00323065,
        -0.5301968,
        -0.00005193014,
        0.12965715,
        0.49942675,
        0.05366099,
        0.16775958,
        0.74613565,
        0.25882053,
        0.70596224,
        0.5193161,
        0.39472222,
        0.28021768,
        0.4182594,
        0.2893301,
        -0.021349236,
        -0.16028269,
        -0.13399933,
        0.08849837,
        0.0054571033,
        -0.061935827,
        -0.11199153,
        0.105268195,
        0.033062145,
        0.12642498,
        -0.0048639625,
        0.050677627,
        -0.066943206,
        -0.06899157,
        -0.054174006,
        0.030454561,
        -0.1387664,
        0.026634231,
        -0.15324344,
        -0.07070298,
        0.1403922,
        0.053103372,
        0.08048433,
        -0.13733423,
        0.08169006,
        0.04910913,
        -0.14383312,
        0.10478036,
        0.034876317,
        0.044787794,
        0.086964026,
        0.071110144,
        -0.004729748,
        -0.103523165,
        0.074344814,
        -0.021094576,
        0.12025495,
        0.13227777,
        -0.49032238,
        -0.6889846,
        -0.63046783,
        -0.89284766,
        -0.84031606,
        -0.44465175,
        -0.38817587,
        -0.045607,
        -0.06281285,
        0.4458275,
        0.42074826,
        0.53133255,
        0.31671432,
        0.15282035,
        0.26962134,
        0.43404806,
        0.48050517,
        0.06928273,
        0.15136315,
        0.2539628,
        0.06285089,
        0.052861042,
        0.24162982,
        0.073344946,
        -0.1486007,
        0.09663617,
        0.43877614,
        0.5698067,
        0.5532269,
        0.528851,
        0.39853093,
        0.019985856,
        -0.3554025,
        -0.7302938,
        -0.8459025,
        -0.44088668,
        0.052772164,
        -0.026295587,
        0.16039596,
        0.13095383,
        -0.05579091,
        -0.09400655,
        0.10378663,
        -0.12906808,
        0.005140871,
        -0.14357212,
        0.15449683,
        0.13599373,
        0.116765335,
        -0.06595986,
        0.091689095,
        0.054112896,
        0.0412782,
        0.16382907,
        0.122578576,
        -0.14277315,
        0.02005209,
        -0.109249786,
        0.017181784,
        0.027331322,
        -0.16422363,
        0.055470556,
        -0.15807377,
        0.015268013,
        0.13289417,
        -0.056910142,
        -0.122043796,
        -0.11807546,
        0.15709697,
        -0.031238869,
        0.06511237,
        -0.07446605,
        0.1334884,
        -0.05326447,
        0.62103206,
        0.6910275,
        0.4485017,
        -0.7002368,
        -1.0138097,
        -1.1540903,
        -0.54546744,
        -1.2729287,
        0.12558325,
        0.10679655,
        0.15269658,
        -0.26616704,
        -0.7685423,
        -0.076481834,
        0.64522934,
        0.4531634,
        -0.034279652,
        -0.19822787,
        0.055584792,
        0.26360387,
        0.21180704,
        0.5921952,
        -0.008562091,
        -0.9239934,
        -1.5709054,
        -1.4032401,
        -1.3241763,
        -1.6289014,
        -1.5107582,
        -0.4170398,
        0.07473891,
        0.9826313,
        0.79516196,
        0.5182598,
        0.28907987,
        0.35724053,
        0.045257002,
        0.07336284,
        0.15369923,
        -0.010832578,
        0.035403028,
        0.1341482,
        -0.065014966,
        -0.14532177,
        0.111686364,
        -0.13882163,
        -0.06607502,
        -0.038720086,
        -0.07964554,
        0.015742004,
        -0.04333061,
        -0.031891644,
        -0.13120562,
        0.10951413,
        0.12004332,
        0.016238615,
        0.08197729,
        -0.0012183934,
        -0.052540325,
        0.11043735,
        0.022577897,
        -0.04765238,
        0.024016112,
        0.06179911,
        -0.102767125,
        0.034335062,
        -0.15499847,
        0.07747777,
        -0.072693616,
        0.08872931,
        0.09499921,
        -0.06384858,
        -0.15113905,
        -0.12993845,
        1.1470782,
        0.10085786,
        -0.85312915,
        -1.716298,
        -1.6045823,
        -0.9840012,
        -0.14789481,
        -0.17182769,
        0.720232,
        0.9289263,
        1.0304372,
        0.55524546,
        -0.3272925,
        -0.49265158,
        -0.62965894,
        -0.83614707,
        -0.67318195,
        -0.88195944,
        -0.45229733,
        -0.35589817,
        -0.18295455,
        0.4302074,
        0.34908935,
        -0.35608277,
        -0.09520957,
        -0.06885253,
        -0.11061199,
        0.044324785,
        0.36156076,
        0.022797484,
        0.54751736,
        0.53947234,
        0.24257135,
        0.25711644,
        0.32769632,
        0.7284629,
        -0.061182916,
        -0.103645146,
        -0.023636103,
        0.02498284,
        -0.13404135,
        -0.06789413,
        0.07832506,
        0.026855454,
        -0.057304412,
        0.0464274,
        -0.1442589,
        -0.0748319,
        -0.0524635,
        0.121350035,
        0.066821024,
        -0.07436222,
        -0.0933902,
        0.0481451,
        0.111609384,
        0.12284036,
        -0.12778327,
        0.039024875,
        -0.08588895,
        0.13493793,
        0.1451023,
        0.11743496,
        -0.15684031,
        0.032004803,
        0.02569969,
        0.14187713,
        -0.121597156,
        -0.13817258,
        -0.12024506,
        0.07839115,
        -0.0797728,
        -0.16141136,
        -0.044887275,
        -0.041417114,
        0.7927452,
        1.4216431,
        1.4599369,
        1.1990881,
        0.49315146,
        -0.8167245,
        -1.5050538,
        -0.56467366,
        0.38984618,
        -0.6664249,
        -0.05481035,
        -0.010235492,
        0.26532716,
        0.070869036,
        -0.038832143,
        -0.5404836,
        -0.304723,
        0.66094565,
        0.3269988,
        0.5736098,
        0.20092848,
        -0.0036625424,
        0.49674177,
        -0.0471869,
        -0.6252298,
        0.28066427,
        -0.11745703,
        -0.6586289,
        -0.62046754,
        0.03452795,
        -0.54078597,
        -1.1379051,
        -1.090671,
        -1.8694082,
        -1.810308,
        -0.20751213,
        -0.0804351,
        0.12308057,
        0.029201835,
        0.11991714,
        0.013932407,
        0.04122497,
        -0.15622078,
        -0.01651439,
        0.12409283,
        0.11785589,
        0.10262491,
        -0.01566498,
        0.11825283,
        -0.023699522,
        0.04395108,
        0.16200377,
        -0.15920237,
        -0.02735418,
        0.05142294,
        0.06441708,
        0.11251186,
        0.08585833,
        0.13850372,
        -0.07501334,
        0.06938788,
        -0.15025707,
        -0.06741806,
        -0.0047676563,
        -0.05907391,
        -0.07752324,
        -0.14887847,
        0.14510687,
        0.11777605,
        0.13358147,
        -0.15251169,
        -0.1434987,
        0.061767057,
        -0.0054320246,
        -0.35555166,
        -0.18278691,
        -0.34053892,
        -0.5188877,
        -0.61778873,
        -0.17604133,
        -0.11484744,
        0.14256491,
        -0.02930684,
        -0.030760359,
        -0.25807354,
        0.28455743,
        0.52442294,
        0.20059124,
        0.45478576,
        0.47116664,
        0.48562074,
        0.31624976,
        0.39566645,
        0.67187846,
        0.75348425,
        0.28512177,
        0.4695064,
        0.59545594,
        0.5063867,
        0.36349252,
        0.41685605,
        0.6078717,
        0.1893848,
        0.13034315,
        0.35011548,
        -0.56843144,
        -0.28670612,
        0.15681963,
        -0.5589087,
        -0.37369874,
        0.12810569,
        0.025800183,
        0.1574928,
        0.15232687,
        -0.098061316,
        -0.080403544,
        -0.14223988,
        0.019221991,
        -0.13952033,
        -0.15857159,
        -0.041467287,
        -0.097978026,
        0.109923616,
        -0.10241373,
        0.119399056,
        0.14037307,
        0.048470348,
        -0.1572037,
        0.12381227,
        0.1018153,
        0.12967251,
        -0.10114171,
        0.10995166,
        -0.08545713,
        0.15639879,
        -0.067226864,
        -0.15668322,
        0.12233983,
        0.07069397,
        0.052145034,
        -0.14301863,
        0.0022278428,
        -0.14181422,
        0.11308457,
        -0.04547243,
        0.12035893,
        -0.14736392,
        -0.16421779,
        -0.57140267,
        0.042803764,
        0.8994234,
        0.84116536,
        0.8962496,
        0.89420414,
        0.87921745,
        0.7234672,
        0.40889698,
        -0.37145314,
        -1.1240977,
        -0.38176355,
        -1.3491389,
        -1.3755141,
        -0.94239384,
        -0.8854519,
        -1.1499614,
        -0.19584504,
        -0.5757421,
        0.056710847,
        0.29193065,
        -0.31924394,
        0.343774,
        0.6365789,
        0.5232302,
        0.59855026,
        -0.5164717,
        -1.1573651,
        -0.45543176,
        -0.0035815302,
        0.20962839,
        0.09155304,
        -0.50775623,
        -1.3521045,
        -1.0907471,
        -0.91368085,
        0.14161737,
        -0.058849864,
        0.01290524,
        0.15406169,
        -0.14441541,
        -0.03412749,
        0.11834933,
        -0.049571484,
        -0.03368649,
        -0.14232475,
        -0.11367914,
        0.15565856,
        0.07963884,
        0.14804415,
        0.15577148,
        0.036091387,
        -0.09998187,
        -0.13721487,
        0.10188742,
        0.037102163,
        0.07966392,
        -0.11023266,
        -0.12192194,
        0.05011171,
        -0.018600151,
        -0.024414182,
        0.043876216,
        -0.14002149,
        0.018480733,
        0.0953363,
        0.112109944,
        0.025231063,
        -0.050317883,
        -0.004977986,
        -0.023698822,
        -0.011970863,
        0.06616376,
        0.031130537,
        0.5751518,
        0.38307893,
        -0.39908552,
        -0.7501269,
        -0.5032523,
        -0.23128545,
        -0.6068717,
        -0.43572512,
        -0.5488847,
        -0.21832024,
        -0.026414717,
        0.17431043,
        0.032471094,
        0.06193093,
        0.34871402,
        0.10307991,
        0.081467845,
        0.2648293,
        0.15383263,
        0.20754384,
        -0.0034257388,
        0.31529838,
        0.5690474,
        0.80182916,
        0.5208536,
        0.47474563,
        -0.10085163,
        0.11281191,
        -0.43000513,
        -0.6223487,
        -0.30286422,
        -0.30406636,
        -0.54884213,
        -0.37093025,
        -0.20343164,
        -0.29218787,
        -0.12841256,
        -0.08646924,
        -0.073679626,
        0.048268422,
        0.06794517,
        0.013043255,
        -0.1043812,
        -0.036914036,
        0.066567674,
        -0.028536484,
        -0.0469964,
        0.13689558,
        -0.06903744,
        -0.026445031,
        -0.08631438,
        0.119341955,
        -0.11028777,
        -0.04054489,
        -0.1353185,
        -0.14136119,
        0.028621927,
        -0.12413509,
        -0.109478965,
        0.030707225,
        -0.098529585,
        0.12159668,
        0.07305591,
        -0.059958205,
        0.051367506,
        -0.14823374,
        0.02786012,
        0.14825763,
        -0.004786387,
        0.10185985,
        0.15090568,
        0.07280199,
        -0.1289934,
        0.08484274,
        -2.754032,
        -2.3637707,
        -1.303182,
        -0.14440586,
        0.845759,
        1.0580455,
        0.75474036,
        0.9450729,
        0.09766341,
        -0.15836805,
        -0.20315935,
        0.17392242,
        -0.055476636,
        -0.047954384,
        -0.32832947,
        0.26929608,
        -0.17420574,
        0.20367268,
        -0.050717495,
        0.02020572,
        -0.14603995,
        -0.14384292,
        -0.095962,
        -0.02906251,
        0.01637778,
        0.089663595,
        0.11677087,
        -0.20753826,
        -0.013157667,
        -0.025942007,
        -0.112041324,
        0.28800154,
        0.49494496,
        0.79098153,
        0.8834654,
        -0.99829835,
        -0.041817576,
        -0.022382468,
        -0.00025586784,
        -0.11312091,
        -0.096852675,
        -0.13916357,
        0.004347235,
        -0.14993297,
        -0.0065164864,
        0.031151697,
        -0.08207101,
        0.029842839,
        0.021591663,
        0.1272551,
        0.011552721,
        0.14241965,
        0.003866747,
        0.08623211,
        -0.15144125,
        0.15621941,
        0.059062704,
        0.072981,
        -0.15340891,
        -0.09692813,
        0.074144095,
        -0.008419916,
        -0.11817172,
        -0.12737733,
        0.09367685,
        -0.109239474,
        -0.070279546,
        0.0871305,
        0.1529053,
        0.06593175,
        -0.038535908,
        0.03875588,
        -0.12721306,
        -0.13728875,
        0.023384986,
        -0.18937765,
        -0.2458367,
        -0.19100377,
        -0.030152418,
        -0.16119823,
        0.0746204,
        -0.1793062,
        0.04616467,
        0.19959849,
        0.24445008,
        -0.07144161,
        -0.03574512,
        -0.37458134,
        -0.25665665,
        -0.3095753,
        -0.33698425,
        -0.24652648,
        -0.061191287,
        -0.03294059,
        0.115974024,
        0.28443667,
        0.18320338,
        0.105607696,
        0.11646041,
        0.335413,
        0.39683238,
        0.39317617,
        0.0008171679,
        0.19007142,
        0.07199586,
        0.010917168,
        0.2523539,
        0.09128114,
        0.21826224,
        -0.023432214,
        -0.115352094,
        0.15036254,
        0.05955343,
        0.099307105,
        0.07975748,
        0.031491414,
        0.07566078,
        0.038568795,
        -0.09540137,
        -0.046082154,
        0.111493066,
        -0.060250998,
        -0.016416833,
        -0.08050741,
        -0.048132606,
        0.08046669,
        0.12815194,
        0.11761825,
        0.15132214,
        -0.13748167,
        0.122835055,
        0.086373165,
        -0.14720987,
        -0.013192788,
        0.13029964,
        0.09788333,
        -0.116402544,
        0.14926387,
        0.025787055,
        -0.05846551,
        0.15338062,
        0.09801258,
        0.054043487,
        -0.14802836,
        -0.12870394,
        -0.057106003,
        0.16187714,
        -0.033796042,
        -0.1991142,
        -0.30199337,
        -0.24298404,
        0.06478886,
        0.088489056,
        0.11898952,
        -0.030854657,
        0.01771824,
        -0.31403965,
        -0.162979,
        -0.17933604,
        -0.075120345,
        -0.13590103,
        -0.052588284,
        0.16929555,
        0.075893916,
        -0.006447348,
        0.04197426,
        0.059883207,
        0.21420234,
        0.30772415,
        0.048088524,
        -0.039974175,
        0.11745685,
        0.07949245,
        0.18386814,
        -0.021418156,
        0.095664024,
        -0.112748854,
        -0.040645894,
        0.12815286,
        -0.042114183,
        0.26814914,
        0.044936225,
        -0.11672509,
        -0.3754142,
        0.15625916,
        0.0532362,
        0.0022807568,
        0.14533503,
        0.09857969,
        0.056013733,
        0.10372169,
        0.1093386,
        0.06930648,
        0.05757232,
        0.048804462,
        -0.103043176,
        -0.093236156,
        -0.069184184,
        -0.15231179,
        -0.023294747,
        -0.013044506,
        0.05505857,
        -0.033158883,
        -0.038604304,
        -0.029800981,
        -0.0032930672,
        0.120139614,
        0.11266188,
        -0.111616,
        0.06913555,
        -0.0048403293,
        0.1353624,
        0.04408984,
        0.0333333,
        -0.10531519,
        -0.1265927,
        -0.14324585,
        -0.14526843,
        -0.009324983,
        -0.061316416,
        0.1427681,
        -0.13296476,
        0.36289322,
        0.47641924,
        0.61074424,
        0.6104131,
        0.7566442,
        0.7343016,
        0.4125511,
        0.6915386,
        0.2746482,
        0.369554,
        0.50846064,
        0.4143907,
        0.41880298,
        0.050954454,
        -0.2684936,
        -0.16836388,
        -0.2149623,
        -0.22382793,
        -0.4807164,
        -0.44607723,
        -0.4397883,
        -0.43900105,
        -0.46608278,
        -0.5231586,
        -0.29962835,
        -0.31111327,
        -0.29464915,
        -0.26291114,
        -0.3417615,
        -0.6005184,
        -0.42290238,
        0.043711722,
        -0.13689628,
        0.31495583,
        0.3364355,
        0.46686363,
        0.16350885,
        0.01955998,
        0.037741497,
        -0.012863666,
        0.07297771,
        -0.007222727,
        -0.12846814,
        -0.15777984,
        -0.026253492,
        0.08277038,
        0.031317428,
        0.12852187,
        -0.06313639,
        -0.07741079,
        0.050823584,
        0.06903191,
        0.023528084,
        0.14787494,
        0.10120161,
        0.044053182,
        -0.08132213,
        0.059911057,
        0.12601332,
        0.09238352,
        -0.09681273,
        0.06687598,
        0.099652275,
        -0.023881868,
        -0.017971411,
        -0.15463085,
        0.08484626,
        -0.023562461,
        0.04825835,
        0.13015847,
        0.10113339,
        -0.048661627,
        0.10075517,
        0.018719241,
        0.011802303,
        0.113532744,
        0.53313273,
        0.24363114,
        -0.0531402,
        -0.07952235,
        0.44469303,
        0.6570026,
        0.6497617,
        0.66382396,
        0.7081045,
        0.98171556,
        0.31493735,
        0.21397842,
        -0.19338597,
        0.054642215,
        0.039882474,
        -0.07137262,
        0.67757106,
        0.90065473,
        -0.21471588,
        -0.42254317,
        -1.1916916,
        -1.0187976,
        -1.2660867,
        -1.3111703,
        -1.3431084,
        -1.6550262,
        -1.1279672,
        -0.28244692,
        -0.40233156,
        0.18264656,
        0.17758915,
        -0.04462177,
        0.114118375,
        0.16399162,
        -0.15961224,
        -0.09880611,
        0.029193684,
        0.091666475,
        -0.15994501,
        -0.11710944,
        -0.15784098,
        0.15339331,
        -0.076883055,
        0.16321011,
        -0.052845545,
        0.08688475,
        0.08981578,
        -0.04674045,
        0.009900734,
        0.07670714,
        -0.03941311,
        -0.09627877,
        0.092962876,
        -0.092697926,
        0.0058364123,
        -0.048569202,
        -0.013005778,
        0.00494501,
        -0.0029913485,
        0.1487885,
        0.109749064,
        -0.13438772,
        0.110700354,
        -0.10652819,
        0.069088146,
        -0.016426474,
        0.010417178,
        0.0036058575,
        -0.15795907,
        0.15376316,
        -0.0187992,
        0.057631582,
        0.8621442,
        1.0530717,
        0.56605697,
        0.9041548,
        0.032639515,
        0.21331121,
        -0.22988875,
        -0.77136934,
        -0.5574685,
        -0.4312054,
        0.3882705,
        -0.6142096,
        0.3793956,
        -0.23580177,
        0.38830736,
        -0.9491365,
        -0.52906156,
        -0.8305533,
        -0.6401478,
        -0.23041055,
        0.39324972,
        0.9618032,
        0.84280497,
        1.2267356,
        0.63731354,
        -0.94123644,
        -0.36917478,
        -0.7955717,
        -0.8504244,
        -1.4571414,
        -1.2897202,
        -2.221676,
        -1.4931934,
        -0.21316251,
        -0.19815876,
        0.88202137,
        -0.1500812,
        0.15721129,
        0.071009174,
        -0.025701568,
        0.14939176,
        -0.013882548,
        0.019306421,
        -0.1433561,
        -0.12426001,
        0.0074498653,
        -0.002675578,
        -0.03914176,
        -0.14579746,
        0.13821076,
        -0.08920875,
        0.101857886,
        -0.11744468,
        0.11462848,
        0.10097851,
        0.16051526,
        0.010043293,
        0.10961349,
        0.120552704,
        0.06107101,
        -0.1303089,
        0.10550909,
        -0.014946207,
        -0.14588028,
        0.09962843,
        0.14116956,
        -0.15034498,
        0.11017229,
        0.16066335,
        -0.11861864,
        0.0064321756,
        -0.0062087625,
        -0.01790765,
        0.12459426,
        -1.2724265,
        -0.4816608,
        0.24843049,
        0.3930578,
        0.7468537,
        0.4226194,
        0.22397585,
        0.5910219,
        0.5224205,
        0.17915575,
        0.15941627,
        0.06286581,
        0.46101785,
        0.25864217,
        0.2246133,
        -0.28986183,
        -0.3313835,
        0.079706214,
        -0.37680635,
        -0.66407806,
        -0.118952364,
        -0.6745369,
        -0.28641504,
        -0.34922895,
        0.26082084,
        0.35103664,
        0.68521744,
        0.8448807,
        0.51024675,
        0.25494084,
        -0.8480609,
        -0.58108974,
        -0.85709345,
        -1.2052532,
        -1.2671753,
        -1.5139222,
        -0.086686544,
        -0.06734171,
        -0.045825854,
        -0.12373741,
        0.028852165,
        -0.0034836382,
        0.09706931,
        -0.047855176,
        -0.13111433,
        0.055550724,
        -0.053487495,
        0.14040138,
        -0.15724893,
        0.100484625,
        -0.10588706,
        -0.1412839,
        -0.13980423,
        -0.09216737,
        0.030199245,
        -0.13891123,
        0.04333794,
        -0.059825957,
        -0.043046877,
        -0.15130849,
        0.14248924,
        0.009939298,
        -0.068670325,
        -0.088833414,
        0.024124801,
        0.15073334,
        0.13666262,
        -0.01476191,
        -0.07394141,
        0.06273867,
        0.014231443,
        0.1256621,
        0.12105797,
        0.11177884,
        -0.23586853,
        0.3286002,
        0.43232685,
        0.4005368,
        0.31436443,
        0.19282092,
        0.107173234,
        0.32630622,
        0.39120087,
        0.22337925,
        0.7276366,
        0.27710798,
        0.5708216,
        0.49476358,
        -0.19695567,
        -0.15772374,
        -0.1140134,
        0.03729147,
        -0.22656131,
        -0.4147071,
        -0.49559835,
        -0.1307717,
        -0.09405172,
        -0.25081217,
        0.06573772,
        0.3318778,
        0.3752385,
        0.25311065,
        0.49141726,
        -0.26807606,
        -0.3586272,
        -0.6555798,
        -0.5431797,
        -0.33816266,
        -0.09294562,
        -0.016806284,
        -0.07904815,
        -0.11619441,
        -0.104252204,
        0.025477096,
        -0.14980134,
        -0.09224792,
        -0.061776772,
        0.047877714,
        -0.011654079,
        0.113760665,
        -0.0025798231,
        0.15016936,
        0.02104938,
        -0.08382083,
        -0.15267146,
        0.156204,
        0.07926804,
        0.009411722,
        0.047502145,
        0.055565536,
        0.10348986,
        0.13503419,
        0.15866213,
        -0.12758185,
        0.1196899,
        0.05544637,
        -0.05570621,
        0.057384998,
        -0.14416593,
        0.041846782,
        0.057873726,
        -0.042104922,
        -0.055279523,
        -0.16077836,
        0.07693879,
        -0.0381746,
        0.009999976,
        -0.09768825,
        0.33609653,
        0.13535015,
        0.048608534,
        -0.008885207,
        0.3601552,
        0.005195031,
        -0.36237577,
        -0.51603794,
        -0.66447777,
        -0.6851079,
        -0.48387545,
        -0.4154912,
        0.11561082,
        -0.07866,
        0.1739598,
        -0.10075902,
        -0.02451754,
        0.11236141,
        -0.24086906,
        0.032894824,
        0.23216684,
        0.12074285,
        0.15877192,
        0.14443593,
        0.04097968,
        -0.34222052,
        -0.20175911,
        -0.4167439,
        -0.2354862,
        -0.5050173,
        0.16687694,
        0.05457918,
        0.19144565,
        0.12552936,
        0.0645932,
        -0.07830173,
        0.04827869,
        -0.00019814074,
        0.14886688,
        -0.1018608,
        -0.009825319,
        0.022811279,
        -0.008855268,
        0.14804776,
        -0.07722124,
        0.06442629,
        0.06995101,
        0.12883209,
        -0.1635355,
        0.020017907,
        0.015482485,
        0.0007003546,
        -0.09055462,
        -0.09825733,
        0.13732488,
        0.03575614,
        -0.15951653,
        0.038119882,
        0.03381948,
        -0.009982109,
        0.103584036,
        0.020393044,
        0.15722741,
        0.16220425,
        0.0567037,
        -0.05861026,
        0.07314068,
        -0.13168623,
        -0.101874515,
        0.13472445,
        -0.1052648,
        0.10463108,
        0.027718395,
        -0.14462985,
        -0.35552436,
        0.38218495,
        0.6537279,
        0.6394714,
        0.14610864,
        -0.03153758,
        0.16162655,
        0.48134995,
        0.29625154,
        -0.16382982,
        0.39796093,
        0.19905692,
        0.42873105,
        0.19174574,
        -0.2361029,
        0.044516623,
        0.05787604,
        0.1980658,
        -0.35263586,
        -0.53190494,
        -0.31953546,
        -0.12462774,
        -0.21145594,
        -0.2363892,
        0.07278086,
        0.3265305,
        0.5219395,
        0.46140385,
        0.6302748,
        -0.012482105,
        -0.25464842,
        -0.68181545,
        -0.8952827,
        -0.470999,
        -0.45250073,
        -0.29190758,
        -0.12314089,
        0.13476424,
        -0.04139626,
        -0.015045881,
        0.14380552,
        -0.03657636,
        0.12235163,
        -0.05770676,
        -0.105362035,
        0.11919244,
        -0.04491193,
        0.108468816,
        0.11539118,
        0.0377703,
        0.10932277,
        -0.054757163,
        0.029877216,
        0.0063439906,
        0.020559043,
        -0.10936345,
        -0.12801123,
        -0.123410285,
        0.1468681,
        0.041712016,
        -0.0042316467,
        0.0967605,
        0.14798732,
        -0.034736708,
        -0.04905367,
        -0.12931061,
        0.059746623,
        -0.07739671,
        0.037301555,
        -0.003414467,
        -0.08479268,
        -0.022675887,
        -0.11344534,
        0.09363626,
        0.230588,
        0.31019914,
        0.04397526,
        0.1972816,
        0.003405192,
        0.06300242,
        -0.07812292,
        0.08957993,
        0.17907797,
        0.20470187,
        0.11729223,
        0.23646209,
        0.2833034,
        -0.022238657,
        0.0009148142,
        0.1873441,
        0.122662194,
        0.17445786,
        -0.006081715,
        0.151626,
        -0.0498217,
        -0.08592775,
        -0.0889393,
        0.18688056,
        -0.0040340126,
        -0.2922005,
        -0.08125726,
        -0.08367962,
        0.10401761,
        -0.21330366,
        -0.08074882,
        0.0719153,
        -0.32947424,
        -0.085189395,
        -0.04205452,
        0.054255348,
        -0.009511709,
        -0.022956535,
        -0.07862531,
        -0.13086605,
        -0.00970915,
        0.11185257,
        0.13229443,
        0.082088456,
        -0.024858668,
        -0.08865021,
        0.15658925,
        -0.04688026,
        0.13449527,
        -0.054813482,
        -0.1642333,
        -0.120372415,
        0.15451072,
        0.09620182,
        -0.102142654,
        0.053512618,
        -0.023268104,
        0.03494236,
        0.14384408,
        -0.14146134,
        0.11381395,
        -0.11279383,
        0.1258261,
        0.09149544,
        0.12255569,
        0.027532399,
        0.036434308,
        -0.14571789,
        -0.046263635,
        -0.020855084,
        0.078373715,
        0.13732918,
        0.10642497,
        -0.07442082,
        -0.13243602,
        0.101846695,
        -0.027965011,
        -0.0077061295,
        -0.08940459,
        -0.142099,
        0.054021377,
        0.09955111,
        -0.00106809,
        0.037376035,
        -0.15857092,
        0.09836086,
        -0.021500135,
        -0.117111735,
        -0.008116422,
        0.04565516,
        -0.009879456,
        -0.033885963,
        0.13079593,
        -0.14585426,
        -0.08900964,
        0.120921224,
        -0.04364056,
        -0.13010484,
        0.1638838,
        -0.0072288737,
        -0.11300836,
        -0.015587329,
        -0.05047971,
        -0.09177168,
        0.06742397,
        -0.15850055,
        -0.01503734,
        0.03322479,
        0.06728373,
        0.06577235,
        -0.0228284,
        -0.027908802,
        -0.1034853,
        -0.057748698,
        -0.0101150125,
        0.102415875,
        -0.021397397,
        -0.048552506,
        0.013123259,
        -0.16215412,
        -0.0939516,
        0.0230847,
        -0.084394805,
        -0.06305922,
        -0.15488048,
        -0.080890626,
        -0.06271159,
        -0.011508897,
        -0.10420631,
        0.15488245,
        -0.16331248,
        0.087500826,
        0.019233912,
        0.11111911,
        -0.10397913,
        -0.0044217557,
        0.12729333,
        -0.10029352,
        0.09939338,
        0.1136459,
        -0.13323058,
        -0.032308564,
        -0.0903568,
        0.065588444,
        -0.10692018,
        -0.098833315,
        -0.07693044,
        0.0052721053,
        -0.1604897,
        0.19536361,
        1.5005604,
        1.4690022,
        1.4774392,
        0.64040333,
        -0.9348198,
        -1.1028242,
        -1.9223247,
        -1.4334046,
        -0.5934819,
        -0.6900121,
        0.7584682,
        1.142816,
        0.3869868,
        0.10002479,
        -0.15155387,
        0.13441177,
        -0.6888185,
        -0.73638386,
        -0.1792076,
        0.03136253,
        -0.52791876,
        -0.97569734,
        -0.4652758,
        0.552526,
        0.19566149,
        0.2339446,
        -0.0107004875,
        -0.4322143,
        0.4450579,
        -0.11027095,
        -0.12498336,
        -0.4450579,
        -1.1720186,
        -1.3825788,
        -0.070978954,
        -0.1228517,
        -0.1097707,
        -0.030579522,
        -0.04997982,
        0.0635218,
        0.062672466,
        0.05476652,
        -0.07041426,
        -0.16418557,
        0.019817263,
        0.09990059,
        0.07796471,
        -0.012087151,
        0.023099482,
        0.07967892,
        -0.0612078,
        0.052697733,
        0.14186604,
        0.09995891,
        -0.09675853,
        0.107502,
        0.08473244,
        0.050837547,
        -0.042098805,
        -0.020080745,
        -0.11891393,
        0.0817291,
        0.12415235,
        -0.0041653365,
        -0.0017818809,
        0.04314278,
        -0.111957155,
        -0.080388844,
        0.049354494,
        0.017926425,
        0.10510574,
        0.035314336,
        -0.32468122,
        -1.0809565,
        -1.3840704,
        0.50990456,
        1.7688648,
        1.5625182,
        1.2553905,
        -0.0058523463,
        -0.9911811,
        -0.2566982,
        -1.2407638,
        -1.5610495,
        -0.84856653,
        -1.4943218,
        -0.9438033,
        -0.7505962,
        -0.92971885,
        -0.28641808,
        -0.25505504,
        1.0301483,
        0.57118106,
        0.5604165,
        0.0141322715,
        -0.3828593,
        -1.0384214,
        -1.765078,
        0.25991806,
        1.1512425,
        1.3594228,
        0.21371551,
        -0.00087658176,
        -0.054494184,
        -0.032268435,
        -0.21796136,
        -0.42347607,
        0.19572292,
        0.061659575,
        0.10612039,
        -0.06525297,
        0.07021424,
        0.056660473,
        -0.020551324,
        -0.103528306,
        0.06538631,
        0.0018416941,
        -0.06785486,
        -0.15769419,
        -0.053721413,
        -0.15121302,
        -0.11306957,
        0.053725407,
        -0.11231697,
        -0.023729518,
        0.017242178,
        0.098679796,
        -0.018295288,
        -0.13354568,
        -0.11833407,
        -0.12547308,
        -0.024381965,
        -0.12182078,
        0.103412464,
        0.11446585,
        -0.052192852,
        -0.071904294,
        -0.037893057,
        0.13799603,
        -0.07186439,
        0.14804699,
        -0.07650125,
        0.09960748,
        0.08745511,
        -0.14353386,
        0.14002483,
        -0.30208904,
        -0.14273934,
        -0.953113,
        -1.192614,
        -0.36273783,
        0.3930942,
        0.7363398,
        0.7985196,
        0.8592023,
        0.6597475,
        0.7612238,
        0.4839,
        0.028682407,
        -0.116440915,
        -0.28394562,
        -0.38480648,
        -0.11697912,
        -0.09240384,
        -0.27724403,
        -0.45776755,
        -0.25542283,
        -0.42730534,
        -0.17305984,
        0.12363878,
        0.30679184,
        0.4491016,
        0.09626991,
        -0.14997816,
        -0.4062594,
        -0.84512395,
        -0.76257485,
        -0.28367305,
        -0.20585845,
        -0.089752145,
        -0.19516987,
        -0.022995282,
        0.13841255,
        -0.09282692,
        -0.043580487,
        0.07466544,
        0.0045592934,
        -0.09146169,
        -0.10405251,
        -0.15316704,
        0.040525407,
        0.044633836,
        -0.024728417,
        -0.04467628,
        -0.087606624,
        -0.03466125,
        0.0075326413,
        -0.111823775,
        -0.034605354,
        0.007445082,
        -0.0521945,
        0.113207474,
        -0.12480765,
        0.14862199,
        -0.091036215,
        0.08678837,
        0.029409453,
        -0.053053632,
        0.11722867,
        0.14752306,
        0.0074054897,
        -0.05763699,
        0.02319716,
        -0.03521572,
        -0.0135009885,
        0.02825278,
        -0.06849293,
        0.16239198,
        -0.10928553,
        -0.081659175,
        0.09528935,
        -0.16796374,
        0.04411247,
        -0.09163661,
        -0.0010463726,
        -0.1370958,
        -0.06635934,
        -0.10849595,
        -0.119186446,
        -0.11696097,
        0.0910672,
        -0.14489302,
        0.10373128,
        -0.10111691,
        -0.046874736,
        -0.08187527,
        0.048945393,
        -0.0059459037,
        -0.09405637,
        -0.07978812,
        0.02654837,
        0.04748136,
        -0.14150785,
        -0.072757654,
        -0.111998186,
        -0.1480182,
        -0.12274008,
        0.123585925,
        0.1357909,
        0.0060555083,
        -0.14080137,
        0.12499471,
        0.12739214,
        0.023948167,
        -0.1122921,
        0.1279782,
        -0.034449354,
        0.018582985,
        0.10425754,
        0.14257671,
        -0.14959823,
        0.15892862,
        0.05177416,
        0.09260224,
        0.16350113,
        0.031338945,
        0.083142,
        0.033715382,
        0.06669964,
        -0.08678159,
        -0.07642529,
        -0.018419027,
        -0.08911586,
        0.1048436,
        0.05790639,
        -0.09653601,
        -0.10177249,
        -0.11722468,
        -0.049817592,
        -0.16326976,
        -0.1239825,
        0.003059268,
        0.15509458,
        -0.1014844,
        0.041343823,
        0.1567771,
        -0.03631434,
        0.051267594,
        -0.04036157,
        -0.06893227,
        -0.079817176,
        -0.04926736,
        -0.110412925,
        -0.059844106,
        0.1511115,
        0.2880392,
        0.13356614,
        0.08256214,
        0.22854705,
        0.26541084,
        0.5273887,
        0.33362767,
        0.22503434,
        0.15081131,
        0.69585806,
        0.6869684,
        0.31179237,
        0.320355,
        -0.0119403545,
        0.27843353,
        -0.12109685,
        -0.07405194,
        -0.036731165,
        -0.33267826,
        -0.16249113,
        -0.10294752,
        -0.06541648,
        -0.2654623,
        -0.08995227,
        -0.06626954,
        -0.18621156,
        0.25369588,
        -0.037583053,
        -0.09102172,
        -0.046547174,
        0.19582216,
        -0.17523263,
        0.11554048,
        0.048874345,
        0.28841034,
        0.115375,
        0.16125144,
        0.05923614,
        0.08623414,
        -0.09392538,
        -0.11798853,
        0.02065453,
        0.12188749,
        0.1128429,
        0.027190417,
        -0.03645508,
        -0.042570136,
        0.052012444,
        0.052646384,
        -0.042320654,
        0.039252445,
        0.022219256,
        -0.024042249,
        0.08461669,
        0.1307313,
        -0.101590976,
        -0.10927464,
        0.16148283,
        -0.07749937,
        0.03540598,
        -0.07235606,
        -0.09824601,
        -0.050598137,
        0.13696264,
        0.09366797,
        -0.06861404,
        0.16080897,
        -0.1468608,
        -0.03783141,
        -0.14581396,
        -0.1225428,
        0.013884991,
        -0.10928961,
        0.4341296,
        0.35537118,
        0.34800696,
        0.39057276,
        -0.2552192,
        -0.800521,
        -1.2068336,
        -0.9294318,
        -0.8524465,
        -0.39699307,
        -0.79039127,
        -0.7943763,
        0.11059065,
        0.32854977,
        0.59915066,
        0.69543093,
        0.9831214,
        1.1320988,
        -0.022504983,
        -0.21553013,
        -0.77957845,
        -0.699989,
        -1.1950867,
        -0.4702832,
        -0.17385975,
        -0.16565776,
        -0.19993256,
        0.08285251,
        0.5328297,
        0.0945705,
        0.2329063,
        0.13455528,
        -0.15788376,
        0.10409229,
        0.42749932,
        0.34501985,
        0.124360904,
        -0.04455717,
        0.086417034,
        0.11372046,
        -0.040896162,
        0.08634861,
        0.02573438,
        -0.042983495,
        0.00013977289,
        -0.14450952,
        -0.15311602,
        0.1144139,
        -0.01324448,
        -0.13765195,
        -0.12454672,
        0.055648386,
        0.10176323,
        0.04541418,
        -0.10356703,
        0.12143655,
        -0.0009768009,
        -0.09144742,
        0.07519999,
        -0.00731574,
        0.0871153,
        -0.025686875,
        -0.010716632,
        0.05574341,
        -0.13255061,
        -0.08639418,
        0.14910387,
        -0.10197015,
        0.12781231,
        0.012755051,
        0.06864634,
        -0.08941496,
        0.0971248,
        0.10439871,
        0.4051111,
        0.61978143,
        0.64384556,
        0.3182635,
        -0.16970225,
        0.066143475,
        0.43776882,
        0.4770545,
        0.017876081,
        -0.23783767,
        0.084699474,
        0.10304792,
        -0.10779719,
        0.03608784,
        -0.45997554,
        -0.2793446,
        -0.10342581,
        -0.100705214,
        -0.08545871,
        -0.086220995,
        -0.16366707,
        -0.21524964,
        -0.11377799,
        0.08501716,
        0.11801738,
        0.30971184,
        0.28801635,
        -0.17689538,
        -0.26923683,
        -0.35782725,
        0.026325783,
        -0.4039966,
        -0.30743954,
        0.07017814,
        0.4289169,
        0.41531718,
        -0.018701673,
        -0.11051099,
        -0.111135334,
        0.02696155,
        0.13315265,
        -0.12881964,
        0.0046221614,
        0.087448195,
        0.067709565,
        -0.018627435,
        0.01995331,
        0.002838865,
        0.08191469,
        0.01231429,
        -0.058431804,
        -0.1049105,
        0.062344447,
        0.11535101,
        0.1412821,
        0.021508992,
        0.0069300085,
        0.004601538,
        0.15252553,
        -0.14029849,
        0.0016809851,
        0.07548115,
        -0.15407477,
        0.10118799,
        -0.016825572,
        -0.0063559115,
        -0.15165879,
        -0.12960118,
        0.16284893,
        0.05794546,
        0.037797898,
        -0.02124089,
        0.14666368,
        -0.13577761,
        0.80945617,
        0.5619806,
        0.41680107,
        0.20124453,
        0.5629123,
        -0.12126616,
        0.41389692,
        0.044584904,
        -0.36189303,
        -0.26196134,
        0.117963485,
        0.22930805,
        0.14020845,
        0.13560203,
        -0.23505938,
        -0.32158577,
        -0.59366554,
        -0.91777766,
        -0.4584454,
        -0.24147323,
        -0.47496897,
        -0.3323787,
        -0.16909185,
        -0.35397166,
        -0.12908708,
        -0.09900966,
        -0.23765035,
        0.18368426,
        0.060816757,
        0.2946655,
        0.17151357,
        0.20423941,
        -0.020327767,
        0.06610632,
        0.6766622,
        0.5621195,
        -0.07029664,
        -0.11040391,
        -0.13169724,
        0.06991522,
        -0.14576751,
        -0.05611843,
        -0.05169993,
        0.163624,
        0.12042995,
        0.031970307,
        0.12790795,
        -0.009095177,
        -0.15969393,
        0.053887248,
        0.027922943,
        0.0144920945,
        0.07926522,
        0.027901232,
        -0.10209311,
        -0.15570779,
        -0.03098403,
        0.15817524,
        -0.007394552,
        -0.019169942,
        -0.044312976,
        0.071532086,
        0.06472401,
        0.09867413,
        -0.13402677,
        -0.028113082,
        -0.041576877,
        -0.06237623,
        -0.16363102,
        -0.059548452,
        0.027612165,
        -0.06971842,
        -0.0066128373,
        0.07825506,
        0.11576323,
        0.3256855,
        0.55463296,
        0.8806977,
        0.5571798,
        0.20250134,
        0.14407614,
        -0.08139182,
        -0.083183534,
        -0.3044964,
        -0.39753887,
        -0.35338914,
        -0.5538812,
        -0.38896742,
        -0.038071398,
        -0.8175449,
        -0.7317869,
        -0.25752833,
        0.13752188,
        0.57853496,
        0.3209777,
        0.17154482,
        0.35572362,
        0.6144478,
        0.6557922,
        -0.12621027,
        0.06352311,
        -0.15139344,
        -0.073558696,
        -0.7499878,
        -0.713016,
        -0.80651736,
        -0.9689533,
        -0.47250855,
        -0.5237604,
        -0.058024406,
        -0.11421181,
        0.08287801,
        -0.055516616,
        -0.0028956681,
        -0.027593315,
        0.0036628395,
        -0.15380287,
        0.13085376,
        0.12395887,
        0.043907136,
        0.018345311,
        0.12642942,
        0.14740281,
        0.12854056,
        -0.08724701,
        0.12775959,
        -0.09257234,
        0.013227403,
        0.056748852,
        -0.057685517,
        -0.14012662,
        0.074049786,
        0.06397095,
        0.13117348,
        -0.053750336,
        -0.09337891,
        0.1554714,
        0.09246071,
        0.06776181,
        -0.16308832,
        -0.0817607,
        -0.10975059,
        0.13852786,
        0.048591703,
        0.09013043,
        0.124237105,
        0.091708675,
        0.008746728,
        0.014111785,
        -0.06535934,
        -0.007830386,
        -0.3976269,
        -0.33750242,
        -0.36263824,
        0.14710276,
        -0.056730054,
        0.15146063,
        0.28150335,
        0.14093827,
        0.2786032,
        -0.07138094,
        0.09177084,
        0.08339248,
        0.09717007,
        -0.55248684,
        -0.0001000404,
        -0.095551334,
        -0.13524143,
        -0.08887433,
        0.03553546,
        0.06679763,
        -0.08085897,
        0.066397645,
        0.08819223,
        0.10101465,
        0.18586022,
        0.20245256,
        0.0005252719,
        0.27321473,
        0.38455713,
        0.41539007,
        0.3118222,
        0.273825,
        0.35500148,
        -0.035552174,
        -0.0598675,
        -0.1325741,
        0.055922642,
        0.11476107,
        0.05427681,
        -0.07672874,
        -0.06688437,
        0.020661771,
        -0.1478334,
        0.09025337,
        0.009313032,
        0.10194962,
        -0.1194593,
        -0.0064432025,
        -0.09168142,
        0.04693705,
        0.0018809587,
        -0.1411499,
        0.046151415,
        -0.12242533,
        -0.13103575,
        -0.13946953,
        0.060929626,
        -0.042969733,
        0.046758354,
        0.12570076,
        0.00032818317,
        0.081667095,
        -0.12008311,
        0.0046161264,
        -0.056912184,
        0.10077934,
        -0.119417325,
        -0.09092114,
        -0.03583564,
        0.07662499,
        0.098304525,
        -1.193165,
        -1.4791592,
        -0.500362,
        0.0782154,
        0.7800039,
        0.359122,
        -0.24607107,
        0.16221283,
        0.09213094,
        0.05069584,
        0.03980941,
        0.26092598,
        -0.22504912,
        -0.45666048,
        -0.9252955,
        -0.43278533,
        -0.24446619,
        -0.4195259,
        0.6559237,
        1.0106701,
        1.2864434,
        0.7952108,
        -0.54592156,
        -0.8495931,
        -1.9544883,
        -1.9985117,
        -1.2992005,
        -1.5757108,
        -1.2922117,
        -0.45494652,
        0.75206995,
        1.2295802,
        1.4564818,
        1.1035606,
        0.5306819,
        -0.48864827,
        0.15416296,
        0.12148745,
        0.06376156,
        -0.10971336,
        0.057766303,
        -0.08713992,
        -0.11496328,
        -0.07184185,
        -0.030784667,
        0.12635489,
        0.12209757,
        0.14590277,
        0.0019804835,
        0.037755176,
        -0.0012028366,
        0.006041318,
        -0.018299446,
        -0.09837715,
        0.105322555,
        -0.13730742,
        -0.019646063,
        0.017298892,
        -0.12830995,
        -0.06667522,
        0.10015397,
        0.106905594,
        -0.052583203,
        -0.049071223,
        -0.14941695,
        0.04982096,
        0.05071482,
        0.12846644,
        0.06953941,
        -0.04737746,
        -0.049211234,
        -0.14589132,
        0.056082994,
        -0.009619936,
        -0.04886929,
        -0.29780757,
        -0.1926147,
        -0.05720683,
        -0.31265733,
        -0.062875986,
        -0.23119266,
        -0.0711519,
        0.36166176,
        0.19765803,
        0.121262856,
        0.37963763,
        0.05797172,
        0.26342648,
        0.46183124,
        0.19062795,
        0.11363539,
        -0.0067871427,
        0.16978261,
        0.029493103,
        0.07362273,
        0.21957356,
        0.23312257,
        0.18442857,
        0.051706105,
        -0.14114134,
        -0.23573793,
        -0.11580801,
        0.13944343,
        0.3139761,
        0.23277709,
        0.45224684,
        0.39261675,
        0.35143977,
        -0.1401268,
        -0.28718045,
        0.079194546,
        0.067053735,
        -0.05635737,
        -0.14117259,
        0.008242518,
        0.10139777,
        0.10472025,
        -0.029319972,
        -0.1484498,
        -0.01292932,
        0.114013836,
        0.14208452,
        -0.107032046,
        -0.12888773,
        0.08185637,
        -0.00018206239,
        -0.08542138,
        -0.15122466,
        0.12584002,
        -0.04209046,
        -0.02977468,
        0.06248802,
        -0.13632461,
        -0.12285907,
        0.12481411,
        -0.035169736,
        -0.14748244,
        -0.08735918,
        0.028508738,
        0.081154376,
        -0.031098664,
        0.1392728,
        -0.016563818,
        0.15433307,
        0.14158194,
        0.16179882,
        0.11129795,
        -0.072426654,
        -0.089590214,
        -0.007468889,
        -0.1282296,
        -0.035525743,
        -0.12623347,
        -0.037187178,
        0.06362714,
        0.0074369125,
        -0.10328678,
        0.12083116,
        0.09166734,
        -0.07332874,
        -0.078535885,
        -0.16467778,
        0.1306233,
        -0.06962203,
        0.0828237,
        -0.11565381,
        0.06516542,
        -0.101899415,
        -0.085378386,
        0.103958525,
        -0.10423366,
        0.040074047,
        0.099578395,
        -0.046683893,
        0.13134775,
        -0.14600186,
        -0.03230722,
        -0.1531697,
        -0.058976326,
        0.08133466,
        -0.1081162,
        0.07081629,
        0.15044132,
        -0.06835788,
        0.008112237,
        0.09313251,
        -0.039468147,
        0.102949336,
        0.0072872043,
        -0.09938809,
        -0.13587084,
        0.09761812,
        -0.09433196,
        0.09635599,
        0.098791584,
        -0.14168064,
        0.063283846,
        0.07521403,
        -0.031586498,
        0.0063611567,
        -0.037495375,
        0.020077094,
        -0.0801717,
        -0.05869814,
        -0.055459157,
        0.015391901,
        -0.1147778,
        -0.1573508,
        -0.09870495,
        -0.10524425,
        -0.0009782463,
        -0.01811546,
        -0.08294033,
        -0.13331956,
        0.0890445,
        0.016989335,
        0.13065942,
        0.10886176,
        -0.057675987,
        -0.020668283,
        -0.022914037,
        0.11222313,
        0.74053425,
        0.67131776,
        0.65242857,
        0.7468491,
        0.71701676,
        0.58005416,
        0.45559415,
        0.15812206,
        -0.29765326,
        -0.5530582,
        -0.14938916,
        -0.31394222,
        -0.0038396618,
        0.50880635,
        0.15824236,
        -0.37317455,
        -0.44224554,
        -0.3592432,
        -0.05590925,
        -0.16705623,
        -0.18645248,
        0.11457048,
        -0.103679515,
        0.13563906,
        0.12722985,
        -0.022985017,
        -0.2192865,
        -0.94044733,
        -0.4231624,
        -1.3217,
        -0.6467869,
        -0.72406405,
        -0.47126183,
        -0.09457846,
        0.16496524,
        0.4057564,
        0.08589615,
        -0.065723,
        -0.025046378,
        0.088635996,
        -0.018346757,
        -0.0101147,
        -0.052648664,
        0.09974353,
        -0.1321335,
        0.031364575,
        0.045108497,
        -0.014944643,
        0.07095364,
        0.03900802,
        0.009677678,
        0.08723678,
        -0.092096776,
        0.10875808,
        -0.13428143,
        -0.017043218,
        0.0484239,
        -0.035231084,
        0.009773463,
        -0.04401838,
        -0.010950789,
        0.022880644,
        -0.008076638,
        -0.12951764,
        -0.075151,
        -0.004439041,
        0.0149486065,
        0.066795245,
        0.00843814,
        0.11736883,
        0.1444586,
        0.021614358,
        -0.11171356,
        0.1388552,
        0.5020069,
        0.5573434,
        0.34881806,
        -0.16672584,
        -0.10803943,
        -0.3951672,
        -0.42372018,
        -0.80446786,
        -0.8481402,
        -0.74074984,
        -0.38131037,
        -0.03960519,
        0.10843232,
        -0.10659489,
        0.009361954,
        0.15687501,
        -0.19242223,
        0.09609423,
        -0.1116992,
        -0.4132707,
        -0.19151759,
        -0.39626655,
        0.066452205,
        -0.10804576,
        -0.0006867822,
        0.555661,
        0.08778867,
        0.5041306,
        0.29401046,
        0.51165974,
        0.37660182,
        0.33515897,
        0.20736936,
        0.40278277,
        0.6114273,
        0.7093519,
        -0.0752872,
        -0.12690972,
        -0.022691682,
        0.12632422,
        0.106487826,
        0.15965082,
        0.07218854,
        0.036365256,
        -0.13915196,
        0.022462934,
        0.019021466,
        0.017471313,
        0.07814328,
        0.05989036,
        -0.06394343,
        -0.13487363,
        0.06480539,
        0.030732155,
        -0.045368202,
        -0.14505956,
        0.14456989,
        0.16069435,
        -0.043131262,
        -0.15888351,
        -0.092086196,
        -0.0011576414,
        0.11341457,
        -0.1096399,
        0.0394257,
        -0.09578067,
        -0.013881922,
        0.041555718,
        -0.028674647,
        -0.0543672,
        -0.0019486994,
        -0.12970586,
        0.063040644,
        0.07357666,
        0.6593386,
        0.3853304,
        -0.18559381,
        -0.069528654,
        0.5916863,
        0.40072384,
        0.88653505,
        -0.025578802,
        -0.4609565,
        -0.21719281,
        -0.9828562,
        -1.3696327,
        -0.14380108,
        0.049699556,
        -0.2829541,
        -0.92883897,
        -0.33175752,
        0.8171451,
        0.9916736,
        0.683708,
        1.0370048,
        1.3848984,
        -0.14778157,
        -0.51892537,
        -1.5214177,
        -0.98724806,
        -0.979688,
        -2.0362449,
        -1.4734685,
        -1.228345,
        -0.71308964,
        -0.18875454,
        -0.0336323,
        0.0658879,
        0.3302152,
        0.18596928,
        0.050089538,
        0.11508231,
        -0.078445554,
        -0.0067380667,
        -0.014429301,
        0.1212659,
        -0.034044117,
        0.09078775,
        0.061940968,
        0.14149185,
        0.14933293,
        0.065585345,
        -0.0065523535,
        -0.064157635,
        -0.07533188,
        -0.12732676,
        -0.055298142,
        -0.03621435,
        -0.051106818,
        0.08750804,
        -0.021813706,
        0.021264926,
        -0.08979508,
        0.019417584,
        -0.10000201,
        0.0023367703,
        -0.03659062,
        -0.05530324,
        -0.09911031,
        0.026102975,
        0.025575206,
        -0.030033559,
        0.04728535,
        0.015340522,
        0.12145476,
        0.109310225,
        0.07425718,
        0.14291625,
        -0.5131089,
        -0.013225587,
        0.8191043,
        0.033214428,
        0.7107101,
        0.06507545,
        0.28795248,
        0.20416649,
        0.17717224,
        0.32956502,
        0.27436164,
        0.43762365,
        0.084404245,
        -0.3097102,
        -0.20223571,
        0.5689118,
        0.28083166,
        -0.32542145,
        -0.035407104,
        0.4189172,
        -0.7808358,
        -1.2814267,
        -1.3950429,
        -2.0108767,
        -1.465464,
        -1.6381273,
        -1.1644214,
        -0.097409464,
        0.78475744,
        0.9826504,
        0.6128164,
        0.0021266118,
        0.18940802,
        -0.48773617,
        -0.24552198,
        -0.4057534,
        -0.08666432,
        0.010598972,
        0.15237744,
        0.07075809,
        0.06334005,
        -0.066837065,
        0.051077187,
        -0.05240059,
        0.028630003,
        0.06498733,
        0.12962516,
        -0.048922278,
        0.092955396,
        0.09041892,
        0.08584328,
        0.048028663,
        -0.088553086,
        -0.15499517,
        -0.08573107,
        -0.07353096,
        -0.014791191,
        -0.008461624,
        -0.014438152,
        0.017244294,
        0.022380322,
        -0.13078061,
        -0.095107205,
        -0.09170517,
        -0.06543867,
        -0.07985425,
        -0.15322995,
        -0.090897426,
        -0.005210489,
        -0.00010727346,
        0.037922382,
        -0.11395767,
        -0.09162933,
        -0.09816444,
        -1.1774172,
        -0.20744355,
        -0.38112327,
        0.4139463,
        0.60389704,
        0.66867757,
        0.13802879,
        -0.21709223,
        0.12897229,
        0.057852827,
        0.64164555,
        0.21495013,
        -0.8265569,
        -1.5197268,
        -2.0248947,
        -1.4682368,
        -0.6976896,
        -0.38180763,
        -0.2298639,
        1.3871734,
        0.471522,
        0.27340576,
        0.6428163,
        0.5691574,
        0.48732695,
        0.15883224,
        -0.16884978,
        -1.1689726,
        -0.7569465,
        -0.2955534,
        0.26191366,
        0.19159089,
        -0.07041081,
        -0.60787624,
        -0.45912522,
        -0.9788634,
        -0.038494796,
        -0.072576106,
        -0.049097173,
        -0.021730885,
        0.1405008,
        -0.1531282,
        0.15964897,
        0.037306845,
        0.075160205,
        -0.013076529,
        -0.08316763,
        -0.08593661,
        -0.029474005,
        -0.14656463,
        0.057674497,
        -0.11214157,
        0.11842038,
        -0.099097885,
        0.12724937,
        0.106674775,
        0.117404506,
        -0.11796336,
        0.085416794,
        -0.07268252,
        0.05974552,
        -0.1166233,
        0.08172256,
        0.05493726,
        0.03203906,
        -0.14674693,
        -0.15675381,
        -0.15125476,
        0.07298009,
        -0.07181484,
        0.10009466,
        -0.12677464,
        0.065176606,
        -0.07658697,
        -1.0396335,
        -1.1879483,
        -0.8630053,
        -0.0051946957,
        0.24493454,
        0.22798774,
        0.13043225,
        0.22741796,
        0.18107355,
        0.21593162,
        0.33057874,
        0.0024975608,
        0.22070052,
        -0.61578006,
        -0.5354398,
        0.035620943,
        -0.037426837,
        -0.05896069,
        -0.1459667,
        -0.1487679,
        0.5367802,
        -0.03792864,
        -0.12813732,
        -0.4898569,
        -0.05495243,
        -0.3773235,
        0.13636993,
        0.22495842,
        0.069299385,
        0.23196658,
        0.41648784,
        0.1872761,
        -0.23644745,
        -0.9378683,
        -0.5352791,
        -0.8869529,
        -0.14391994,
        -0.02727598,
        -0.04062207,
        -0.109857515,
        0.040735975,
        0.09715174,
        -0.06690585,
        0.1498345,
        -0.0968377,
        0.11370696,
        0.013532028,
        0.030914098,
        -0.05482775,
        0.15347861,
        -0.15272625,
        0.13107114,
        -0.101465546,
        0.117081806,
        0.054724112,
        0.15396972,
        -0.005812779,
        -0.06502908,
        0.1331047,
        0.1507803,
        -0.090573944,
        0.07296234,
        -0.060919166,
        -0.07299683,
        -0.1313729,
        -0.062364236,
        0.0827039,
        0.041448474,
        -0.01291348,
        -0.16244468,
        0.114524946,
        -0.15254849,
        0.15011032,
        -0.06649124,
        0.26890624,
        0.24791627,
        0.07091422,
        -0.16740067,
        -0.2621656,
        0.029005196,
        0.03581639,
        -0.06300751,
        -0.14687043,
        0.26318723,
        -0.10467119,
        -0.2616176,
        -0.90688735,
        -0.9206104,
        -0.7605185,
        -0.37719947,
        -0.1866504,
        0.5025709,
        0.80693555,
        0.94715214,
        0.29836455,
        0.26320603,
        -0.32101476,
        -0.18533869,
        -1.1960545,
        -0.8254085,
        -0.25314823,
        -0.08052594,
        0.06879182,
        0.6195332,
        -0.05937424,
        0.12531745,
        0.0899612,
        0.34277192,
        0.23507275,
        -0.18043795,
        -0.14185801,
        -0.124817446,
        0.012083501,
        -0.13309932,
        -0.000039979815,
        -0.13654709,
        0.07699418,
        0.08858268,
        -0.06746737,
        -0.07217079,
        0.03720808,
        0.056010216,
        0.010265797,
        0.06975342,
        -0.07831852,
        0.014836624,
        0.14427246,
        0.056327105,
        -0.120840095,
        -0.04292611,
        -0.14588435,
        -0.0011498928,
        -0.035114557,
        0.054098755,
        -0.0380141,
        -0.06851656,
        0.15448143,
        -0.02158308,
        0.10471283,
        0.08931504,
        -0.1333936,
        -0.09758493,
        0.1265815,
        -0.09179571,
        -0.13746417,
        -0.035158098,
        0.013617516,
        0.03498517,
        -0.06279043,
        -0.15210544,
        -0.026355345,
        -0.086238585,
        -0.13984296,
        -0.011147172,
        -0.15394177,
        -0.116863586,
        -0.14183338,
        0.019277724,
        -0.04780744,
        0.06922746,
        0.110412024,
        0.06533211,
        0.015136172,
        -0.03864207,
        -0.022537617,
        0.043439116,
        -0.065479815,
        -0.036427688,
        -0.01691428,
        -0.051620565,
        0.07632328,
        -0.11234017,
        -0.13764147,
        0.08052663,
        0.08188856,
        -0.07123754,
        -0.08958965,
        -0.111790106,
        0.15505797,
        -0.09162184,
        -0.08170901,
        0.062177774,
        0.05618673,
        0.15970108,
        0.10000263,
        -0.119146876,
        0.008707896,
        0.11371292,
        0.09041579,
        -0.14494926,
        0.12940003,
        -0.051291272,
        -0.07820678,
        -0.030876666,
        -0.14352222,
        0.119175896,
        0.091375455,
        -0.048822686,
        0.09569566,
        -0.12309377,
        0.08633076,
        0.044372633,
        -0.13771638,
        0.1373886,
        0.044080585,
        -0.09019398,
        -0.025601849,
        0.14341001,
        0.12300645,
        -0.046056055,
        0.040896907,
        0.1517471,
        -0.11745048,
        -0.09029757,
        0.025942042,
        0.13201211,
        -0.0626691,
        -0.0885973,
        -0.052634515,
        -0.047256462,
        0.01894395,
        0.054556876,
        -0.052365754,
        -1.1077676,
        -1.3127179,
        -0.7209638,
        -0.8314228,
        -0.5504647,
        -0.3402869,
        -0.5681209,
        -1.3688799,
        -0.24306971,
        -0.027693471,
        0.09965713,
        -1.0641936,
        -0.34085923,
        0.5078874,
        0.76669276,
        -0.2448754,
        -0.12263919,
        -0.90379906,
        -0.35696107,
        0.060159955,
        0.11371997,
        -0.86561936,
        -0.023819536,
        0.32084322,
        -0.65406865,
        -1.3555632,
        -1.6120738,
        0.6601406,
        0.7116376,
        0.9550261,
        1.1186336,
        0.8387598,
        0.5668386,
        0.7992295,
        0.9490248,
        0.04978858,
        -0.1230458,
        0.06786004,
        -0.04389915,
        0.061610535,
        -0.0017190874,
        0.09805621,
        -0.02118951,
        -0.06690432,
        0.11612217,
        -0.06407294,
        -0.11404821,
        -0.06727026,
        0.11264764,
        -0.122898936,
        0.1051396,
        -0.05969332,
        -0.06003777,
        0.096418425,
        -0.113633834,
        0.011747405,
        0.14929189,
        -0.0048152357,
        0.07199946,
        -0.037535205,
        0.086652145,
        -0.04671105,
        0.032522187,
        0.058662117,
        0.010392249,
        0.15242578,
        -0.15866691,
        -0.051810347,
        -0.07136719,
        -0.095547415,
        0.10052489,
        0.14254923,
        -0.14050254,
        0.6555767,
        1.0544931,
        0.81019634,
        0.5285338,
        0.66195875,
        1.4794947,
        0.79725087,
        0.5561521,
        -0.13083453,
        0.36983585,
        0.006476904,
        -1.0093746,
        -0.6498342,
        -0.17343363,
        -1.1506662,
        -1.029059,
        -0.507798,
        -0.93693405,
        -1.3799919,
        -1.4709975,
        -1.5951784,
        -0.62164956,
        0.1756735,
        0.59575516,
        0.03323135,
        0.30788344,
        -0.44166017,
        -0.5716634,
        -0.9834734,
        -0.87271065,
        0.35047412,
        0.8803397,
        0.83107924,
        0.02565803,
        -0.32138973,
        0.100181185,
        -0.04312017,
        -0.042399675,
        0.0107194185,
        0.11632113,
        -0.062273026,
        0.05443591,
        0.071936235,
        -0.121316165,
        -0.14348525,
        -0.0307976,
        0.15162064,
        -0.10827385,
        -0.12628321,
        0.0529065,
        0.06829722,
        -0.03567548,
        0.13009648,
        -0.12187255,
        0.005483404,
        0.15180294,
        -0.070280135,
        -0.022134319,
        -0.10073329,
        -0.114793286,
        -0.07017195,
        -0.064559236,
        -0.09945304,
        0.12337519,
        -0.12115076,
        -0.07493017,
        -0.026692554,
        -0.041496485,
        -0.03386581,
        0.15858428,
        0.14567582,
        0.1143771,
        -0.03376092,
        -0.001006633,
        0.41235012,
        0.49962485,
        0.32779416,
        0.16014692,
        0.36493653,
        0.019248785,
        0.30635667,
        0.09672191,
        -0.13350049,
        -0.063864164,
        0.07316373,
        -0.106075265,
        0.002700808,
        -0.17468843,
        -0.48026946,
        -0.40520763,
        -0.50844777,
        -0.52292424,
        -0.18985099,
        -0.35382456,
        -0.31701347,
        -0.32178074,
        0.02736162,
        -0.41945764,
        -0.20041434,
        0.106881626,
        -0.026461314,
        -0.0017443916,
        0.020704525,
        -0.102814846,
        0.35568053,
        0.19457789,
        -0.14161272,
        0.28003106,
        0.57620084,
        0.42808834,
        0.112129614,
        0.02168937,
        -0.10892908,
        0.14347164,
        -0.02193141,
        -0.061515845,
        0.15769152,
        -0.11246885,
        0.14816163,
        -0.12227446,
        -0.16324094,
        -0.009580702,
        0.15153037,
        0.13893901,
        0.15077402,
        -0.13393164,
        -0.028779775,
        0.15368693,
        0.09868221,
        -0.1048011,
        0.036818475,
        0.05185522,
        0.11112566,
        0.16129349,
        0.14569561,
        -0.065994546,
        -0.07676268,
        0.005831346,
        -0.03716284,
        0.042544857,
        -0.07648941,
        -0.11584072,
        -0.09630025,
        0.10431363,
        -0.16041501,
        -0.10074254,
        -0.03580518,
        0.063359454,
        0.45676786,
        0.16339275,
        0.100503996,
        0.1360305,
        0.1587153,
        0.008538044,
        0.15393643,
        0.21777634,
        -0.19739726,
        -0.042403523,
        0.06112379,
        -0.21174982,
        -0.04565613,
        -0.25111103,
        -0.11158934,
        -0.06114804,
        -0.37189284,
        0.03266411,
        -0.17839529,
        -0.29806852,
        -0.11500357,
        -0.26763973,
        -0.17318238,
        -0.36675966,
        -0.38198388,
        -0.23132712,
        -0.2089445,
        0.18844979,
        0.23010105,
        0.104205124,
        -0.03684717,
        0.31271985,
        0.2588539,
        0.32807776,
        0.35495138,
        0.50450546,
        -0.012759715,
        -0.040555708,
        -0.032292575,
        0.115815386,
        -0.09448568,
        -0.15095836,
        -0.017831653,
        -0.05765275,
        -0.017378345,
        -0.0014178753,
        -0.004007891,
        0.11014511,
        0.023626626,
        -0.12972385,
        -0.022166267,
        0.12026961,
        -0.12731971,
        0.15327813,
        0.14704244,
        -0.15114301,
        -0.0029753894,
        0.03636262,
        0.12552474,
        -0.06885984,
        0.15978341,
        -0.129836,
        -0.1041093,
        0.029402748,
        -0.030371621,
        0.14364882,
        -0.14131251,
        0.16068353,
        -0.11143319,
        0.076246396,
        -0.0021816045,
        -0.16275774,
        0.07828705,
        -0.10171558,
        1.0411925,
        0.6208991,
