{
  "model_type": "dqn",
  "format_version": 4,
  "input_size": 74,
  "output_size": 9,
  "ray_count": 36,
  "hidden_sizes": [
    128,
    128
  ],
  "training_seeds": [
    2,
    3,
    4,
    5,
    6,
    7,
    8,
    9,
    10,
    11,
    12,
    13,
    14,
    15,
    16,
    17,
    18,
    19,
    20,
    21,
    22,
    23,
    24,
    25
  ],
  "random_seeds_per_cycle": 2,
  "action_repeat": 2,
  "episodes_completed": 2402,
  "total_steps_completed": 309692,
  "best_metrics": {
    "average_survival_time": 55.920837,
    "average_return": 6485.8613,
    "average_evades": 305.54166,
    "min_survival_time": 16.96658,
    "min_return": 1951.714,
    "timeouts": 21
  },
  "layers": [
    {
      "input_size": 74,
      "output_size": 128,
      "weights": [
        -0.11841603,
        -0.112652354,
        -0.10474044,
        -0.111124694,
        -0.07750004,
        0.06844299,
        -0.15150149,
        0.075569145,
        -0.14156449,
        0.032814454,
        0.10362118,
        -0.043414626,
        -0.08518783,
        -0.13751528,
        -0.081498146,
        0.11258093,
        -0.04839261,
        -0.043524295,
        -0.0008839782,
        0.16284354,
        -0.012327613,
        -0.09695837,
        0.07907093,
        -0.037307248,
        0.015014993,
        0.007820211,
        0.13184558,
        -0.076486014,
        -0.03573812,
        -0.020041993,
        -0.07924116,
        0.011506666,
        0.10425576,
        -0.063504435,
        0.15928482,
        -0.13701005,
        0.05751595,
        -0.058232494,
        -0.1601473,
        -0.09293204,
        -0.06810395,
        -0.020308316,
        -0.080101185,
        0.10513146,
        -0.032858685,
        -0.15666214,
        -0.14423844,
        -0.13943073,
        -0.0088085085,
        -0.07277836,
        0.014175072,
        -0.005949676,
        -0.08834386,
        0.12693338,
        0.09279363,
        -0.13857159,
        -0.113148704,
        -0.11662416,
        0.021280631,
        0.15687124,
        -0.11489621,
        0.0668616,
        -0.020074353,
        -0.023772389,
        0.15511872,
        0.024107248,
        -0.030848488,
        -0.052891366,
        -0.11232481,
        -0.0012181699,
        -0.05649659,
        0.005308792,
        0.008274615,
        -0.089514405,
        -0.31920457,
        -0.6051937,
        0.035773948,
        0.020517819,
        -0.07981469,
        -0.08305605,
        0.22633478,
        0.23916732,
        -0.09700634,
        -0.0051075215,
        -0.38570336,
        -0.15953232,
        -0.32650152,
        -0.15806529,
        -0.0712904,
        -0.0012547459,
        -0.045047697,
        -0.09830825,
        -0.22211678,
        -0.39373097,
        -0.5216381,
        -0.32341555,
        0.1872952,
        0.16708547,
        0.20332406,
        0.1627824,
        -0.05151049,
        -0.10418563,
        -0.58536005,
        -0.5974891,
        -0.054498512,
        -0.048827674,
        0.7123135,
        0.6178987,
        0.5942195,
        0.06398751,
        0.036626607,
        0.15515418,
        0.06564626,
        0.07791747,
        0.07483363,
        0.034232482,
        -0.12450972,
        -0.06726978,
        0.083508,
        -0.14079736,
        -0.10856786,
        -0.07871777,
        -0.010895088,
        0.11587928,
        0.08978979,
        0.020773485,
        -0.07774141,
        -0.013518304,
        0.14820297,
        -0.056671247,
        0.12261407,
        0.042081133,
        -0.026172817,
        0.09625517,
        -0.09795055,
        -0.118377075,
        -0.09475531,
        0.12927087,
        -0.11980568,
        -0.07507468,
        -0.1149017,
        0.010308251,
        0.16061209,
        -0.11128193,
        0.01166752,
        -0.048803322,
        -0.044844784,
        0.1359436,
        -0.9163606,
        -0.70324713,
        -0.122118145,
        0.38255948,
        0.34641564,
        0.5509505,
        0.97730756,
        0.9624618,
        0.43202096,
        -0.26268113,
        -1.1336049,
        -1.0415261,
        -0.89039516,
        -0.709649,
        -0.5596586,
        -0.5422234,
        -0.37093565,
        0.0666565,
        -0.28066796,
        0.503147,
        0.64645547,
        0.2941192,
        -0.06832629,
        0.038131244,
        -0.097109914,
        0.04130117,
        0.25455987,
        0.06620825,
        -0.16381192,
        -0.0072851423,
        -0.49759638,
        -0.12575014,
        -0.13311051,
        -0.24946173,
        -0.2683112,
        -0.8424356,
        -0.12098363,
        0.010730982,
        -0.13316332,
        0.09700574,
        0.032851428,
        0.017060906,
        -0.12775874,
        -0.027245447,
        -0.034216583,
        0.10848303,
        -0.12418161,
        -0.071293816,
        -0.13307819,
        0.04684776,
        -0.11573242,
        -0.10210428,
        -0.09864996,
        0.089029714,
        0.14306606,
        0.126334,
        -0.11501756,
        0.1032597,
        0.13456617,
        0.011717647,
        0.056171924,
        -0.06849406,
        -0.04580822,
        0.023086935,
        -0.012326404,
        0.051731408,
        0.06859879,
        -0.15691537,
        -0.1345213,
        0.037463203,
        -0.07822481,
        -0.11032963,
        0.15437298,
        0.14286436,
        -0.06857072,
        -0.13339615,
        -0.012270512,
        -0.06419621,
        0.004164414,
        -0.12030764,
        -0.15707134,
        -0.024167735,
        0.15505047,
        -0.067312665,
        -0.056659143,
        -0.0053845854,
        0.028355813,
        -0.060886562,
        0.06834943,
        0.0016487596,
        0.082228996,
        0.1355868,
        -0.04356894,
        -0.020716913,
        -0.10104662,
        0.04097566,
        -0.11318184,
        0.0974241,
        -0.10696376,
        -0.016437126,
        0.018153725,
        0.098737836,
        -0.13422163,
        0.04138362,
        -0.043730725,
        -0.10500597,
        0.099587254,
        0.0002651643,
        0.119105324,
        -0.046491574,
        0.15886606,
        -0.066925645,
        0.12746249,
        -0.10272753,
        0.108744875,
        -0.06608144,
        0.10074936,
        -0.05811835,
        -0.13898766,
        -0.101554714,
        0.11330007,
        -0.06043616,
        0.11458449,
        -0.096264735,
        0.04486893,
        -0.02658242,
        0.14231236,
        0.14113511,
        0.12714748,
        0.046699688,
        -0.091997415,
        -0.11710195,
        -0.023764476,
        -0.025650099,
        -0.10302142,
        0.12838484,
        0.07766536,
        0.12305893,
        0.15138952,
        -0.052722156,
        -0.12429677,
        0.12938567,
        0.13756664,
        0.030194625,
        -0.07428955,
        -0.050960384,
        0.06408195,
        -0.09442281,
        0.5328811,
        0.54479957,
        0.16779336,
        0.16356859,
        -0.029191608,
        -0.18043754,
        -0.47171345,
        -0.2364791,
        -0.16766864,
        -0.19826028,
        -0.22536959,
        0.08614562,
        0.11394179,
        0.05895369,
        0.1814241,
        -0.1339272,
        -0.003297457,
        -0.0075662555,
        0.08734211,
        0.09695686,
        0.056553584,
        -0.25404254,
        -0.047741383,
        0.14185314,
        0.012784185,
        -0.015984414,
        -0.046763074,
        0.22377157,
        0.4232878,
        0.4758702,
        0.5613099,
        0.26022953,
        0.30160034,
        0.33070517,
        0.32894236,
        0.4531601,
        -0.11180119,
        0.04443641,
        -0.013302535,
        0.08454423,
        0.13927226,
        0.0748453,
        0.05527015,
        0.15028702,
        0.15934332,
        0.09377451,
        0.14553176,
        0.027801529,
        0.13410078,
        -0.040081203,
        -0.07061389,
        -0.028792277,
        0.11788641,
        -0.050270222,
        -0.11600208,
        0.001743108,
        0.0870841,
        0.08940892,
        0.05569774,
        0.07883003,
        -0.0053434074,
        -0.14069444,
        -0.114162035,
        -0.12949781,
        -0.025329992,
        -0.14751494,
        -0.111431226,
        0.07226333,
        -0.15318014,
        -0.002664104,
        0.037730828,
        -0.02859813,
        -0.12079181,
        0.09303419,
        -0.49466765,
        -1.6217211,
        -1.85573,
        -1.4920772,
        -0.44595405,
        0.95222306,
        0.9309831,
        0.45772678,
        0.28111833,
        0.28887138,
        0.13779989,
        -0.2118763,
        -0.31736034,
        -0.57336956,
        -0.34568158,
        -0.2788115,
        0.20220296,
        -0.11018264,
        -0.09342762,
        -0.14330083,
        -0.34516332,
        -0.5467289,
        -0.39771885,
        -0.3038758,
        -0.45014575,
        0.0366882,
        0.07197616,
        0.2644122,
        -0.27664474,
        -0.036624543,
        -0.61283535,
        -0.021793189,
        0.3703875,
        0.90425307,
        0.95901656,
        0.30697307,
        -0.075005695,
        -0.024454013,
        0.07757333,
        0.08043173,
        -0.148748,
        0.12674035,
        0.05299644,
        0.005571246,
        0.14028747,
        0.022159413,
        0.008543462,
        -0.021399751,
        -0.015675917,
        -0.03906901,
        -0.12757733,
        -0.13124771,
        -0.11853284,
        -0.015622303,
        -0.10622932,
        -0.12467289,
        -0.082529716,
        0.1027195,
        0.11580612,
        0.15222909,
        0.09614186,
        0.060674474,
        0.12107451,
        -0.15825662,
        0.023529097,
        -0.072006084,
        0.051875755,
        0.13723548,
        -0.048269868,
        -0.052330077,
        0.06837319,
        0.062002733,
        0.13117664,
        0.1429279,
        -0.20364478,
        -0.21580511,
        -0.41997096,
        -0.47268087,
        -0.4956577,
        -0.6185155,
        -0.7167571,
        -0.4603402,
        -0.18956126,
        0.053212125,
        0.112794645,
        -0.05443054,
        0.4258047,
        0.29094672,
        0.5000012,
        0.402734,
        0.40011695,
        0.0067456295,
        0.026287708,
        -0.027969746,
        0.34804314,
        0.34679043,
        0.29444066,
        0.28601646,
        0.21191189,
        0.14282666,
        0.039928913,
        -0.08085086,
        -0.043411575,
        -0.08507335,
        -0.034333877,
        -0.0974955,
        -0.11338569,
        0.021959286,
        -0.01415837,
        0.136415,
        0.10163851,
        0.0766177,
        -0.061288625,
        0.0065063834,
        -0.036647737,
        -0.006361872,
        -0.09077133,
        0.09690513,
        -0.153193,
        0.07343492,
        -0.13622679,
        0.09222974,
        0.097433254,
        -0.003236428,
        -0.09243821,
        -0.04277376,
        0.061965182,
        -0.023482233,
        -0.055796243,
        -0.035036832,
        0.108655706,
        0.05041121,
        -0.0130701065,
        0.001182422,
        0.0695253,
        -0.10458137,
        0.09912242,
        0.08947073,
        -0.14630309,
        -0.09850109,
        -0.013603643,
        -0.14277793,
        0.071334615,
        -0.081245504,
        0.031958044,
        -0.061523095,
        0.00628528,
        -0.10934915,
        0.3529987,
        0.18067415,
        0.011204171,
        -0.31615505,
        -0.1280442,
        -0.15796073,
        -0.4117184,
        -0.053705174,
        0.11153771,
        0.07197798,
        0.033470172,
        -0.111691065,
        0.093820795,
        0.009508167,
        0.15812783,
        0.21006615,
        0.14192495,
        -0.11906153,
        -0.098326616,
        0.062072285,
        -0.096340515,
        0.114602655,
        -0.07307656,
        -0.02439649,
        -0.23610972,
        -0.05916352,
        -0.21239081,
        0.12572959,
        -0.09871782,
        -0.07982834,
        0.0051137554,
        -0.08604224,
        0.29574367,
        0.30976474,
        0.24188551,
        0.3191018,
        0.104541525,
        -0.011793777,
        0.13625424,
        0.1016673,
        0.13223101,
        0.12320863,
        0.02745977,
        -0.16090456,
        -0.019076467,
        0.1575147,
        -0.018501103,
        -0.14344752,
        0.03604698,
        0.054769814,
        0.14073326,
        -0.102230415,
        0.11540945,
        -0.13738263,
        0.00024396181,
        0.094004974,
        -0.15445164,
        -0.08333213,
        -0.13781738,
        0.13108437,
        -0.07051343,
        0.104147986,
        -0.020761654,
        -0.04650402,
        -0.05643431,
        -0.059041217,
        0.10315128,
        -0.08500736,
        0.006097451,
        -0.14562574,
        0.11690362,
        0.09694715,
        -0.03811401,
        -0.1585603,
        -0.018647563,
        0.111212485,
        0.07368549,
        -0.08190211,
        0.06165549,
        0.08812093,
        -0.033357248,
        -0.15557916,
        0.14689465,
        -0.16019216,
        0.0196315,
        -0.1109887,
        -0.10710683,
        0.099540114,
        0.042549245,
        -0.08429013,
        0.13080443,
        0.1331265,
        -0.117181346,
        -0.050634604,
        -0.11327707,
        -0.01725096,
        -0.14795904,
        -0.13888977,
        -0.04565601,
        -0.048654333,
        0.14861101,
        -0.110203356,
        0.0080957785,
        -0.1530456,
        0.11020748,
        0.018500458,
        -0.08731168,
        -0.10790651,
        -0.019739356,
        -0.06362642,
        0.13722278,
        0.023373142,
        0.13757493,
        0.08219902,
        0.06876969,
        -0.14714731,
        0.107252255,
        -0.08334346,
        -0.13877639,
        -0.15592521,
        -0.06526739,
        -0.040560454,
        0.10796584,
        -0.065128595,
        0.12607427,
        0.1256781,
        -0.13613452,
        -0.16248827,
        0.1500835,
        0.1407906,
        -0.104977176,
        -0.1033179,
        0.118535146,
        -0.10877046,
        -0.02627857,
        -0.049966924,
        -0.04910156,
        0.016396806,
        -0.049141422,
        -0.13252503,
        0.056502476,
        0.006645292,
        0.07411909,
        -0.12195274,
        0.08766036,
        0.025288567,
        0.10840376,
        -0.10197784,
        -1.4190845,
        -1.5470575,
        -0.4147211,
        0.26774356,
        0.9539135,
        0.7874559,
        0.50225914,
        0.022112219,
        -0.32548037,
        -0.10519473,
        -0.032837998,
        0.067746565,
        0.112275116,
        0.19541179,
        0.04286635,
        -0.16092965,
        -0.11134265,
        -0.34658307,
        -0.18791695,
        -0.1903068,
        0.019958213,
        -0.009587775,
        -0.31117666,
        -0.37801662,
        -0.2875721,
        -0.27578884,
        -0.12418889,
        -0.014930495,
        0.079308935,
        0.098874204,
        0.2105816,
        0.60047185,
        0.6833302,
        0.7462508,
        0.25872934,
        -0.42035392,
        0.10214661,
        0.06871423,
        0.073139235,
        -0.02287367,
        0.13257675,
        0.1615041,
        0.0692182,
        0.13767184,
        -0.10157224,
        -0.021911457,
        0.0513075,
        -0.00073958933,
        -0.099712595,
        -0.070864625,
        -0.036279917,
        0.009568632,
        -0.03322348,
        0.11244582,
        0.12823607,
        0.009008363,
        0.01739575,
        -0.11722574,
        -0.10377622,
        0.14446904,
        -0.03265275,
        0.020874813,
        0.00633204,
        -0.0007971972,
        -0.051759034,
        -0.04963059,
        -0.116027206,
        0.13181104,
        -0.017420515,
        0.0800899,
        -0.13472421,
        -0.09554091,
        0.097341016,
        -0.062399156,
        -0.012323004,
        -0.004752389,
        -0.10015735,
        0.012697754,
        -0.2878739,
        -0.41927004,
        -0.1134766,
        -0.18189125,
        0.07425348,
        0.014401668,
        0.2759895,
        0.03534867,
        -0.35149145,
        -0.16816829,
        0.103807144,
        -0.12681028,
        0.0891662,
        -0.01849678,
        -0.12252063,
        -0.15996656,
        -0.04526223,
        0.12394589,
        -0.028908854,
        -0.087405466,
        0.12759385,
        0.06526769,
        0.029618578,
        0.07187599,
        -0.016754754,
        -0.05480003,
        -0.13632317,
        0.24474402,
        0.32892755,
        0.37918407,
        0.24828483,
        0.008019626,
        0.08675836,
        -0.067790814,
        0.017549127,
        -0.061556883,
        0.031776562,
        0.1530943,
        0.14587428,
        -0.1465221,
        0.018238217,
        -0.039186716,
        0.03275457,
        0.069292605,
        -0.13722679,
        -0.12706368,
        0.045260772,
        0.13381235,
        0.09416859,
        0.024741903,
        -0.011716366,
        0.1520905,
        -0.13342331,
        -0.121096045,
        0.011203334,
        0.06640257,
        0.11360945,
        0.057435095,
        -0.006315142,
        -0.045754008,
        0.09557067,
        0.08765103,
        0.023836091,
        0.06015171,
        0.053238913,
        0.074031994,
        0.10592987,
        -0.065191664,
        0.01665397,
        -0.076043054,
        0.03066776,
        -0.049424764,
        -0.037970882,
        -0.0337653,
        0.16034144,
        0.20890684,
        0.19603729,
        0.2632789,
        0.3005032,
        0.022926655,
        0.020766413,
        0.26469517,
        0.07997415,
        0.104476586,
        -0.21171485,
        0.072929226,
        0.13282312,
        -0.1121005,
        -0.127784,
        -0.04380511,
        0.073032476,
        -0.041372605,
        -0.18744288,
        -0.24693729,
        0.000052076764,
        -0.18662237,
        -0.027978517,
        0.06764996,
        0.03216306,
        0.13426921,
        0.19862574,
        -0.059428316,
        0.06723605,
        0.036137283,
        -0.1666822,
        -0.105098076,
        -0.0025454164,
        -0.022215217,
        0.04901035,
        -0.12973902,
        0.06465538,
        -0.082775824,
        -0.0010803193,
        0.04329765,
        0.13687856,
        0.125185,
        0.07416016,
        0.10437481,
        -0.07160119,
        -0.015036166,
        0.106731996,
        0.09225972,
        -0.15039814,
        -0.034172088,
        0.11706863,
        0.014038324,
        0.07107192,
        -0.08856834,
        0.14352022,
        -0.037286192,
        -0.11093572,
        -0.089959316,
        -0.15593646,
        -0.016892165,
        -0.01849088,
        0.034779698,
        -0.06452941,
        -0.03242643,
        0.058678776,
        0.06835829,
        -0.010864526,
        -0.099929735,
        -0.15069109,
        -0.10994735,
        -0.1564957,
        -0.042526707,
        -0.051618874,
        0.014499769,
        -0.1379681,
        0.11910759,
        -0.115647085,
        0.07782525,
        0.010945573,
        -0.11886859,
        -0.15262544,
        -0.15047343,
        -0.1129583,
        -0.086439334,
        -0.009135708,
        -0.003968686,
        -0.027063504,
        0.10519309,
        -0.108263224,
        0.04633069,
        -0.102298886,
        -0.055821873,
        -0.088767216,
        0.07450141,
        -0.050845504,
        -0.008678839,
        0.004670173,
        -0.11452217,
        -0.051136725,
        0.12184577,
        -0.103813685,
        0.1276419,
        -0.122693546,
        -0.08466894,
        -0.15145124,
        0.012085304,
        -0.07201188,
        -0.1410445,
        -0.11298515,
        -0.042436756,
        -0.09285431,
        0.06835973,
        0.14478968,
        0.14334418,
        -0.15197031,
        -0.095050685,
        0.13408129,
        0.14404552,
        -0.08988198,
        0.15844457,
        0.09173636,
        0.007920012,
        -0.010164201,
        -0.1363354,
        -0.09135747,
        -0.15118805,
        -0.033404946,
        -0.12952995,
        -0.12549047,
        -0.12077977,
        -0.09658759,
        -0.10243431,
        -0.040264957,
        0.14292832,
        -0.056363128,
        0.0702997,
        0.0009762496,
        -0.05594883,
        -0.027459577,
        0.0075311214,
        0.15127231,
        0.15628426,
        0.023268104,
        0.15007396,
        -0.013919983,
        0.12733434,
        -0.07820722,
        0.02113307,
        0.08192032,
        -0.08480309,
        -0.12502404,
        -0.09423432,
        0.14457266,
        -0.13177429,
        -0.098853864,
        -0.013598382,
        0.042153247,
        0.06649649,
        -0.062337335,
        -0.013581096,
        0.103508785,
        0.13176736,
        0.110473156,
        -0.14216654,
        -0.16058846,
        -0.037956793,
        -0.116552725,
        -0.084494606,
        -0.16478208,
        -0.14142951,
        -0.15258391,
        0.015885482,
        -0.01662646,
        -0.13115609,
        -0.011881755,
        -0.021182166,
        -0.10178776,
        -0.044316914,
        0.11072877,
        0.118682235,
        -0.13069235,
        0.039365366,
        -0.098195486,
        0.107410684,
        -0.15804213,
        0.008359328,
        -0.10194962,
        0.1475778,
        -0.1606378,
        0.065761134,
        0.0584902,
        0.054854333,
        0.1366479,
        -0.08133703,
        0.156487,
        0.07623449,
        0.113468036,
        0.07520418,
        0.040979892,
        0.1483611,
        0.13976322,
        0.14021857,
        0.08584036,
        0.09871681,
        -0.117495716,
        0.0069345534,
        -0.0010170937,
        0.025462002,
        0.1559221,
        0.12785484,
        -0.038620144,
        0.06788531,
        0.034923196,
        0.007644072,
        -0.015771434,
        -0.11861126,
        0.06331265,
        0.11325826,
        -0.16460592,
        -0.104069166,
        0.009467356,
        -0.012068173,
        -0.04161404,
        -0.055865508,
        0.0580973,
        -0.12724064,
        -0.032028142,
        -0.08632395,
        -0.12907295,
        -0.14279485,
        -0.13994834,
        0.09851442,
        0.11816216,
        0.0059321322,
        0.07615687,
        -0.12537351,
        -0.08213517,
        0.007703506,
        -0.047603607,
        -0.050084513,
        -0.08772383,
        0.029362252,
        0.11424551,
        0.12594691,
        0.009060396,
        0.035220675,
        0.10297515,
        -0.006674038,
        0.058071006,
        0.05599468,
        0.040215373,
        -0.11616278,
        -0.14654702,
        -0.1567419,
        0.09962545,
        -0.0892661,
        -0.13088468,
        -0.028782755,
        -0.039439842,
        -0.12859239,
        0.03380592,
        -0.02309376,
        -0.13433531,
        -0.14426075,
        0.0035280436,
        -0.102651805,
        -0.09899464,
        -0.027798027,
        0.1213799,
        -0.0005031526,
        0.15537266,
        -0.039974824,
        -0.011227518,
        -0.011550203,
        0.02652292,
        -0.058658436,
        -0.06397299,
        0.07225956,
        0.02091235,
        0.044927135,
        0.035708994,
        -0.012079075,
        -0.1054741,
        -0.0771704,
        -0.07695965,
        -0.092466824,
        -0.052928366,
        -0.12216836,
        0.049636662,
        -0.02222608,
        0.01338838,
        -0.12861912,
        -0.3355022,
        -0.69185585,
        -0.38286483,
        -0.14497592,
        0.55109286,
        0.054838385,
        -0.35601354,
        -0.45195663,
        0.1961321,
        0.5027277,
        -0.11789352,
        -0.33995786,
        -0.2267085,
        -0.6158338,
        -0.5724519,
        0.037063472,
        0.47488514,
        0.65608877,
        0.76974875,
        0.72657824,
        0.51470864,
        -0.16525528,
        -0.1644618,
        -0.69547755,
        -0.80134827,
        -0.5503858,
        -0.44767922,
        -0.3621801,
        -0.641654,
        -0.4947799,
        -0.41945744,
        0.00023255649,
        0.23786806,
        0.6019671,
        0.2912092,
        -0.11341775,
        -0.082821526,
        0.08725266,
        0.0791049,
        0.14237528,
        0.051570937,
        -0.070901856,
        -0.007044539,
        -0.09268291,
        -0.08791635,
        -0.037369058,
        -0.013203844,
        0.15352283,
        -0.039108947,
        0.11535962,
        0.14461695,
        -0.07109337,
        -0.02018857,
        -0.061227128,
        0.08789925,
        -0.07583366,
        0.06697464,
        0.0011539608,
        0.04642676,
        -0.057544492,
        -0.03799191,
        0.15836193,
        -0.14163682,
        -0.03165126,
        -0.14970112,
        0.0093845725,
        -0.04053717,
        0.052951023,
        0.1418796,
        -0.08530101,
        -0.15025918,
        -0.16409898,
        -0.11204934,
        0.06631948,
        0.1625262,
        0.21647152,
        0.24310662,
        0.16340399,
        0.1664744,
        -0.032093856,
        -0.16874315,
        -0.6470116,
        -1.1602058,
        -1.0857266,
        -0.9520741,
        -0.8228393,
        -0.85329294,
        -0.43789318,
        -0.16491966,
        0.42716235,
        0.42943287,
        0.20686524,
        0.18426171,
        0.12392425,
        -0.36788929,
        0.03308819,
        -0.253971,
        -0.097443335,
        0.098028295,
        0.23407318,
        0.06483078,
        0.3390255,
        0.16372152,
        0.23997189,
        0.09965089,
        -0.1220181,
        0.09359884,
        0.2294242,
        0.5222324,
        0.45337063,
        0.09232743,
        -0.043485984,
        -0.066979736,
        -0.098964386,
        -0.1079593,
        -0.05834961,
        0.03399065,
        0.103404924,
        0.07552834,
        0.004798427,
        0.050691888,
        0.14194866,
        0.017137453,
        0.0032322407,
        -0.16192153,
        0.022253916,
        -0.08541335,
        0.007637456,
        0.04065217,
        0.12551518,
        -0.09047458,
        0.1363462,
        -0.09996717,
        0.04271692,
        -0.13356107,
        0.02455388,
        0.12685348,
        0.11039372,
        -0.16043997,
        -0.023194537,
        0.07759896,
        -0.04667095,
        -0.10736996,
        -0.046085134,
        0.043401197,
        -0.03457533,
        0.06243491,
        -0.0632392,
        0.6642529,
        0.996495,
        0.9063514,
        0.43357342,
        0.47862405,
        0.27793506,
        0.023601169,
        0.22072032,
        -0.019633755,
        -0.03785223,
        -0.09796822,
        0.025498815,
        -0.021945996,
        -0.13296668,
        -0.39484665,
        -0.24491043,
        -0.3167368,
        -0.21748166,
        -0.010842975,
        -0.14697789,
        -0.098690055,
        -0.27043897,
        -0.054487593,
        -0.10425691,
        -0.098292686,
        -0.12879615,
        0.019008806,
        -0.045709793,
        -0.23044966,
        0.15581656,
        -0.032391485,
        -0.108154126,
        0.12998939,
        0.16383363,
        0.37589756,
        0.2878817,
        0.08420631,
        0.124959126,
        -0.12769818,
        0.13773935,
        0.13030304,
        0.053079933,
        -0.05134462,
        -0.12717849,
        0.032211006,
        0.10318129,
        -0.09829151,
        -0.090683654,
        -0.08068877,
        -0.028976455,
        0.018171087,
        -0.11514284,
        -0.13337603,
        -0.043773405,
        0.036292538,
        0.13256241,
        -0.11085548,
        -0.014266863,
        -0.050595313,
        -0.033272,
        0.08403401,
        -0.07665776,
        -0.1514469,
        0.03214097,
        0.13217406,
        0.022836715,
        -0.06983891,
        0.14918394,
        0.007830843,
        -0.07178502,
        0.15205286,
        -0.06423485,
        -0.049920954,
        0.15652888,
        0.40309983,
        0.5593939,
        0.4863662,
        0.5391898,
        0.3577072,
        0.34617448,
        0.23056026,
        0.04026519,
        0.031795148,
        -0.2551336,
        -0.13098681,
        -0.33751655,
        -0.11691816,
        -0.38753954,
        -0.28257015,
        -0.21173288,
        -0.054424435,
        -0.24250871,
        -0.11689875,
        -0.07493961,
        -0.13013688,
        -0.100779876,
        -0.28386226,
        -0.09060187,
        -0.20670846,
        -0.3695441,
        -0.27784804,
        -0.18505386,
        -0.15985069,
        -0.05460619,
        -0.15658383,
        -0.1506525,
        -0.19046962,
        -0.13556473,
        -0.006763094,
        0.2514498,
        0.1300583,
        -0.16438182,
        -0.019246414,
        -0.123741165,
        -0.008701891,
        -0.069374755,
        0.16210048,
        0.054360896,
        0.15672167,
        0.088200495,
        -0.08889687,
        -0.044999175,
        0.09767987,
        -0.063437454,
        0.16407217,
        0.014678344,
        -0.019296631,
        0.057651147,
        -0.0053806007,
        -0.15748458,
        0.11625193,
        0.14909051,
        0.010031134,
        -0.0040331334,
        0.040697277,
        0.104764864,
        0.099350825,
        0.14498337,
        -0.019580558,
        -0.09459147,
        0.1341085,
        -0.12741876,
        -0.014884755,
        0.13573037,
        -0.10144089,
        0.16208346,
        -0.12023374,
        -0.020085841,
        -0.20231384,
        -0.2770676,
        -0.22676219,
        -0.27106884,
        0.006100955,
        -0.23858194,
        -0.07699307,
        0.13630237,
        0.13586363,
        0.07737689,
        -0.053951785,
        0.060626093,
        0.14901124,
        0.34775674,
        0.27688435,
        0.29383373,
        0.28926829,
        -0.08953836,
        0.10989022,
        0.1889589,
        0.09946292,
        0.24818991,
        -0.015021561,
        0.10131616,
        0.11348853,
        -0.07557906,
        0.017876912,
        0.015931075,
        -0.090128675,
        -0.120208524,
        -0.052140653,
        -0.05616505,
        -0.06621733,
        -0.027372826,
        -0.33053067,
        -0.2115744,
        -0.07870793,
        -0.15215038,
        0.0711633,
        0.1618291,
        -0.14287807,
        0.086148426,
        -0.113617525,
        -0.0053152144,
        0.16114531,
        -0.10628655,
        -0.11186434,
        0.032323107,
        -0.14356227,
        0.097047284,
        -0.11402885,
        -0.025751159,
        -0.08588911,
        0.036505654,
        0.15732451,
        -0.02767022,
        0.08738281,
        0.0066918135,
        -0.1422609,
        0.13079323,
        -0.07774587,
        0.07181296,
        0.11129032,
        0.019315407,
        -0.10093346,
        -0.083046004,
        -0.047822252,
        0.08668722,
        -0.11814864,
        -0.1444946,
        -0.15685634,
        -0.034831837,
        -0.13465711,
        -0.13105503,
        -1.0140321,
        -1.109715,
        -0.83348715,
        -0.3525294,
        -0.49306858,
        -0.2012693,
        -0.36710536,
        -0.49860552,
        -0.4106396,
        -0.030632326,
        0.30855262,
        0.57751155,
        0.3265011,
        -0.062680215,
        0.1754471,
        -0.06400545,
        -0.27526245,
        -0.68484354,
        -0.8081745,
        -0.3846833,
        -0.64033526,
        -0.14509779,
        -0.11997589,
        0.23481691,
        0.2379694,
        0.14937133,
        0.24399874,
        0.4285064,
        0.8688962,
        0.7046505,
        0.820468,
        0.7281365,
        0.115681715,
        -0.26805377,
        -0.3784039,
        -0.67191637,
        -0.021349236,
        -0.16028269,
        -0.13399933,
        0.08849837,
        0.0054571033,
        -0.061935827,
        -0.11199153,
        0.105268195,
        0.033062145,
        0.12642498,
        -0.0048639625,
        0.050677627,
        -0.066943206,
        -0.06899157,
        -0.054174006,
        0.030454561,
        -0.1387664,
        0.026634231,
        -0.15324344,
        -0.07070298,
        0.1403922,
        0.053103372,
        0.08048433,
        -0.13733423,
        0.08169006,
        0.04910913,
        -0.14383312,
        0.10478036,
        0.034876317,
        0.044787794,
        0.086964026,
        0.071110144,
        -0.004729748,
        -0.103523165,
        0.074344814,
        -0.021094576,
        0.12025495,
        0.13227777,
        -1.135079,
        -1.042584,
        -0.71880764,
        -0.54806757,
        -0.019117957,
        0.19548777,
        0.43575114,
        0.54338115,
        0.37144977,
        0.5337016,
        0.37506238,
        0.39755586,
        0.13438454,
        0.2665484,
        0.11466793,
        0.054651093,
        0.038580935,
        -0.019393057,
        0.13144572,
        0.10186291,
        0.054811575,
        0.13396032,
        0.027016707,
        0.009504272,
        0.23479727,
        0.2275163,
        0.35460958,
        0.24408141,
        0.45152593,
        0.6459557,
        0.5876995,
        0.562402,
        0.32142574,
        -0.33664808,
        -0.7989592,
        -1.2363069,
        0.052772164,
        -0.026295587,
        0.16039596,
        0.13095383,
        -0.05579091,
        -0.09400655,
        0.10378663,
        -0.12906808,
        0.005140871,
        -0.14357212,
        0.15449683,
        0.13599373,
        0.116765335,
        -0.06595986,
        0.091689095,
        0.054112896,
        0.0412782,
        0.16382907,
        0.122578576,
        -0.14277315,
        0.02005209,
        -0.109249786,
        0.017181784,
        0.027331322,
        -0.16422363,
        0.055470556,
        -0.15807377,
        0.015268013,
        0.13289417,
        -0.056910142,
        -0.122043796,
        -0.11807546,
        0.15709697,
        -0.031238869,
        0.06511237,
        -0.07446605,
        0.1334884,
        -0.05326447,
        -0.24649704,
        -0.16253743,
        -0.2559197,
        -0.12697688,
        -0.0039510187,
        0.110800765,
        0.08102132,
        -0.27230036,
        -0.53413284,
        -0.65861297,
        -0.2957021,
        -0.016091285,
        -0.45052013,
        0.33908254,
        0.6478562,
        0.63022697,
        0.93423545,
        1.0609546,
        0.28775647,
        -0.25240093,
        -0.76629215,
        -1.6498553,
        -0.8535967,
        -1.2010587,
        -1.0707035,
        -0.5758824,
        -0.58222115,
        -0.33253595,
        0.07833333,
        0.48649403,
        0.60852134,
        0.88132817,
        0.61379814,
        0.31728798,
        -0.312855,
        0.24244872,
        0.045257002,
        0.07336284,
        0.15369923,
        -0.010832578,
        0.035403028,
        0.1341482,
        -0.065014966,
        -0.14532177,
        0.111686364,
        -0.13882163,
        -0.06607502,
        -0.038720086,
        -0.07964554,
        0.015742004,
        -0.04333061,
        -0.031891644,
        -0.13120562,
        0.10951413,
        0.12004332,
        0.016238615,
        0.08197729,
        -0.0012183934,
        -0.052540325,
        0.11043735,
        0.022577897,
        -0.04765238,
        0.024016112,
        0.06179911,
        -0.102767125,
        0.034335062,
        -0.15499847,
        0.07747777,
        -0.072693616,
        0.08872931,
        0.09499921,
        -0.06384858,
        -0.15113905,
        -0.12993845,
        0.3478369,
        0.09428298,
        -0.0009507425,
        -0.2668173,
        -0.18884568,
        -0.28740376,
        -0.1435244,
        -0.13130999,
        -0.058084235,
        0.086286165,
        0.024370952,
        0.10653381,
        -0.20371187,
        -0.17027226,
        0.13808678,
        -0.14202881,
        0.06762638,
        -0.13573763,
        -0.003394226,
        0.021418612,
        0.11678704,
        0.0041333255,
        0.070536,
        0.05019993,
        0.10607645,
        0.084689386,
        0.03287195,
        0.33537257,
        0.06983793,
        0.30072978,
        0.33901858,
        0.20513928,
        0.24823101,
        0.33510074,
        0.33304498,
        0.2650568,
        -0.061182916,
        -0.103645146,
        -0.023636103,
        0.02498284,
        -0.13404135,
        -0.06789413,
        0.07832506,
        0.026855454,
        -0.057304412,
        0.0464274,
        -0.1442589,
        -0.0748319,
        -0.0524635,
        0.121350035,
        0.066821024,
        -0.07436222,
        -0.0933902,
        0.0481451,
        0.111609384,
        0.12284036,
        -0.12778327,
        0.039024875,
        -0.08588895,
        0.13493793,
        0.1451023,
        0.11743496,
        -0.15684031,
        0.032004803,
        0.02569969,
        0.14187713,
        -0.121597156,
        -0.13817258,
        -0.12024506,
        0.07839115,
        -0.0797728,
        -0.16141136,
        -0.044887275,
        -0.041417114,
        0.61798334,
        0.18856372,
        0.5423281,
        0.1049714,
        0.10954836,
        0.14278269,
        -0.5728402,
        -0.5394727,
        0.089331,
        -0.26982105,
        -0.08159597,
        -0.21232098,
        -0.18486926,
        -0.18125291,
        -0.17997546,
        0.15519139,
        -0.21581498,
        0.19117647,
        -0.54713047,
        -0.0063191936,
        -0.070143,
        0.06805997,
        0.193574,
        0.62684315,
        0.7195113,
        0.801493,
        0.36499777,
        -0.34637523,
        -0.58255196,
        -0.5458115,
        -0.4039503,
        -0.56001705,
        -0.74061835,
        -0.75242156,
        -0.48294237,
        0.32670453,
        -0.0804351,
        0.12308057,
        0.029201835,
        0.11991714,
        0.013932407,
        0.04122497,
        -0.15622078,
        -0.01651439,
        0.12409283,
        0.11785589,
        0.10262491,
        -0.01566498,
        0.11825283,
        -0.023699522,
        0.04395108,
        0.16200377,
        -0.15920237,
        -0.02735418,
        0.05142294,
        0.06441708,
        0.11251186,
        0.08585833,
        0.13850372,
        -0.07501334,
        0.06938788,
        -0.15025707,
        -0.06741806,
        -0.0047676563,
        -0.05907391,
        -0.07752324,
        -0.14887847,
        0.14510687,
        0.11777605,
        0.13358147,
        -0.15251169,
        -0.1434987,
        0.061767057,
        -0.0054320246,
        -0.34904903,
        -0.18086264,
        -0.13937758,
        -0.2344993,
        0.055545337,
        0.17250012,
        0.15106425,
        0.14777744,
        0.13390821,
        0.31688344,
        0.2017111,
        0.38419008,
        0.26473662,
        0.47461635,
        0.5338035,
        0.37688223,
        0.5158997,
        0.3628228,
        0.51263267,
        0.30120263,
        0.18066739,
        0.34153774,
        0.28886214,
        0.31145713,
        0.39786598,
        0.056792505,
        0.10484116,
        0.17739251,
        -0.091435604,
        -0.47776127,
        -0.30511168,
        -0.21493708,
        -0.25707948,
        -0.063627824,
        -0.28186393,
        -0.4131293,
        0.12810569,
        0.025800183,
        0.1574928,
        0.15232687,
        -0.098061316,
        -0.080403544,
        -0.14223988,
        0.019221991,
        -0.13952033,
        -0.15857159,
        -0.041467287,
        -0.097978026,
        0.109923616,
        -0.10241373,
        0.119399056,
        0.14037307,
        0.048470348,
        -0.1572037,
        0.12381227,
        0.1018153,
        0.12967251,
        -0.10114171,
        0.10995166,
        -0.08545713,
        0.15639879,
        -0.067226864,
        -0.15668322,
        0.12233983,
        0.07069397,
        0.052145034,
        -0.14301863,
        0.0022278428,
        -0.14181422,
        0.11308457,
        -0.04547243,
        0.12035893,
        -0.14736392,
        -0.16421779,
        -0.15294394,
        0.5610609,
        1.0030065,
        0.6667482,
        -0.13040395,
        -0.40762743,
        -0.9603414,
        -0.6385044,
        -0.7931697,
        -0.14539374,
        -0.114860676,
        0.10033518,
        0.10200193,
        -0.25406757,
        -0.18679409,
        -0.37805805,
        -0.008684614,
        0.036035635,
        0.20379885,
        0.20247848,
        0.0033549145,
        0.19203977,
        0.043005176,
        0.08738522,
        0.045722686,
        -0.13037957,
        0.05488065,
        0.41262037,
        1.0616263,
        1.1933272,
        0.68957996,
        0.19761322,
        -0.49010792,
        -1.1648332,
        -1.3235792,
        -1.609571,
        0.14161737,
        -0.058849864,
        0.01290524,
        0.15406169,
        -0.14441541,
        -0.03412749,
        0.11834933,
        -0.049571484,
        -0.03368649,
        -0.14232475,
        -0.11367914,
        0.15565856,
        0.07963884,
        0.14804415,
        0.15577148,
        0.036091387,
        -0.09998187,
        -0.13721487,
        0.10188742,
        0.037102163,
        0.07966392,
        -0.11023266,
        -0.12192194,
        0.05011171,
        -0.018600151,
        -0.024414182,
        0.043876216,
        -0.14002149,
        0.018480733,
        0.0953363,
        0.112109944,
        0.025231063,
        -0.050317883,
        -0.004977986,
        -0.023698822,
        -0.011970863,
        0.06616376,
        0.031130537,
        0.07022042,
        0.10330197,
        -0.07783954,
        -0.1650277,
        -0.05990969,
        -0.18818124,
        -0.2526792,
        -0.22161442,
        -0.16920944,
        0.06509599,
        0.087140046,
        0.054086387,
        0.26272294,
        0.35515755,
        0.27233294,
        0.19294825,
        -0.079192206,
        0.1671587,
        0.15162617,
        0.004552247,
        -0.120974615,
        -0.03741222,
        0.07174493,
        0.11801339,
        -0.017159857,
        0.08728367,
        0.15358993,
        0.053151608,
        -0.051917586,
        -0.2760618,
        -0.2382968,
        -0.11279583,
        -0.12028123,
        -0.092963755,
        0.12258088,
        -0.06377846,
        -0.12841256,
        -0.08646924,
        -0.073679626,
        0.048268422,
        0.06794517,
        0.013043255,
        -0.1043812,
        -0.036914036,
        0.066567674,
        -0.028536484,
        -0.0469964,
        0.13689558,
        -0.06903744,
        -0.026445031,
        -0.08631438,
        0.119341955,
        -0.11028777,
        -0.04054489,
        -0.1353185,
        -0.14136119,
        0.028621927,
        -0.12413509,
        -0.109478965,
        0.030707225,
        -0.098529585,
        0.12159668,
        0.07305591,
        -0.059958205,
        0.051367506,
        -0.14823374,
        0.02786012,
        0.14825763,
        -0.004786387,
        0.10185985,
        0.15090568,
        0.07280199,
        -0.1289934,
        0.08484274,
        -0.1613235,
        -0.09779662,
        -0.10718351,
        -0.037612587,
        -0.15154068,
        -0.043264177,
        0.047177628,
        0.016856277,
        0.12984984,
        -0.12231911,
        -0.11417598,
        0.055995353,
        -0.04692564,
        0.005316039,
        -0.07797763,
        0.047521356,
        0.10445447,
        -0.05858852,
        -0.13844743,
        -0.044343844,
        -0.16455877,
        0.1202626,
        -0.08839454,
        0.04103116,
        0.14874887,
        -0.08793993,
        -0.05946406,
        0.08586701,
        0.10249557,
        0.010807605,
        -0.17165925,
        -0.061992317,
        0.14399795,
        0.03913777,
        0.040018234,
        -0.1242493,
        -0.041817576,
        -0.022382468,
        -0.00025586784,
        -0.11312091,
        -0.096852675,
        -0.13916357,
        0.004347235,
        -0.14993297,
        -0.0065164864,
        0.031151697,
        -0.08207101,
        0.029842839,
        0.021591663,
        0.1272551,
        0.011552721,
        0.14241965,
        0.003866747,
        0.08623211,
        -0.15144125,
        0.15621941,
        0.059062704,
        0.072981,
        -0.15340891,
        -0.09692813,
        0.074144095,
        -0.008419916,
        -0.11817172,
        -0.12737733,
        0.09367685,
        -0.109239474,
        -0.070279546,
        0.0871305,
        0.1529053,
        0.06593175,
        -0.038535908,
        0.03875588,
        -0.12721306,
        -0.13728875,
        -0.23232087,
        -0.7339973,
        -1.4205934,
        -0.60434914,
        -0.17444816,
        0.24409029,
        0.8514332,
        0.6400668,
        0.6290112,
        0.71548814,
        1.0169286,
        0.08615964,
        -0.8025051,
        -1.4127269,
        -1.1175776,
        -0.9873783,
        -0.7978245,
        -1.2282476,
        -0.8023114,
        0.49848777,
        0.21378875,
        0.19825307,
        0.10287226,
        0.26284942,
        -0.07225922,
        0.29464436,
        0.22481787,
        0.55260557,
        0.29287565,
        0.06577224,
        -0.19146313,
        0.11123539,
        -0.05203774,
        0.06082546,
        -0.19258481,
        -0.4185926,
        -0.115352094,
        0.15036254,
        0.05955343,
        0.099307105,
        0.07975748,
        0.031491414,
        0.07566078,
        0.038568795,
        -0.09540137,
        -0.046082154,
        0.111493066,
        -0.060250998,
        -0.016416833,
        -0.08050741,
        -0.048132606,
        0.08046669,
        0.12815194,
        0.11761825,
        0.15132214,
        -0.13748167,
        0.122835055,
        0.086373165,
        -0.14720987,
        -0.013192788,
        0.13029964,
        0.09788333,
        -0.116402544,
        0.14926387,
        0.025787055,
        -0.05846551,
        0.15338062,
        0.09801258,
        0.054043487,
        -0.14802836,
        -0.12870394,
        -0.057106003,
        0.16187714,
        -0.033796042,
        -0.328576,
        -0.31581366,
        -0.35963175,
        -0.011203678,
        0.29861864,
        0.3020584,
        0.2747565,
        0.23685424,
        -0.0446157,
        0.10575991,
        0.15482588,
        0.10868494,
        0.078247085,
        0.012180588,
        0.23165812,
        -0.0758487,
        0.10921295,
        0.113074996,
        0.13607416,
        0.10136292,
        0.21335413,
        0.20244272,
        0.009801285,
        0.09580867,
        0.17186457,
        0.24060392,
        0.029371317,
        0.2655479,
        0.15964228,
        -0.023296637,
        0.05713455,
        0.10717433,
        0.07471415,
        -0.05289894,
        -0.14992663,
        -0.40500382,
        0.15625916,
        0.0532362,
        0.0022807568,
        0.14533503,
        0.09857969,
        0.056013733,
        0.10372169,
        0.1093386,
        0.06930648,
        0.05757232,
        0.048804462,
        -0.103043176,
        -0.093236156,
        -0.069184184,
        -0.15231179,
        -0.023294747,
        -0.013044506,
        0.05505857,
        -0.033158883,
        -0.038604304,
        -0.029800981,
        -0.0032930672,
        0.120139614,
        0.11266188,
        -0.111616,
        0.06913555,
        -0.0048403293,
        0.1353624,
        0.04408984,
        0.0333333,
        -0.10531519,
        -0.1265927,
        -0.14324585,
        -0.14526843,
        -0.009324983,
        -0.061316416,
        0.1427681,
        -0.13296476,
        -0.09828681,
        0.27092448,
        0.71432376,
        0.62905246,
        0.58082104,
        0.696508,
        0.574224,
        0.5928582,
        0.4944162,
        0.4087069,
        0.24922477,
        0.08604605,
        0.20741855,
        0.023113396,
        -0.21964143,
        -0.13294163,
        -0.07790473,
        -0.08146835,
        -0.36623228,
        -0.17475276,
        0.042543076,
        -0.36000663,
        -0.17096603,
        -0.25242794,
        -0.09077267,
        -0.23936413,
        -0.20735066,
        0.067404225,
        -0.065410316,
        0.060779892,
        -0.002203234,
        -0.031236174,
        -0.15068515,
        -0.20282537,
        -0.3668358,
        -0.20453316,
        0.16350885,
        0.01955998,
        0.037741497,
        -0.012863666,
        0.07297771,
        -0.007222727,
        -0.12846814,
        -0.15777984,
        -0.026253492,
        0.08277038,
        0.031317428,
        0.12852187,
        -0.06313639,
        -0.07741079,
        0.050823584,
        0.06903191,
        0.023528084,
        0.14787494,
        0.10120161,
        0.044053182,
        -0.08132213,
        0.059911057,
        0.12601332,
        0.09238352,
        -0.09681273,
        0.06687598,
        0.099652275,
        -0.023881868,
        -0.017971411,
        -0.15463085,
        0.08484626,
        -0.023562461,
        0.04825835,
        0.13015847,
        0.10113339,
        -0.048661627,
        0.10075517,
        0.018719241,
        0.25922966,
        0.4045606,
        -0.22651823,
        -0.03943135,
        0.17464016,
        0.12547453,
        0.030711895,
        -0.018413698,
        0.22144733,
        0.091878265,
        0.27463648,
        0.29065797,
        -0.04170831,
        0.39827147,
        -0.19036426,
        -0.30022198,
        0.18003912,
        0.49242055,
        0.62697196,
        0.4701622,
        0.10166421,
        -0.5652617,
        -0.72410154,
        -0.7602966,
        -0.54669315,
        -0.3858754,
        -0.57947636,
        -0.51466393,
        -0.54842293,
        -0.32694712,
        -0.65708476,
        -0.7966767,
        -0.4844008,
        0.06249113,
        0.21920547,
        0.5861656,
        -0.15961224,
        -0.09880611,
        0.029193684,
        0.091666475,
        -0.15994501,
        -0.11710944,
        -0.15784098,
        0.15339331,
        -0.076883055,
        0.16321011,
        -0.052845545,
        0.08688475,
        0.08981578,
        -0.04674045,
        0.009900734,
        0.07670714,
        -0.03941311,
        -0.09627877,
        0.092962876,
        -0.092697926,
        0.0058364123,
        -0.048569202,
        -0.013005778,
        0.00494501,
        -0.0029913485,
        0.1487885,
        0.109749064,
        -0.13438772,
        0.110700354,
        -0.10652819,
        0.069088146,
        -0.016426474,
        0.010417178,
        0.0036058575,
        -0.15795907,
        0.15376316,
        -0.0187992,
        0.057631582,
        0.7250992,
        0.9153832,
        0.94929314,
        0.88465494,
        -0.009342042,
        -0.32637152,
        -0.68322426,
        -0.6925165,
        -0.24732366,
        -0.027580539,
        0.29048017,
        0.101295054,
        -0.25622264,
        0.09864384,
        -0.23161487,
        -0.4432931,
        -0.6109145,
        0.6781372,
        -0.17558107,
        -0.64826727,
        -0.90642,
        -0.12565768,
        0.46492863,
        0.46298698,
        0.59624434,
        -0.08764871,
        -0.33103886,
        -0.74008644,
        -0.61245805,
        -0.5317955,
        -0.5468994,
        -1.5342969,
        -0.8040265,
        -0.9264143,
        -0.40676776,
        0.9336061,
        -0.1500812,
        0.15721129,
        0.071009174,
        -0.025701568,
        0.14939176,
        -0.013882548,
        0.019306421,
        -0.1433561,
        -0.12426001,
        0.0074498653,
        -0.002675578,
        -0.03914176,
        -0.14579746,
        0.13821076,
        -0.08920875,
        0.101857886,
        -0.11744468,
        0.11462848,
        0.10097851,
        0.16051526,
        0.010043293,
        0.10961349,
        0.120552704,
        0.06107101,
        -0.1303089,
        0.10550909,
        -0.014946207,
        -0.14588028,
        0.09962843,
        0.14116956,
        -0.15034498,
        0.11017229,
        0.16066335,
        -0.11861864,
        0.0064321756,
        -0.0062087625,
        -0.01790765,
        0.12459426,
        -0.627911,
        -0.29609525,
        0.27035576,
        -0.046175666,
        -0.0065836064,
        0.14720371,
        -0.14522791,
        -0.20835759,
        -0.2703294,
        -0.20468298,
        -0.08900465,
        -0.08857917,
        -0.31236613,
        -0.5936086,
        0.12524553,
        0.42166775,
        0.3231789,
        0.048327077,
        -0.43344465,
        -0.2589588,
        -0.23910654,
        -0.480163,
        -0.58542407,
        -0.75556314,
        -0.5122254,
        -0.14875524,
        0.5879344,
        1.1243349,
        0.95340073,
        1.2406459,
        0.59104085,
        0.3340609,
        0.012291798,
        -0.66383505,
        -1.5151734,
        -1.5980452,
        -0.086686544,
        -0.06734171,
        -0.045825854,
        -0.12373741,
        0.028852165,
        -0.0034836382,
        0.09706931,
        -0.047855176,
        -0.13111433,
        0.055550724,
        -0.053487495,
        0.14040138,
        -0.15724893,
        0.100484625,
        -0.10588706,
        -0.1412839,
        -0.13980423,
        -0.09216737,
        0.030199245,
        -0.13891123,
        0.04333794,
        -0.059825957,
        -0.043046877,
        -0.15130849,
        0.14248924,
        0.009939298,
        -0.068670325,
        -0.088833414,
        0.024124801,
        0.15073334,
        0.13666262,
        -0.01476191,
        -0.07394141,
        0.06273867,
        0.014231443,
        0.1256621,
        0.12105797,
        0.11177884,
        -0.23710461,
        0.16988394,
        0.3842215,
        0.396857,
        0.51202065,
        0.52459097,
        0.4771133,
        0.31742126,
        0.24186744,
        0.41812804,
        0.333523,
        0.32097122,
        0.10226064,
        0.13618192,
        -0.18380314,
        0.063253865,
        -0.026236022,
        -0.07788807,
        -0.03617755,
        0.1001972,
        -0.09569414,
        0.07658329,
        0.11690161,
        0.066098385,
        -0.03464852,
        0.0306474,
        -0.082433194,
        -0.048465554,
        0.23898312,
        -0.07651992,
        -0.06744374,
        -0.073041566,
        -0.12239063,
        -0.4189359,
        -0.40477613,
        -0.14446992,
        -0.07904815,
        -0.11619441,
        -0.104252204,
        0.025477096,
        -0.14980134,
        -0.09224792,
        -0.061776772,
        0.047877714,
        -0.011654079,
        0.113760665,
        -0.0025798231,
        0.15016936,
        0.02104938,
        -0.08382083,
        -0.15267146,
        0.156204,
        0.07926804,
        0.009411722,
        0.047502145,
        0.055565536,
        0.10348986,
        0.13503419,
        0.15866213,
        -0.12758185,
        0.1196899,
        0.05544637,
        -0.05570621,
        0.057384998,
        -0.14416593,
        0.041846782,
        0.057873726,
        -0.042104922,
        -0.055279523,
        -0.16077836,
        0.07693879,
        -0.0381746,
        0.009999976,
        -0.09768825,
        0.4633602,
        0.58340496,
        0.2646617,
        0.2571865,
        0.7489659,
        0.79672307,
        0.045224555,
        -0.45157757,
        -1.0995035,
        -0.2667354,
        -0.040374804,
        -0.08395014,
        -0.34197024,
        -0.2875466,
        -0.05846084,
        -0.4489469,
        -0.212175,
        0.13646643,
        -0.1128819,
        -0.11355437,
        -0.21793121,
        -0.28506312,
        0.30613953,
        0.28339514,
        0.36455113,
        0.082543746,
        -0.14269736,
        -0.48355186,
        -0.110130966,
        -0.21328042,
        0.16527379,
        0.19495341,
        -0.8661681,
        -1.1704298,
        -0.28023297,
        -0.4242753,
        0.04827869,
        -0.00019814074,
        0.14886688,
        -0.1018608,
        -0.009825319,
        0.022811279,
        -0.008855268,
        0.14804776,
        -0.07722124,
        0.06442629,
        0.06995101,
        0.12883209,
        -0.1635355,
        0.020017907,
        0.015482485,
        0.0007003546,
        -0.09055462,
        -0.09825733,
        0.13732488,
        0.03575614,
        -0.15951653,
        0.038119882,
        0.03381948,
        -0.009982109,
        0.103584036,
        0.020393044,
        0.15722741,
        0.16220425,
        0.0567037,
        -0.05861026,
        0.07314068,
        -0.13168623,
        -0.101874515,
        0.13472445,
        -0.1052648,
        0.10463108,
        0.027718395,
        -0.14462985,
        -0.15096055,
        0.31284723,
        0.6710774,
        0.69205654,
        0.3346784,
        0.24976233,
        0.26487803,
        0.18502586,
        0.10096432,
        0.13004927,
        0.25678423,
        0.20996994,
        0.050402,
        0.06362154,
        -0.33741474,
        -0.07767203,
        -0.10545862,
        0.068375446,
        -0.15884952,
        0.07826298,
        0.15213157,
        0.12690048,
        0.11667663,
        0.104905546,
        0.24766794,
        0.16284023,
        0.2940049,
        0.07249688,
        0.14185752,
        -0.13840841,
        -0.1974645,
        -0.26835737,
        -0.55779415,
        -0.7242297,
        -0.6529301,
        -0.3109781,
        -0.12314089,
        0.13476424,
        -0.04139626,
        -0.015045881,
        0.14380552,
        -0.03657636,
        0.12235163,
        -0.05770676,
        -0.105362035,
        0.11919244,
        -0.04491193,
        0.108468816,
        0.11539118,
        0.0377703,
        0.10932277,
        -0.054757163,
        0.029877216,
        0.0063439906,
        0.020559043,
        -0.10936345,
        -0.12801123,
        -0.123410285,
        0.1468681,
        0.041712016,
        -0.0042316467,
        0.0967605,
        0.14798732,
        -0.034736708,
        -0.04905367,
        -0.12931061,
        0.059746623,
        -0.07739671,
        0.037301555,
        -0.003414467,
        -0.08479268,
        -0.022675887,
        -0.11344534,
        0.09363626,
        0.59625226,
        0.780266,
        0.5490816,
        0.56641763,
        0.34569076,
        0.35093564,
        0.052290287,
        0.10565292,
        0.2249732,
        0.19838893,
        0.029655086,
        0.02278355,
        0.0450264,
        -0.12706979,
        -0.22683495,
        -0.04977386,
        -0.12219805,
        -0.055446353,
        -0.2767436,
        -0.11086273,
        -0.09941797,
        -0.16031921,
        -0.12960377,
        0.16969433,
        -0.13699837,
        -0.18057331,
        0.06634302,
        -0.08194752,
        -0.1520299,
        -0.2512863,
        -0.1879353,
        0.05572405,
        -0.07333611,
        0.21491893,
        0.44049305,
        0.31069443,
        -0.009511709,
        -0.022956535,
        -0.07862531,
        -0.13086605,
        -0.00970915,
        0.11185257,
        0.13229443,
        0.082088456,
        -0.024858668,
        -0.08865021,
        0.15658925,
        -0.04688026,
        0.13449527,
        -0.054813482,
        -0.1642333,
        -0.120372415,
        0.15451072,
        0.09620182,
        -0.102142654,
        0.053512618,
        -0.023268104,
        0.03494236,
        0.14384408,
        -0.14146134,
        0.11381395,
        -0.11279383,
        0.1258261,
        0.09149544,
        0.12255569,
        0.027532399,
        0.036434308,
        -0.14571789,
        -0.046263635,
        -0.020855084,
        0.078373715,
        0.13732918,
        0.10642497,
        -0.07442082,
        -0.1383792,
        0.095854,
        -0.030087864,
        -0.0051415865,
        -0.08648003,
        -0.1372334,
        0.05096654,
        0.095681116,
        -0.0033086084,
        0.028112551,
        -0.15790132,
        0.09882061,
        -0.02320955,
        -0.11731497,
        -0.017629977,
        0.036215164,
        -0.013795944,
        -0.04314197,
        0.12503512,
        -0.14909151,
        -0.08689672,
        0.11976947,
        -0.04407659,
        -0.12785603,
        0.15785895,
        -0.01628373,
        -0.121145904,
        -0.019745644,
        -0.054546583,
        -0.090145305,
        0.07137184,
        -0.15628135,
        -0.016505083,
        0.032052886,
        0.063530445,
        0.061759047,
        -0.0228284,
        -0.027908802,
        -0.1034853,
        -0.057748698,
        -0.0101150125,
        0.102415875,
        -0.021397397,
        -0.048552506,
        0.013123259,
        -0.16215412,
        -0.0939516,
        0.0230847,
        -0.084394805,
        -0.06305922,
        -0.15488048,
        -0.080890626,
        -0.06271159,
        -0.011508897,
        -0.10420631,
        0.15488245,
        -0.16331248,
        0.087500826,
        0.019233912,
        0.11111911,
        -0.10397913,
        -0.0044217557,
        0.12729333,
        -0.10029352,
        0.09939338,
        0.1136459,
        -0.13323058,
        -0.032308564,
        -0.0903568,
        0.065588444,
        -0.10692018,
        -0.098833315,
        -0.07693044,
        0.0052721053,
        -0.23514543,
        0.21305545,
        0.6714148,
        0.7616625,
        0.76908827,
        0.28511646,
        0.4033943,
        0.10858357,
        -0.43205783,
        -0.51456267,
        -0.4077962,
        -0.374209,
        0.23010118,
        0.22428948,
        0.0007773712,
        0.24781658,
        -0.36155576,
        -0.19802266,
        -0.18613581,
        -0.2578079,
        -0.1144194,
        0.31556568,
        0.6467182,
        -0.15422845,
        -0.20972858,
        -0.39414403,
        -0.7148073,
        -0.47769755,
        -0.24962065,
        -0.21830072,
        -0.2448734,
        -0.74772316,
        -0.51888186,
        -0.29146877,
        -0.082597956,
        -0.4309306,
        -0.070978954,
        -0.1228517,
        -0.1097707,
        -0.030579522,
        -0.04997982,
        0.0635218,
        0.062672466,
        0.05476652,
        -0.07041426,
        -0.16418557,
        0.019817263,
        0.09990059,
        0.07796471,
        -0.012087151,
        0.023099482,
        0.07967892,
        -0.0612078,
        0.052697733,
        0.14186604,
        0.09995891,
        -0.09675853,
        0.107502,
        0.08473244,
        0.050837547,
        -0.042098805,
        -0.020080745,
        -0.11891393,
        0.0817291,
        0.12415235,
        -0.0041653365,
        -0.0017818809,
        0.04314278,
        -0.111957155,
        -0.080388844,
        0.049354494,
        0.017926425,
        0.10510574,
        0.035314336,
        0.13149208,
        0.42880797,
        0.43559656,
        0.42908108,
        0.5050579,
        0.28730613,
        0.2923366,
        0.2081618,
        -0.05922354,
        -0.1615419,
        -0.16177997,
        -0.2159012,
        -0.22829619,
        -0.27351606,
        -0.2555738,
        -0.3016619,
        -0.32014176,
        -0.04938595,
        -0.19074829,
        0.026669625,
        -0.11398338,
        0.05460439,
        -0.031219793,
        -0.15139326,
        -0.03045028,
        0.058824897,
        0.11508546,
        0.16236588,
        0.4161946,
        0.23962535,
        0.3387945,
        0.3498368,
        0.31279165,
        0.13974652,
        0.16328926,
        0.31015477,
        0.061659575,
        0.10612039,
        -0.06525297,
        0.07021424,
        0.056660473,
        -0.020551324,
        -0.103528306,
        0.06538631,
        0.0018416941,
        -0.06785486,
        -0.15769419,
        -0.053721413,
        -0.15121302,
        -0.11306957,
        0.053725407,
        -0.11231697,
        -0.023729518,
        0.017242178,
        0.098679796,
        -0.018295288,
        -0.13354568,
        -0.11833407,
        -0.12547308,
        -0.024381965,
        -0.12182078,
        0.103412464,
        0.11446585,
        -0.052192852,
        -0.071904294,
        -0.037893057,
        0.13799603,
        -0.07186439,
        0.14804699,
        -0.07650125,
        0.09960748,
        0.08745511,
        -0.14353386,
        0.14002483,
        0.017477255,
        0.31248492,
        0.24320056,
        0.28551093,
        0.14987674,
        0.39056486,
        0.21911466,
        0.14965515,
        0.2625143,
        0.18917477,
        0.04769628,
        0.03178413,
        -0.021411773,
        -0.036952756,
        -0.2704739,
        -0.3639328,
        -0.2728429,
        -0.22693469,
        -0.037437804,
        -0.08257353,
        -0.089316614,
        -0.09865428,
        0.106998906,
        -0.010985341,
        -0.20143953,
        0.0337706,
        -0.13754937,
        -0.022578273,
        0.025162742,
        -0.00036696857,
        0.13786891,
        0.17913651,
        0.044331037,
        0.16959643,
        0.11856756,
        -0.07411501,
        0.13841255,
        -0.09282692,
        -0.043580487,
        0.07466544,
        0.0045592934,
        -0.09146169,
        -0.10405251,
        -0.15316704,
        0.040525407,
        0.044633836,
        -0.024728417,
        -0.04467628,
        -0.087606624,
        -0.03466125,
        0.0075326413,
        -0.111823775,
        -0.034605354,
        0.007445082,
        -0.0521945,
        0.113207474,
        -0.12480765,
        0.14862199,
        -0.091036215,
        0.08678837,
        0.029409453,
        -0.053053632,
        0.11722867,
        0.14752306,
        0.0074054897,
        -0.05763699,
        0.02319716,
        -0.03521572,
        -0.0135009885,
        0.02825278,
        -0.06849293,
        0.16239198,
        -0.10928553,
        -0.081659175,
        0.09936722,
        -0.16379422,
        0.048395198,
        -0.08792915,
        0.0011465907,
        -0.13565394,
        -0.065957636,
        -0.10836729,
        -0.11871018,
        -0.11551819,
        0.09306677,
        -0.1419411,
        0.10710208,
        -0.09941084,
        -0.046056442,
        -0.08059211,
        0.052161507,
        -0.0023842296,
        -0.09097565,
        -0.07666229,
        0.029901536,
        0.05017992,
        -0.14087866,
        -0.07262909,
        -0.111871846,
        -0.14781342,
        -0.12183473,
        0.12702885,
        0.13966715,
        0.010088164,
        -0.1365313,
        0.1293234,
        0.13138229,
        0.027758589,
        -0.10861886,
        0.13192505,
        -0.034449354,
        0.018582985,
        0.10425754,
        0.14257671,
        -0.14959823,
        0.15892862,
        0.05177416,
        0.09260224,
        0.16350113,
        0.031338945,
        0.083142,
        0.033715382,
        0.06669964,
        -0.08678159,
        -0.07642529,
        -0.018419027,
        -0.08911586,
        0.1048436,
        0.05790639,
        -0.09653601,
        -0.10177249,
        -0.11722468,
        -0.049817592,
        -0.16326976,
        -0.1239825,
        0.003059268,
        0.15509458,
        -0.1014844,
        0.041343823,
        0.1567771,
        -0.03631434,
        0.051267594,
        -0.04036157,
        -0.06893227,
        -0.079817176,
        -0.04926736,
        -0.110412925,
        -0.059844106,
        -0.046967078,
        0.15103339,
        0.20122188,
        0.41863886,
        0.50631046,
        0.3846125,
        0.5887332,
        0.53969,
        0.3879242,
        0.6075263,
        0.5385,
        0.5692875,
        0.23888372,
        0.4098134,
        0.054430418,
        0.0026295162,
        -0.09514579,
        -0.08958926,
        -0.2711826,
        -0.24459934,
        -0.05086806,
        -0.23473686,
        -0.19955824,
        -0.41810194,
        -0.1405203,
        -0.11278509,
        -0.18595731,
        0.16045201,
        0.042565282,
        0.24069366,
        0.27254942,
        0.098910674,
        -0.13004039,
        -0.039840147,
        -0.30962953,
        -0.10312476,
        0.115375,
        0.16125144,
        0.05923614,
        0.08623414,
        -0.09392538,
        -0.11798853,
        0.02065453,
        0.12188749,
        0.1128429,
        0.027190417,
        -0.03645508,
        -0.042570136,
        0.052012444,
        0.052646384,
        -0.042320654,
        0.039252445,
        0.022219256,
        -0.024042249,
        0.08461669,
        0.1307313,
        -0.101590976,
        -0.10927464,
        0.16148283,
        -0.07749937,
        0.03540598,
        -0.07235606,
        -0.09824601,
        -0.050598137,
        0.13696264,
        0.09366797,
        -0.06861404,
        0.16080897,
        -0.1468608,
        -0.03783141,
        -0.14581396,
        -0.1225428,
        0.013884991,
        -0.10928961,
        0.060347445,
        -0.030025387,
        -0.14646193,
        0.11847811,
        0.15811658,
        -0.071046,
        -0.123753354,
        -0.17989156,
        -0.1700279,
        -0.20159563,
        -0.1524026,
        -0.0760432,
        -0.17224158,
        0.2048337,
        -0.041577872,
        -0.0081472425,
        0.10176951,
        0.2129572,
        0.18734957,
        0.06955026,
        0.06918871,
        -0.11419732,
        -0.17324522,
        -0.23620793,
        -0.12863834,
        -0.012054922,
        0.09960108,
        -0.021424249,
        0.18772815,
        0.17012161,
        0.110404566,
        0.15798992,
        -0.16043879,
        -0.18569739,
        -0.0044063386,
        -0.00635255,
        0.124360904,
        -0.04455717,
        0.086417034,
        0.11372046,
        -0.040896162,
        0.08634861,
        0.02573438,
        -0.042983495,
        0.00013977289,
        -0.14450952,
        -0.15311602,
        0.1144139,
        -0.01324448,
        -0.13765195,
        -0.12454672,
        0.055648386,
        0.10176323,
        0.04541418,
        -0.10356703,
        0.12143655,
        -0.0009768009,
        -0.09144742,
        0.07519999,
        -0.00731574,
        0.0871153,
        -0.025686875,
        -0.010716632,
        0.05574341,
        -0.13255061,
        -0.08639418,
        0.14910387,
        -0.10197015,
        0.12781231,
        0.012755051,
        0.06864634,
        -0.08941496,
        0.0971248,
        0.10439871,
        0.49482942,
        0.78102833,
        0.79612285,
        0.7842627,
        0.43843386,
        0.45027468,
        0.3134167,
        0.04913895,
        0.020610161,
        -0.41232884,
        -0.25056595,
        -0.4551184,
        -0.35358223,
        -0.3813243,
        -0.37119022,
        -0.19268069,
        -0.19847089,
        -0.278578,
        -0.31220657,
        -0.24950749,
        -0.21466729,
        -0.27450046,
        -0.33253014,
        -0.036380555,
        -0.44721037,
        -0.5201956,
        -0.3694693,
        -0.35288846,
        -0.119442284,
        -0.113492206,
        -0.14880368,
        -0.283217,
        -0.16776435,
        -0.18080778,
        0.09634246,
        0.44554093,
        -0.018701673,
        -0.11051099,
        -0.111135334,
        0.02696155,
        0.13315265,
        -0.12881964,
        0.0046221614,
        0.087448195,
        0.067709565,
        -0.018627435,
        0.01995331,
        0.002838865,
        0.08191469,
        0.01231429,
        -0.058431804,
        -0.1049105,
        0.062344447,
        0.11535101,
        0.1412821,
        0.021508992,
        0.0069300085,
        0.004601538,
        0.15252553,
        -0.14029849,
        0.0016809851,
        0.07548115,
        -0.15407477,
        0.10118799,
        -0.016825572,
        -0.0063559115,
        -0.15165879,
        -0.12960118,
        0.16284893,
        0.05794546,
        0.037797898,
        -0.02124089,
        0.14666368,
        -0.13577761,
        0.76969737,
        0.93939924,
        0.95866436,
        0.71136254,
        0.4515815,
        0.16081947,
        0.21037903,
        -0.08761635,
        -0.11007009,
        -0.19815123,
        -0.056780662,
        -0.06266598,
        -0.04553547,
        0.010414375,
        -0.08654854,
        -0.12296964,
        -0.20970021,
        -0.28793868,
        -0.30848774,
        -0.1531469,
        -0.2068668,
        -0.20931599,
        -0.26410455,
        -0.026265424,
        -0.1497006,
        -0.2688721,
        -0.20639627,
        0.035874292,
        -0.2687781,
        0.08226263,
        -0.1540711,
        -0.17992596,
        0.036276493,
        0.045608595,
        0.43672225,
        0.4111098,
        -0.07029664,
        -0.11040391,
        -0.13169724,
        0.06991522,
        -0.14576751,
        -0.05611843,
        -0.05169993,
        0.163624,
        0.12042995,
        0.031970307,
        0.12790795,
        -0.009095177,
        -0.15969393,
        0.053887248,
        0.027922943,
        0.0144920945,
        0.07926522,
        0.027901232,
        -0.10209311,
        -0.15570779,
        -0.03098403,
        0.15817524,
        -0.007394552,
        -0.019169942,
        -0.044312976,
        0.071532086,
        0.06472401,
        0.09867413,
        -0.13402677,
        -0.028113082,
        -0.041576877,
        -0.06237623,
        -0.16363102,
        -0.059548452,
        0.027612165,
        -0.06971842,
        -0.0066128373,
        0.07825506,
        0.07212617,
        0.2203129,
        0.30282667,
        0.5921766,
        0.5090403,
        0.24986225,
        0.33709893,
        0.12941991,
        -0.4314192,
        -0.50094175,
        -0.51235205,
        -0.12489066,
        -0.87130874,
        -0.33768177,
        -0.16249482,
        -0.524675,
        -0.51352894,
        0.15061548,
        0.27738938,
        0.32837415,
        -0.06966106,
        -0.14016499,
        0.5207655,
        0.41856334,
        0.43584454,
        -0.10417964,
        -0.18385299,
        -0.46566793,
        0.030758549,
        -0.21989354,
        -0.30877468,
        -0.10874034,
        -0.7688636,
        -0.6297311,
        -0.22937648,
        -0.15763274,
        -0.11421181,
        0.08287801,
        -0.055516616,
        -0.0028956681,
        -0.027593315,
        0.0036628395,
        -0.15380287,
        0.13085376,
        0.12395887,
        0.043907136,
        0.018345311,
        0.12642942,
        0.14740281,
        0.12854056,
        -0.08724701,
        0.12775959,
        -0.09257234,
        0.013227403,
        0.056748852,
        -0.057685517,
        -0.14012662,
        0.074049786,
        0.06397095,
        0.13117348,
        -0.053750336,
        -0.09337891,
        0.1554714,
        0.09246071,
        0.06776181,
        -0.16308832,
        -0.0817607,
        -0.10975059,
        0.13852786,
        0.048591703,
        0.09013043,
        0.124237105,
        0.091708675,
        0.008746728,
        -0.20585568,
        -0.034642387,
        -0.03220667,
        -0.16237818,
        -0.05001542,
        -0.25260234,
        0.108233646,
        0.16244602,
        0.3457442,
        0.63396937,
        0.39359033,
        0.25649154,
        -0.09552714,
        0.13282295,
        0.016654734,
        0.115640596,
        -0.12944183,
        0.111525364,
        -0.19861926,
        -0.078702874,
        -0.02286778,
        -0.056234278,
        -0.16582143,
        -0.010450298,
        -0.07796669,
        -0.12600131,
        0.06907488,
        -0.046574414,
        0.1228191,
        0.12110396,
        0.33215973,
        0.34504315,
        0.4157946,
        0.3727738,
        0.3430042,
        0.18197176,
        -0.035552174,
        -0.0598675,
        -0.1325741,
        0.055922642,
        0.11476107,
        0.05427681,
        -0.07672874,
        -0.06688437,
        0.020661771,
        -0.1478334,
        0.09025337,
        0.009313032,
        0.10194962,
        -0.1194593,
        -0.0064432025,
        -0.09168142,
        0.04693705,
        0.0018809587,
        -0.1411499,
        0.046151415,
        -0.12242533,
        -0.13103575,
        -0.13946953,
        0.060929626,
        -0.042969733,
        0.046758354,
        0.12570076,
        0.00032818317,
        0.081667095,
        -0.12008311,
        0.0046161264,
        -0.056912184,
        0.10077934,
        -0.119417325,
        -0.09092114,
        -0.03583564,
        0.07662499,
        0.098304525,
        -0.5353677,
        -0.95973176,
        -1.2760335,
        -0.15245013,
        0.8024006,
        0.09970276,
        -0.43650645,
        -0.25368804,
        -0.087363176,
        0.37960017,
        0.31309405,
        -0.10405558,
        0.006551418,
        -0.2816539,
        -0.06435793,
        0.021368384,
        0.025380695,
        -0.35673553,
        -0.5384966,
        0.4026492,
        0.76836205,
        0.38362002,
        0.14164467,
        -0.50508535,
        -1.356007,
        -1.1916912,
        -1.306752,
        -1.0535158,
        -1.3749312,
        -0.5572087,
        0.69979364,
        1.1685423,
        1.3249661,
        0.9855415,
        0.2913244,
        -0.18040086,
        0.15416296,
        0.12148745,
        0.06376156,
        -0.10971336,
        0.057766303,
        -0.08713992,
        -0.11496328,
        -0.07184185,
        -0.030784667,
        0.12635489,
        0.12209757,
        0.14590277,
        0.0019804835,
        0.037755176,
        -0.0012028366,
        0.006041318,
        -0.018299446,
        -0.09837715,
        0.105322555,
        -0.13730742,
        -0.019646063,
        0.017298892,
        -0.12830995,
        -0.06667522,
        0.10015397,
        0.106905594,
        -0.052583203,
        -0.049071223,
        -0.14941695,
        0.04982096,
        0.05071482,
        0.12846644,
        0.06953941,
        -0.04737746,
        -0.049211234,
        -0.14589132,
        0.056082994,
        -0.009619936,
        -0.14081357,
        -0.11118477,
        -0.16849947,
        0.2430906,
        0.32511365,
        0.40821445,
        0.5945733,
        0.49244916,
        0.51282823,
        0.53239334,
        0.43118024,
        0.49482894,
        0.49801552,
        0.35270956,
        0.24704437,
        0.20640357,
        0.28805056,
        0.05156754,
        -0.11370872,
        -0.05395682,
        -0.22947004,
        -0.18471745,
        0.0062799547,
        0.0040100436,
        0.022487376,
        -0.31567514,
        -0.06681073,
        -0.2765537,
        -0.44332984,
        -0.08736485,
        -0.1354641,
        0.010920096,
        0.075064026,
        0.1734527,
        -0.048699237,
        -0.33122408,
        0.079194546,
        0.067053735,
        -0.05635737,
        -0.14117259,
        0.008242518,
        0.10139777,
        0.10472025,
        -0.029319972,
        -0.1484498,
        -0.01292932,
        0.114013836,
        0.14208452,
        -0.107032046,
        -0.12888773,
        0.08185637,
        -0.00018206239,
        -0.08542138,
        -0.15122466,
        0.12584002,
        -0.04209046,
        -0.02977468,
        0.06248802,
        -0.13632461,
        -0.12285907,
        0.12481411,
        -0.035169736,
        -0.14748244,
        -0.08735918,
        0.028508738,
        0.081154376,
        -0.031098664,
        0.1392728,
        -0.016563818,
        0.15433307,
        0.14158194,
        0.16179882,
        0.11129795,
        -0.072426654,
        -0.037259288,
        0.009999874,
        -0.14535908,
        0.010638375,
        -0.06326964,
        0.007987621,
        0.09532597,
        0.0065391716,
        -0.08984975,
        0.116625026,
        0.073139794,
        -0.11731471,
        -0.097824864,
        -0.18822683,
        0.086170055,
        -0.02964611,
        0.17212588,
        -0.08453291,
        0.09363309,
        -0.08489231,
        -0.06898245,
        0.1282034,
        -0.066954,
        0.08756071,
        0.16267772,
        -0.0023911109,
        0.101588346,
        -0.22501765,
        -0.081427254,
        -0.17318049,
        -0.0455215,
        0.15902193,
        -0.1126019,
        0.11858525,
        0.19037265,
        -0.010615122,
        0.008112237,
        0.09313251,
        -0.039468147,
        0.102949336,
        0.0072872043,
        -0.09938809,
        -0.13587084,
        0.09761812,
        -0.09433196,
        0.09635599,
        0.098791584,
        -0.14168064,
        0.063283846,
        0.07521403,
        -0.031586498,
        0.0063611567,
        -0.037495375,
        0.020077094,
        -0.0801717,
        -0.05869814,
        -0.055459157,
        0.015391901,
        -0.1147778,
        -0.1573508,
        -0.09870495,
        -0.10524425,
        -0.0009782463,
        -0.01811546,
        -0.08294033,
        -0.13331956,
        0.0890445,
        0.016989335,
        0.13065942,
        0.10886176,
        -0.057675987,
        -0.020668283,
        -0.022914037,
        0.11222313,
        0.3166606,
        0.6505715,
        0.7845716,
        0.6590127,
        0.36282745,
        0.41585872,
        0.6228969,
        0.4479541,
        0.3021627,
        0.2623384,
        0.2162386,
        0.22234228,
        0.030419368,
        0.18297468,
        -0.041546453,
        -0.014165428,
        -0.010222847,
        -0.16435559,
        -0.04885835,
        -0.011840032,
        -0.13628396,
        -0.0513084,
        -0.031591106,
        0.04823509,
        -0.16839501,
        -0.21647778,
        -0.041329723,
        -0.12234473,
        -0.019308152,
        -0.20368099,
        -0.22240783,
        -0.25845578,
        -0.15378286,
        -0.29718876,
        -0.1783734,
        -0.07343584,
        0.08589615,
        -0.065723,
        -0.025046378,
        0.088635996,
        -0.018346757,
        -0.0101147,
        -0.052648664,
        0.09974353,
        -0.1321335,
        0.031364575,
        0.045108497,
        -0.014944643,
        0.07095364,
        0.03900802,
        0.009677678,
        0.08723678,
        -0.092096776,
        0.10875808,
        -0.13428143,
        -0.017043218,
        0.0484239,
        -0.035231084,
        0.009773463,
        -0.04401838,
        -0.010950789,
        0.022880644,
        -0.008076638,
        -0.12951764,
        -0.075151,
        -0.004439041,
        0.0149486065,
        0.066795245,
        0.00843814,
        0.11736883,
        0.1444586,
        0.021614358,
        -0.11171356,
        0.1388552,
        0.8963678,
        1.2075481,
        0.81592745,
        0.36126125,
        0.15376838,
        0.19475438,
        -0.10799778,
        -0.19606416,
        -0.07466371,
        -0.24746117,
        0.0051201186,
        -0.00042920047,
        -0.03502172,
        -0.14398928,
        -0.10347287,
        -0.05595676,
        -0.1707025,
        -0.16828151,
        -0.22521748,
        -0.113950334,
        0.004455792,
        -0.06997593,
        -0.16713025,
        -0.003133147,
        -0.35024077,
        -0.0411046,
        -0.11195102,
        -0.09201463,
        0.225196,
        0.43285614,
        0.5126876,
        0.544981,
        0.5572129,
        0.5385954,
        0.6350672,
        0.7154459,
        -0.0752872,
        -0.12690972,
        -0.022691682,
        0.12632422,
        0.106487826,
        0.15965082,
        0.07218854,
        0.036365256,
        -0.13915196,
        0.022462934,
        0.019021466,
        0.017471313,
        0.07814328,
        0.05989036,
        -0.06394343,
        -0.13487363,
        0.06480539,
        0.030732155,
        -0.045368202,
        -0.14505956,
        0.14456989,
        0.16069435,
        -0.043131262,
        -0.15888351,
        -0.092086196,
        -0.0011576414,
        0.11341457,
        -0.1096399,
        0.0394257,
        -0.09578067,
        -0.013881922,
        0.041555718,
        -0.028674647,
        -0.0543672,
        -0.0019486994,
        -0.12970586,
        0.063040644,
        0.07357666,
        0.08232435,
        0.1844018,
        -0.002555904,
        0.15792738,
        0.14105357,
        -0.05342336,
        0.01559046,
        -0.20998679,
        0.09642214,
        -0.114408486,
        -0.08374475,
        -0.046431884,
        0.12627846,
        -0.15628363,
        -0.11820353,
        -0.16092671,
        0.040398505,
        0.07984227,
        -0.102988295,
        0.0033823892,
        0.1783872,
        0.27089995,
        0.20482253,
        -0.14062414,
        -0.37150624,
        -0.44111085,
        -0.5708429,
        -0.47117352,
        -0.368082,
        0.046588317,
        0.08041937,
        0.12698956,
        0.108116046,
        0.17326596,
        0.2112658,
        -0.061265197,
        0.050089538,
        0.11508231,
        -0.078445554,
        -0.0067380667,
        -0.014429301,
        0.1212659,
        -0.034044117,
        0.09078775,
        0.061940968,
        0.14149185,
        0.14933293,
        0.065585345,
        -0.0065523535,
        -0.064157635,
        -0.07533188,
        -0.12732676,
        -0.055298142,
        -0.03621435,
        -0.051106818,
        0.08750804,
        -0.021813706,
        0.021264926,
        -0.08979508,
        0.019417584,
        -0.10000201,
        0.0023367703,
        -0.03659062,
        -0.05530324,
        -0.09911031,
        0.026102975,
        0.025575206,
        -0.030033559,
        0.04728535,
        0.015340522,
        0.12145476,
        0.109310225,
        0.07425718,
        0.14291625,
        0.27936557,
        0.057708103,
        0.24072538,
        0.5023614,
        0.5578062,
        0.7885164,
        0.8356712,
        0.6856223,
        0.0012312392,
        0.028811175,
        -0.18466553,
        0.19673929,
        0.22413182,
        -0.018646065,
        -0.43551326,
        -0.21184796,
        -0.009329443,
        -0.42418694,
        -0.69405985,
        -1.2021029,
        -0.8163531,
        -0.70253885,
        -0.81341624,
        -0.42243183,
        -0.33201084,
        -0.40913966,
        -0.250561,
        -0.34145492,
        -0.68706405,
        -0.1525751,
        -0.014422989,
        -0.2584012,
        0.43764162,
        0.6497513,
        0.4702481,
        0.37557036,
        -0.08666432,
        0.010598972,
        0.15237744,
        0.07075809,
        0.06334005,
        -0.066837065,
        0.051077187,
        -0.05240059,
        0.028630003,
        0.06498733,
        0.12962516,
        -0.048922278,
        0.092955396,
        0.09041892,
        0.08584328,
        0.048028663,
        -0.088553086,
        -0.15499517,
        -0.08573107,
        -0.07353096,
        -0.014791191,
        -0.008461624,
        -0.014438152,
        0.017244294,
        0.022380322,
        -0.13078061,
        -0.095107205,
        -0.09170517,
        -0.06543867,
        -0.07985425,
        -0.15322995,
        -0.090897426,
        -0.005210489,
        -0.00010727346,
        0.037922382,
        -0.11395767,
        -0.09162933,
        -0.09816444,
        -0.1303182,
        -0.70955503,
        -0.6622453,
        -0.16745932,
        -0.25675246,
        0.35592395,
        0.46914083,
        0.103067175,
        0.02921458,
        -0.29306006,
        -0.13846222,
        -0.53473747,
        -0.6209428,
        -0.22416182,
        -0.39858752,
        -0.16773525,
        0.08459006,
        -0.061791673,
        -0.17346016,
        0.10467761,
        0.0064585367,
        0.25883076,
        0.389715,
        0.5265962,
        -0.048351664,
        -0.16265713,
        -0.15862444,
        -0.21210809,
        0.105089284,
        0.019806836,
        -0.14021367,
        -0.077333644,
        0.19519114,
        0.08675146,
        0.21574984,
        0.15329626,
        -0.038494796,
        -0.072576106,
        -0.049097173,
        -0.021730885,
        0.1405008,
        -0.1531282,
        0.15964897,
        0.037306845,
        0.075160205,
        -0.013076529,
        -0.08316763,
        -0.08593661,
        -0.029474005,
        -0.14656463,
        0.057674497,
        -0.11214157,
        0.11842038,
        -0.099097885,
        0.12724937,
        0.106674775,
        0.117404506,
        -0.11796336,
        0.085416794,
        -0.07268252,
        0.05974552,
        -0.1166233,
        0.08172256,
        0.05493726,
        0.03203906,
        -0.14674693,
        -0.15675381,
        -0.15125476,
        0.07298009,
        -0.07181484,
        0.10009466,
        -0.12677464,
        0.065176606,
        -0.07658697,
        -0.60587,
        -0.43318543,
        -0.44276938,
        -0.21268946,
        0.036814768,
        0.105745375,
        0.35755658,
        0.40025786,
        0.29290497,
        0.3417625,
        0.5163721,
        0.39969566,
        0.31586424,
        0.041382056,
        -0.087554,
        -0.4176927,
        -0.4262213,
        -0.35152048,
        -0.23890556,
        -0.29930052,
        0.004435703,
        -0.3532677,
        -0.24472867,
        -0.20831619,
        -0.10259682,
        -0.23763885,
        -0.11250145,
        0.045644496,
        0.13223252,
        0.20770699,
        0.120925285,
        0.0060135094,
        -0.37514883,
        -0.8290014,
        -0.78573734,
        -0.68618846,
        -0.14391994,
        -0.02727598,
        -0.04062207,
        -0.109857515,
        0.040735975,
        0.09715174,
        -0.06690585,
        0.1498345,
        -0.0968377,
        0.11370696,
        0.013532028,
        0.030914098,
        -0.05482775,
        0.15347861,
        -0.15272625,
        0.13107114,
        -0.101465546,
        0.117081806,
        0.054724112,
        0.15396972,
        -0.005812779,
        -0.06502908,
        0.1331047,
        0.1507803,
        -0.090573944,
        0.07296234,
        -0.060919166,
        -0.07299683,
        -0.1313729,
        -0.062364236,
        0.0827039,
        0.041448474,
        -0.01291348,
        -0.16244468,
        0.114524946,
        -0.15254849,
        0.15011032,
        -0.06649124,
        0.18655482,
        -0.008740332,
        -0.47270447,
        0.17828338,
        0.09461764,
        -0.07598761,
        -0.81054467,
        -0.39035338,
        0.05723003,
        0.26513213,
        0.24148518,
        -0.08645551,
        -0.39039952,
        -0.09202164,
        -0.023504214,
        -0.02287367,
        -0.15954122,
        0.05974067,
        0.09336397,
        0.42959914,
        0.31292063,
        0.07053996,
        -0.053438187,
        -0.35237938,
        -0.4634462,
        -0.20916668,
        -0.08734306,
        0.22415596,
        0.26406047,
        0.16989338,
        0.040877793,
        -0.30489242,
        -0.5530252,
        -0.21603806,
        0.28276747,
        0.33315268,
        -0.14185801,
        -0.124817446,
        0.012083501,
        -0.13309932,
        -0.000039979815,
        -0.13654709,
        0.07699418,
        0.08858268,
        -0.06746737,
        -0.07217079,
        0.03720808,
        0.056010216,
        0.010265797,
        0.06975342,
        -0.07831852,
        0.014836624,
        0.14427246,
        0.056327105,
        -0.120840095,
        -0.04292611,
        -0.14588435,
        -0.0011498928,
        -0.035114557,
        0.054098755,
        -0.0380141,
        -0.06851656,
        0.15448143,
        -0.02158308,
        0.10471283,
        0.08931504,
        -0.1333936,
        -0.09758493,
        0.1265815,
        -0.09179571,
        -0.13746417,
        -0.035158098,
        0.013617516,
        0.03498517,
        -0.061258893,
        -0.15045957,
        -0.024519892,
        -0.085206516,
        -0.13899685,
        -0.0096861,
        -0.15292573,
        -0.11624548,
        -0.1405923,
        0.021770963,
        -0.04399125,
        0.07294134,
        0.11412052,
        0.06907197,
        0.018341528,
        -0.03621837,
        -0.02032152,
        0.045469906,
        -0.06300177,
        -0.033478536,
        -0.014237591,
        -0.049144886,
        0.07864043,
        -0.11090022,
        -0.13678612,
        0.082893014,
        0.085472815,
        -0.06981177,
        -0.08840267,
        -0.11060439,
        0.1575217,
        -0.088882565,
        -0.07850129,
        0.065824084,
        0.059621323,
        0.16333094,
        0.10000263,
        -0.119146876,
        0.008707896,
        0.11371292,
        0.09041579,
        -0.14494926,
        0.12940003,
        -0.051291272,
        -0.07820678,
        -0.030876666,
        -0.14352222,
        0.119175896,
        0.091375455,
        -0.048822686,
        0.09569566,
        -0.12309377,
        0.08633076,
        0.044372633,
        -0.13771638,
        0.1373886,
        0.044080585,
        -0.09019398,
        -0.025601849,
        0.14341001,
        0.12300645,
        -0.046056055,
        0.040896907,
        0.1517471,
        -0.11745048,
        -0.09029757,
        0.025942042,
        0.13201211,
        -0.0626691,
        -0.0885973,
        -0.052634515,
        -0.047256462,
        0.01894395,
        0.054556876,
        0.08804491,
        -0.08532406,
        -0.09218561,
        -0.15358649,
        -0.124459065,
        -0.0012123885,
        -0.062599786,
        0.11930105,
        -0.17384925,
        0.0875829,
        -0.15987979,
        -0.036112305,
        -0.095396906,
        -0.046999183,
        -0.091967665,
        0.111603014,
        0.06631615,
        0.109467946,
        -0.007937254,
        -0.16944419,
        0.044674344,
        -0.03248731,
        -0.16493885,
        -0.020667188,
        0.07084906,
        -0.14820248,
        0.07230703,
        -0.046370097,
        0.13899815,
        0.051280636,
        0.051952,
        0.014940598,
        -0.10585915,
        -0.018522276,
        -0.08092327,
        0.12809128,
        0.04978858,
        -0.1230458,
        0.06786004,
        -0.04389915,
        0.061610535,
        -0.0017190874,
        0.09805621,
        -0.02118951,
        -0.06690432,
        0.11612217,
        -0.06407294,
        -0.11404821,
        -0.06727026,
        0.11264764,
        -0.122898936,
        0.1051396,
        -0.05969332,
        -0.06003777,
        0.096418425,
        -0.113633834,
        0.011747405,
        0.14929189,
        -0.0048152357,
        0.07199946,
        -0.037535205,
        0.086652145,
        -0.04671105,
        0.032522187,
        0.058662117,
        0.010392249,
        0.15242578,
        -0.15866691,
        -0.051810347,
        -0.07136719,
        -0.095547415,
        0.10052489,
        0.14254923,
        -0.14050254,
        0.42787266,
        0.796922,
        0.74788696,
        0.67390186,
        0.38307545,
        0.68284005,
        0.6804629,
        0.33886576,
        0.16856736,
        0.22162703,
        0.24369566,
        -0.002049233,
        -0.031296924,
        -0.17110948,
        -0.26878586,
        -0.15949593,
        -0.33141297,
        -0.25236267,
        -0.13619176,
        -0.025498817,
        -0.15516114,
        -0.19771384,
        -0.11055268,
        -0.0147786755,
        -0.22273622,
        -0.044069782,
        -0.070986256,
        -0.2467833,
        -0.26318976,
        -0.30612424,
        -0.45427293,
        -0.30918556,
        -0.15401533,
        -0.033835,
        0.016685264,
        0.16234292,
        -0.04312017,
        -0.042399675,
        0.0107194185,
        0.11632113,
        -0.062273026,
        0.05443591,
        0.071936235,
        -0.121316165,
        -0.14348525,
        -0.0307976,
        0.15162064,
        -0.10827385,
        -0.12628321,
        0.0529065,
        0.06829722,
        -0.03567548,
        0.13009648,
        -0.12187255,
        0.005483404,
        0.15180294,
        -0.070280135,
        -0.022134319,
        -0.10073329,
        -0.114793286,
        -0.07017195,
        -0.064559236,
        -0.09945304,
        0.12337519,
        -0.12115076,
        -0.07493017,
        -0.026692554,
        -0.041496485,
        -0.03386581,
        0.15858428,
        0.14567582,
        0.1143771,
        -0.03376092,
        -0.001006633,
        0.26969236,
        0.70721364,
        0.63313454,
        0.6057783,
        0.40327358,
        0.26482642,
        0.09710794,
        -0.19013827,
        -0.22030734,
        -0.23702152,
        -0.1391131,
        -0.19546549,
        0.048927255,
        -0.2017996,
        -0.1373867,
        -0.088261254,
        -0.29589182,
        -0.2873469,
        -0.06133233,
        -0.21103409,
        -0.036670994,
        -0.22842233,
        -0.09631126,
        -0.13194315,
        -0.032148298,
        0.103934005,
        0.02480667,
        0.11431659,
        0.16810073,
        -0.023579486,
        0.27353033,
        0.13385238,
        -0.052354865,
        0.13419801,
        0.22640204,
        0.23641364,
        0.112129614,
        0.02168937,
        -0.10892908,
        0.14347164,
        -0.02193141,
        -0.061515845,
        0.15769152,
        -0.11246885,
        0.14816163,
        -0.12227446,
        -0.16324094,
        -0.009580702,
        0.15153037,
        0.13893901,
        0.15077402,
        -0.13393164,
        -0.028779775,
        0.15368693,
        0.09868221,
        -0.1048011,
        0.036818475,
        0.05185522,
        0.11112566,
        0.16129349,
        0.14569561,
        -0.065994546,
        -0.07676268,
        0.005831346,
        -0.03716284,
        0.042544857,
        -0.07648941,
        -0.11584072,
        -0.09630025,
        0.10431363,
        -0.16041501,
        -0.10074254,
        -0.03580518,
        0.063359454,
        0.60730946,
        0.73960704,
        0.74869126,
        0.58844703,
        0.3442499,
        0.30312774,
        0.011166071,
        0.18159117,
        -0.035378344,
        0.0387609,
        -0.015268922,
        -0.2031057,
        0.022991342,
        -0.14174996,
        -0.07822081,
        -0.13074286,
        -0.31179583,
        -0.075479016,
        -0.3252592,
        -0.24248154,
        0.069039315,
        -0.25993982,
        -0.16404481,
        -0.09156791,
        -0.45293662,
        -0.24006101,
        -0.1854383,
        -0.009939365,
        0.088643156,
        0.27559748,
        0.051035665,
        0.19841178,
        0.12244524,
        0.16980012,
        0.15978202,
        0.4419629,
        -0.012759715,
        -0.040555708,
        -0.032292575,
        0.115815386,
        -0.09448568,
        -0.15095836,
        -0.017831653,
        -0.05765275,
        -0.017378345,
        -0.0014178753,
        -0.004007891,
        0.11014511,
        0.023626626,
        -0.12972385,
        -0.022166267,
        0.12026961,
        -0.12731971,
        0.15327813,
        0.14704244,
        -0.15114301,
        -0.0029753894,
