{
  "model_type": "dqn",
  "format_version": 4,
  "input_size": 74,
  "output_size": 9,
  "ray_count": 36,
  "hidden_sizes": [
    128,
    128
  ],
  "training_seeds": [
    2,
    3,
    4,
    5,
    6,
    7,
    8,
    9,
    10,
    11,
    12,
    13,
    14,
    15,
    16,
    17,
    18,
    19,
    20,
    21,
    22,
    23,
    24,
    25
  ],
  "random_seeds_per_cycle": 2,
  "action_repeat": 2,
  "episodes_completed": 2233,
  "total_steps_completed": 236935,
  "best_metrics": {
    "average_survival_time": 52.504223,
    "average_return": 6053.979,
    "average_evades": 286.29166,
    "min_survival_time": 2.7666647,
    "min_return": 290.91187,
    "timeouts": 20
  },
  "layers": [
    {
      "input_size": 74,
      "output_size": 128,
      "weights": [
        -0.118242055,
        -0.112515315,
        -0.10459379,
        -0.11050612,
        -0.07612541,
        0.06981762,
        -0.15012695,
        0.07694377,
        -0.14056312,
        0.033823177,
        0.1049958,
        -0.04247316,
        -0.08439939,
        -0.13694847,
        -0.08092901,
        0.11395403,
        -0.04701949,
        -0.042149723,
        0.00041698175,
        0.16395831,
        -0.011444924,
        -0.095796846,
        0.08044556,
        -0.035527058,
        0.016846921,
        0.009615644,
        0.13322012,
        -0.076168604,
        -0.035460804,
        -0.019724969,
        -0.07829835,
        0.012327549,
        0.10563038,
        -0.062129807,
        0.16065936,
        -0.13630006,
        0.05751595,
        -0.058232494,
        -0.1601473,
        -0.09293204,
        -0.06810395,
        -0.020308316,
        -0.080101185,
        0.10513146,
        -0.032858685,
        -0.15666214,
        -0.14423844,
        -0.13943073,
        -0.0088085085,
        -0.07277836,
        0.014175072,
        -0.005949676,
        -0.08834386,
        0.12693338,
        0.09279363,
        -0.13857159,
        -0.113148704,
        -0.11662416,
        0.021280631,
        0.15687124,
        -0.11489621,
        0.0668616,
        -0.020074353,
        -0.023772389,
        0.15511872,
        0.024107248,
        -0.030848488,
        -0.052891366,
        -0.11232481,
        -0.0012181699,
        -0.05649659,
        0.005308792,
        0.008274615,
        -0.089514405,
        -0.2753363,
        -0.5678177,
        -0.021192893,
        0.025837041,
        -0.02799181,
        -0.04995066,
        0.24748036,
        0.3090948,
        -0.054011345,
        0.047322147,
        -0.29561257,
        -0.08339038,
        -0.34119526,
        -0.11609453,
        -0.117846906,
        -0.13374907,
        -0.11741464,
        -0.023468964,
        -0.1535268,
        -0.34391546,
        -0.47142312,
        -0.30057672,
        0.2280902,
        0.15785442,
        0.1869035,
        0.13122441,
        -0.1439259,
        -0.24402873,
        -0.59607345,
        -0.6465068,
        -0.08572383,
        0.047662728,
        0.6841285,
        0.5714062,
        0.5795102,
        0.04387552,
        0.036626607,
        0.15515418,
        0.06564626,
        0.07791747,
        0.07483363,
        0.034232482,
        -0.12450972,
        -0.06726978,
        0.083508,
        -0.14079736,
        -0.10856786,
        -0.07871777,
        -0.010895088,
        0.11587928,
        0.08978979,
        0.020773485,
        -0.07774141,
        -0.013518304,
        0.14820297,
        -0.056671247,
        0.12261407,
        0.042081133,
        -0.026172817,
        0.09625517,
        -0.09795055,
        -0.118377075,
        -0.09475531,
        0.12927087,
        -0.11980568,
        -0.07507468,
        -0.1149017,
        0.010308251,
        0.16061209,
        -0.11128193,
        0.01166752,
        -0.048803322,
        -0.044844784,
        0.1359436,
        -0.6792656,
        -0.6746409,
        -0.11224593,
        0.3622272,
        0.33505127,
        0.4847467,
        0.76566786,
        0.64344543,
        0.2698329,
        -0.1839609,
        -0.86285746,
        -0.97747785,
        -1.0706488,
        -0.72888523,
        -0.5196365,
        -0.2705191,
        -0.043826427,
        0.17538552,
        -0.14746036,
        0.4972817,
        0.71265715,
        0.47137913,
        0.15615632,
        0.12084918,
        -0.015778828,
        0.07762164,
        0.10107374,
        -0.49645308,
        0.10329927,
        0.2008505,
        -0.41979516,
        -0.2196449,
        -0.71824026,
        -0.43151453,
        -0.20371644,
        -0.54945534,
        -0.12098363,
        0.010730982,
        -0.13316332,
        0.09700574,
        0.032851428,
        0.017060906,
        -0.12775874,
        -0.027245447,
        -0.034216583,
        0.10848303,
        -0.12418161,
        -0.071293816,
        -0.13307819,
        0.04684776,
        -0.11573242,
        -0.10210428,
        -0.09864996,
        0.089029714,
        0.14306606,
        0.126334,
        -0.11501756,
        0.1032597,
        0.13456617,
        0.011717647,
        0.056171924,
        -0.06849406,
        -0.04580822,
        0.023086935,
        -0.012326404,
        0.051731408,
        0.06859879,
        -0.15691537,
        -0.1345213,
        0.037463203,
        -0.07822481,
        -0.11032963,
        0.15437298,
        0.14286436,
        -0.06850135,
        -0.13320504,
        -0.011505708,
        -0.06325102,
        0.004550985,
        -0.119921744,
        -0.15662539,
        -0.022295361,
        0.1562856,
        -0.06645292,
        -0.055731148,
        -0.0045057097,
        0.029016888,
        -0.060102787,
        0.06918846,
        0.002434489,
        0.08295093,
        0.13627745,
        -0.04351826,
        -0.0204387,
        -0.1003452,
        0.042207077,
        -0.11195166,
        0.0982047,
        -0.10611276,
        -0.015162621,
        0.019854628,
        0.09983376,
        -0.13321301,
        0.041865546,
        -0.043459985,
        -0.10520948,
        0.10032417,
        0.0010021515,
        0.11984224,
        -0.04610429,
        0.15886606,
        -0.066925645,
        0.12746249,
        -0.10272753,
        0.108744875,
        -0.06608144,
        0.10074936,
        -0.05811835,
        -0.13898766,
        -0.101554714,
        0.11330007,
        -0.06043616,
        0.11458449,
        -0.096264735,
        0.04486893,
        -0.02658242,
        0.14231236,
        0.14113511,
        0.12714748,
        0.046699688,
        -0.091997415,
        -0.11710195,
        -0.023764476,
        -0.025650099,
        -0.10302142,
        0.12838484,
        0.07766536,
        0.12305893,
        0.15138952,
        -0.052722156,
        -0.12429677,
        0.12938567,
        0.13756664,
        0.030194625,
        -0.07428955,
        -0.050960384,
        0.06408195,
        -0.09442281,
        0.5199306,
        0.54442865,
        0.27872762,
        0.19602868,
        -0.03732775,
        -0.099042356,
        -0.3082337,
        -0.19425389,
        -0.053124066,
        -0.10062193,
        -0.25923944,
        0.011531092,
        0.030074202,
        -0.010587761,
        -0.002894694,
        -0.16801639,
        -0.08688526,
        0.0222153,
        0.033994958,
        0.07167531,
        0.18397328,
        -0.11866798,
        0.090470545,
        0.2000594,
        0.12341637,
        -0.0033780378,
        -0.092801064,
        0.10004408,
        0.31572533,
        0.41653985,
        0.57606083,
        0.35487336,
        0.5666431,
        0.65318567,
        0.5093797,
        0.549108,
        -0.11180119,
        0.04443641,
        -0.013302535,
        0.08454423,
        0.13927226,
        0.0748453,
        0.05527015,
        0.15028702,
        0.15934332,
        0.09377451,
        0.14553176,
        0.027801529,
        0.13410078,
        -0.040081203,
        -0.07061389,
        -0.028792277,
        0.11788641,
        -0.050270222,
        -0.11600208,
        0.001743108,
        0.0870841,
        0.08940892,
        0.05569774,
        0.07883003,
        -0.0053434074,
        -0.14069444,
        -0.114162035,
        -0.12949781,
        -0.025329992,
        -0.14751494,
        -0.111431226,
        0.07226333,
        -0.15318014,
        -0.002664104,
        0.037730828,
        -0.02859813,
        -0.12079181,
        0.09303419,
        -0.61738276,
        -1.438061,
        -1.7241987,
        -1.4552755,
        -0.40916553,
        0.97228324,
        0.9432219,
        0.441699,
        0.11282731,
        0.13126682,
        0.03782809,
        -0.21171825,
        -0.20909084,
        -0.3926921,
        -0.3525384,
        -0.22015797,
        0.10652371,
        -0.046546355,
        -0.07227875,
        -0.32465044,
        -0.5166013,
        -0.63975114,
        -0.6112205,
        -0.34710097,
        -0.51127565,
        -0.0046641575,
        0.01916375,
        0.14844792,
        -0.2556239,
        0.105879135,
        -0.20287941,
        0.3094705,
        0.589372,
        0.8565153,
        0.93013924,
        0.30671278,
        -0.075005695,
        -0.024454013,
        0.07757333,
        0.08043173,
        -0.148748,
        0.12674035,
        0.05299644,
        0.005571246,
        0.14028747,
        0.022159413,
        0.008543462,
        -0.021399751,
        -0.015675917,
        -0.03906901,
        -0.12757733,
        -0.13124771,
        -0.11853284,
        -0.015622303,
        -0.10622932,
        -0.12467289,
        -0.082529716,
        0.1027195,
        0.11580612,
        0.15222909,
        0.09614186,
        0.060674474,
        0.12107451,
        -0.15825662,
        0.023529097,
        -0.072006084,
        0.051875755,
        0.13723548,
        -0.048269868,
        -0.052330077,
        0.06837319,
        0.062002733,
        0.13117664,
        0.1429279,
        -0.14963472,
        -0.1528747,
        -0.31611824,
        -0.40526998,
        -0.4427764,
        -0.5107462,
        -0.51155335,
        -0.33684823,
        -0.0786062,
        0.12046986,
        0.14019848,
        0.06652166,
        0.46806595,
        0.28824693,
        0.4010443,
        0.23450005,
        0.25893745,
        0.1803466,
        0.05807519,
        0.014310606,
        0.2689402,
        0.21664526,
        0.13419116,
        0.15999652,
        0.13452034,
        0.15928037,
        0.104605556,
        -0.03061358,
        -0.009249222,
        -0.008128001,
        0.033205062,
        -0.04992485,
        -0.03869779,
        0.12465318,
        0.09706032,
        0.053326536,
        0.10163851,
        0.0766177,
        -0.061288625,
        0.0065063834,
        -0.036647737,
        -0.006361872,
        -0.09077133,
        0.09690513,
        -0.153193,
        0.07343492,
        -0.13622679,
        0.09222974,
        0.097433254,
        -0.003236428,
        -0.09243821,
        -0.04277376,
        0.061965182,
        -0.023482233,
        -0.055796243,
        -0.035036832,
        0.108655706,
        0.05041121,
        -0.0130701065,
        0.001182422,
        0.0695253,
        -0.10458137,
        0.09912242,
        0.08947073,
        -0.14630309,
        -0.09850109,
        -0.013603643,
        -0.14277793,
        0.071334615,
        -0.081245504,
        0.031958044,
        -0.061523095,
        0.00628528,
        -0.10934915,
        0.33351076,
        0.25227395,
        0.12862353,
        -0.21514177,
        -0.07291923,
        -0.08458019,
        -0.2866523,
        -0.04073804,
        0.011228723,
        0.017489249,
        0.050485015,
        -0.030418303,
        0.15107186,
        0.015626624,
        0.11617957,
        0.20821345,
        0.14556214,
        -0.107520066,
        -0.057208307,
        0.104442425,
        -0.1555266,
        0.084502265,
        -0.08761486,
        -0.011049836,
        -0.14708681,
        0.026189841,
        -0.15112855,
        0.07706486,
        -0.026049975,
        -0.07297344,
        0.038343843,
        0.03612455,
        0.35308138,
        0.39013112,
        0.26330575,
        0.30890447,
        0.104541525,
        -0.011793777,
        0.13625424,
        0.1016673,
        0.13223101,
        0.12320863,
        0.02745977,
        -0.16090456,
        -0.019076467,
        0.1575147,
        -0.018501103,
        -0.14344752,
        0.03604698,
        0.054769814,
        0.14073326,
        -0.102230415,
        0.11540945,
        -0.13738263,
        0.00024396181,
        0.094004974,
        -0.15445164,
        -0.08333213,
        -0.13781738,
        0.13108437,
        -0.07051343,
        0.104147986,
        -0.020761654,
        -0.04650402,
        -0.05643431,
        -0.059041217,
        0.10315128,
        -0.08500736,
        0.006097451,
        -0.14562574,
        0.11690362,
        0.09694715,
        -0.03811401,
        -0.1585603,
        -0.016202124,
        0.11375151,
        0.07622451,
        -0.079363085,
        0.064194515,
        0.09065995,
        -0.030818235,
        -0.15305983,
        0.14940788,
        -0.15783913,
        0.021992095,
        -0.108627506,
        -0.10473999,
        0.10207914,
        0.044968292,
        -0.08187633,
        0.13334343,
        0.13557698,
        -0.116645694,
        -0.050027385,
        -0.11261555,
        -0.014977239,
        -0.14763507,
        -0.13863204,
        -0.04538929,
        -0.04822305,
        0.15117621,
        -0.10764977,
        0.010651749,
        -0.15049072,
        0.11274651,
        0.019014286,
        -0.08698707,
        -0.10772385,
        -0.019556124,
        -0.06327754,
        0.13722278,
        0.023373142,
        0.13757493,
        0.08219902,
        0.06876969,
        -0.14714731,
        0.107252255,
        -0.08334346,
        -0.13877639,
        -0.15592521,
        -0.06526739,
        -0.040560454,
        0.10796584,
        -0.065128595,
        0.12607427,
        0.1256781,
        -0.13613452,
        -0.16248827,
        0.1500835,
        0.1407906,
        -0.104977176,
        -0.1033179,
        0.118535146,
        -0.10877046,
        -0.02627857,
        -0.049966924,
        -0.04910156,
        0.016396806,
        -0.049141422,
        -0.13252503,
        0.056502476,
        0.006645292,
        0.07411909,
        -0.12195274,
        0.08766036,
        0.025288567,
        0.10840376,
        -0.10197784,
        -1.3517199,
        -1.2751944,
        -0.2752578,
        0.25229025,
        0.82912093,
        0.77889824,
        0.5786057,
        0.21240975,
        -0.27823597,
        -0.17662022,
        -0.100251906,
        0.010289913,
        -0.0036732624,
        0.08062218,
        -0.052771762,
        -0.16506451,
        -0.19133566,
        -0.2292131,
        -0.18708402,
        -0.15593642,
        -0.14646786,
        -0.13484716,
        -0.24077399,
        -0.1823632,
        -0.08011972,
        -0.15825985,
        -0.04956647,
        -0.021588936,
        0.015516558,
        0.059443254,
        0.16451757,
        0.54417634,
        0.71202993,
        0.5726647,
        0.15664448,
        -0.41249657,
        0.10214661,
        0.06871423,
        0.073139235,
        -0.02287367,
        0.13257675,
        0.1615041,
        0.0692182,
        0.13767184,
        -0.10157224,
        -0.021911457,
        0.0513075,
        -0.00073958933,
        -0.099712595,
        -0.070864625,
        -0.036279917,
        0.009568632,
        -0.03322348,
        0.11244582,
        0.12823607,
        0.009008363,
        0.01739575,
        -0.11722574,
        -0.10377622,
        0.14446904,
        -0.03265275,
        0.020874813,
        0.00633204,
        -0.0007971972,
        -0.051759034,
        -0.04963059,
        -0.116027206,
        0.13181104,
        -0.017420515,
        0.0800899,
        -0.13472421,
        -0.09554091,
        0.097341016,
        -0.062399156,
        -0.07312953,
        -0.019484963,
        -0.052952614,
        0.09136987,
        -0.1417872,
        -0.2944697,
        -0.08259737,
        -0.19440551,
        0.05360762,
        0.007700527,
        0.17772639,
        0.012893645,
        -0.29431626,
        -0.14800808,
        0.040633153,
        -0.22553523,
        -0.012524762,
        0.016427485,
        -0.084982336,
        -0.15047456,
        -0.07299319,
        0.11183439,
        -0.08853975,
        -0.13155536,
        0.13050222,
        0.044978466,
        -0.02253188,
        0.06756204,
        0.029740646,
        -0.02383651,
        -0.06819238,
        0.2750018,
        0.27447185,
        0.25717375,
        0.15838537,
        -0.046022076,
        0.08675836,
        -0.067790814,
        0.017549127,
        -0.061556883,
        0.031776562,
        0.1530943,
        0.14587428,
        -0.1465221,
        0.018238217,
        -0.039186716,
        0.03275457,
        0.069292605,
        -0.13722679,
        -0.12706368,
        0.045260772,
        0.13381235,
        0.09416859,
        0.024741903,
        -0.011716366,
        0.1520905,
        -0.13342331,
        -0.121096045,
        0.011203334,
        0.06640257,
        0.11360945,
        0.057435095,
        -0.006315142,
        -0.045754008,
        0.09557067,
        0.08765103,
        0.023836091,
        0.06015171,
        0.053238913,
        0.074031994,
        0.10592987,
        -0.065191664,
        0.01665397,
        -0.076043054,
        0.0785232,
        -0.0576004,
        -0.03984964,
        -0.064233445,
        0.1274542,
        0.15778035,
        0.12949787,
        0.24691834,
        0.33926147,
        0.039305814,
        -0.0070546786,
        0.16655332,
        0.043993477,
        0.12646636,
        -0.13337187,
        0.103284255,
        0.13019922,
        -0.09827321,
        -0.10049788,
        -0.061522327,
        0.10456825,
        0.043351002,
        -0.10018034,
        -0.18705295,
        0.04922732,
        -0.17817827,
        -0.0001445621,
        0.06219943,
        -0.005361682,
        0.07047402,
        0.13303047,
        -0.12426384,
        0.09280743,
        0.10547455,
        -0.094923116,
        -0.04911202,
        -0.0025454164,
        -0.022215217,
        0.04901035,
        -0.12973902,
        0.06465538,
        -0.082775824,
        -0.0010803193,
        0.04329765,
        0.13687856,
        0.125185,
        0.07416016,
        0.10437481,
        -0.07160119,
        -0.015036166,
        0.106731996,
        0.09225972,
        -0.15039814,
        -0.034172088,
        0.11706863,
        0.014038324,
        0.07107192,
        -0.08856834,
        0.14352022,
        -0.037286192,
        -0.11093572,
        -0.089959316,
        -0.15593646,
        -0.016892165,
        -0.01849088,
        0.034779698,
        -0.06452941,
        -0.03242643,
        0.058678776,
        0.06835829,
        -0.010864526,
        -0.099929735,
        -0.15069109,
        -0.10994735,
        -0.1564957,
        -0.042526707,
        -0.051618874,
        0.014499769,
        -0.1379681,
        0.11910759,
        -0.115647085,
        0.07782525,
        0.010945573,
        -0.11886859,
        -0.15262544,
        -0.15047343,
        -0.1129583,
        -0.086439334,
        -0.009135708,
        -0.003968686,
        -0.027063504,
        0.10519309,
        -0.108263224,
        0.04633069,
        -0.102298886,
        -0.055821873,
        -0.088767216,
        0.07450141,
        -0.050845504,
        -0.008678839,
        0.004670173,
        -0.11452217,
        -0.051136725,
        0.12184577,
        -0.103813685,
        0.1276419,
        -0.122693546,
        -0.08466894,
        -0.15145124,
        0.012085304,
        -0.07201188,
        -0.1410445,
        -0.11298515,
        -0.042436756,
        -0.09285431,
        0.06835973,
        0.14478968,
        0.14334418,
        -0.15197031,
        -0.095050685,
        0.13408129,
        0.14404552,
        -0.08988198,
        0.15844457,
        0.09173636,
        0.007920012,
        -0.010164201,
        -0.1363354,
        -0.09135747,
        -0.15118805,
        -0.033404946,
        -0.12952995,
        -0.12549047,
        -0.12077977,
        -0.09658759,
        -0.10243431,
        -0.040264957,
        0.14292832,
        -0.056363128,
        0.0702997,
        0.0009762496,
        -0.05594883,
        -0.027459577,
        0.0075311214,
        0.15127231,
        0.15628426,
        0.023268104,
        0.15007396,
        -0.0140632745,
        0.12719107,
        -0.078350514,
        0.020989781,
        0.08177702,
        -0.08494639,
        -0.12516731,
        -0.094377615,
        0.14442939,
        -0.13191757,
        -0.09892241,
        -0.0136623755,
        0.04207217,
        0.066353194,
        -0.06248063,
        -0.013724388,
        0.10336549,
        0.13162409,
        0.11032986,
        -0.14218722,
        -0.16060632,
        -0.03797619,
        -0.11656822,
        -0.08450644,
        -0.16479409,
        -0.14144562,
        -0.152664,
        0.015814789,
        -0.01670877,
        -0.13129936,
        -0.012025046,
        -0.021222834,
        -0.101823196,
        -0.04435527,
        0.11058547,
        0.11853894,
        -0.13069235,
        0.039365366,
        -0.098195486,
        0.107410684,
        -0.15804213,
        0.008359328,
        -0.10194962,
        0.1475778,
        -0.1606378,
        0.065761134,
        0.0584902,
        0.054854333,
        0.1366479,
        -0.08133703,
        0.156487,
        0.07623449,
        0.113468036,
        0.07520418,
        0.040979892,
        0.1483611,
        0.13976322,
        0.14021857,
        0.08584036,
        0.09871681,
        -0.117495716,
        0.0069345534,
        -0.0010170937,
        0.025462002,
        0.1559221,
        0.12785484,
        -0.038620144,
        0.06788531,
        0.034923196,
        0.007644072,
        -0.015771434,
        -0.11861126,
        0.06331265,
        0.11325826,
        -0.16398886,
        -0.09963051,
        0.013655935,
        -0.008013867,
        -0.03965221,
        -0.053906906,
        0.06215424,
        -0.1233696,
        -0.028163854,
        -0.0846482,
        -0.12812617,
        -0.14184405,
        -0.13849826,
        0.10258671,
        0.12221695,
        0.010109993,
        0.08008011,
        -0.122330315,
        -0.078941375,
        0.011834008,
        -0.044107795,
        -0.049217306,
        -0.087095134,
        0.029967187,
        0.11574722,
        0.13000128,
        0.013061264,
        0.039237604,
        0.10690598,
        -0.002740896,
        0.062125314,
        0.05919106,
        0.04328031,
        -0.115848675,
        -0.14630708,
        -0.15634163,
        0.09962545,
        -0.0892661,
        -0.13088468,
        -0.028782755,
        -0.039439842,
        -0.12859239,
        0.03380592,
        -0.02309376,
        -0.13433531,
        -0.14426075,
        0.0035280436,
        -0.102651805,
        -0.09899464,
        -0.027798027,
        0.1213799,
        -0.0005031526,
        0.15537266,
        -0.039974824,
        -0.011227518,
        -0.011550203,
        0.02652292,
        -0.058658436,
        -0.06397299,
        0.07225956,
        0.02091235,
        0.044927135,
        0.035708994,
        -0.012079075,
        -0.1054741,
        -0.0771704,
        -0.07695965,
        -0.092466824,
        -0.052928366,
        -0.12216836,
        0.049636662,
        -0.02222608,
        0.01338838,
        -0.12861912,
        -0.3174663,
        -0.48097238,
        -0.24241512,
        -0.32813522,
        0.37895757,
        0.09396098,
        -0.0645899,
        -0.2648385,
        0.09094542,
        0.26417854,
        -0.099281505,
        -0.3774245,
        -0.39734787,
        -0.552138,
        -0.27481517,
        0.051245548,
        0.43921208,
        0.5267778,
        0.64474255,
        0.5046013,
        0.35313365,
        0.023604836,
        -0.06089862,
        -0.49279976,
        -0.7247398,
        -0.7019434,
        -0.6210158,
        -0.3196696,
        -0.39062396,
        -0.39384395,
        -0.2193496,
        0.06388703,
        0.1765155,
        0.5070522,
        0.5112657,
        0.032541245,
        -0.082821526,
        0.08725266,
        0.0791049,
        0.14237528,
        0.051570937,
        -0.070901856,
        -0.007044539,
        -0.09268291,
        -0.08791635,
        -0.037369058,
        -0.013203844,
        0.15352283,
        -0.039108947,
        0.11535962,
        0.14461695,
        -0.07109337,
        -0.02018857,
        -0.061227128,
        0.08789925,
        -0.07583366,
        0.06697464,
        0.0011539608,
        0.04642676,
        -0.057544492,
        -0.03799191,
        0.15836193,
        -0.14163682,
        -0.03165126,
        -0.14970112,
        0.0093845725,
        -0.04053717,
        0.052951023,
        0.1418796,
        -0.08530101,
        -0.15025918,
        -0.16409898,
        -0.11204934,
        0.06631948,
        0.12382085,
        0.25648555,
        0.18300143,
        -0.03528187,
        -0.0009978965,
        -0.17836376,
        -0.036315817,
        -0.20865765,
        -0.5906077,
        -0.7103767,
        -0.6550163,
        -0.8846005,
        -0.8856568,
        -0.48420277,
        -0.26742247,
        0.14920112,
        0.24671952,
        0.22035639,
        0.20242062,
        0.012505434,
        -0.24366415,
        0.05173879,
        0.0104568135,
        -0.06334404,
        -0.082901485,
        0.19201769,
        0.046818096,
        0.13262503,
        0.1258729,
        0.1807692,
        0.17571497,
        0.012306948,
        0.17344444,
        0.04641,
        0.2774902,
        0.28154063,
        0.09232743,
        -0.043485984,
        -0.066979736,
        -0.098964386,
        -0.1079593,
        -0.05834961,
        0.03399065,
        0.103404924,
        0.07552834,
        0.004798427,
        0.050691888,
        0.14194866,
        0.017137453,
        0.0032322407,
        -0.16192153,
        0.022253916,
        -0.08541335,
        0.007637456,
        0.04065217,
        0.12551518,
        -0.09047458,
        0.1363462,
        -0.09996717,
        0.04271692,
        -0.13356107,
        0.02455388,
        0.12685348,
        0.11039372,
        -0.16043997,
        -0.023194537,
        0.07759896,
        -0.04667095,
        -0.10736996,
        -0.046085134,
        0.043401197,
        -0.03457533,
        0.06243491,
        -0.0632392,
        0.69022954,
        0.93971235,
        0.8729939,
        0.4553246,
        0.48301712,
        0.29094127,
        0.07985179,
        0.25641143,
        0.004839446,
        0.040924728,
        -0.055502154,
        0.09776074,
        -0.005748708,
        -0.108128525,
        -0.36014542,
        -0.14780101,
        -0.28189483,
        -0.25585198,
        0.07409484,
        -0.11997979,
        -0.15303543,
        -0.23727784,
        -0.038241215,
        -0.06387415,
        0.07327395,
        -0.038208473,
        0.040148005,
        0.012586096,
        -0.058691368,
        0.20257065,
        0.0232438,
        0.0032486452,
        0.29123914,
        0.32732785,
        0.41465133,
        0.35386467,
        0.08420631,
        0.124959126,
        -0.12769818,
        0.13773935,
        0.13030304,
        0.053079933,
        -0.05134462,
        -0.12717849,
        0.032211006,
        0.10318129,
        -0.09829151,
        -0.090683654,
        -0.08068877,
        -0.028976455,
        0.018171087,
        -0.11514284,
        -0.13337603,
        -0.043773405,
        0.036292538,
        0.13256241,
        -0.11085548,
        -0.014266863,
        -0.050595313,
        -0.033272,
        0.08403401,
        -0.07665776,
        -0.1514469,
        0.03214097,
        0.13217406,
        0.022836715,
        -0.06983891,
        0.14918394,
        0.007830843,
        -0.07178502,
        0.15205286,
        -0.06423485,
        -0.049920954,
        0.15652888,
        0.41004574,
        0.56639034,
        0.49375245,
        0.5443383,
        0.3634998,
        0.3532216,
        0.23934832,
        0.04927909,
        0.040947523,
        -0.25760856,
        -0.1418262,
        -0.3421365,
        -0.12107284,
        -0.38633153,
        -0.27349308,
        -0.19315524,
        -0.039614014,
        -0.23747039,
        -0.10989867,
        -0.061424382,
        -0.12417955,
        -0.09544813,
        -0.27876577,
        -0.085238546,
        -0.18931998,
        -0.3708692,
        -0.27324477,
        -0.18284844,
        -0.1658285,
        -0.04284609,
        -0.14842886,
        -0.14368327,
        -0.1819044,
        -0.12891816,
        0.0006553161,
        0.25885227,
        0.1300583,
        -0.16438182,
        -0.019246414,
        -0.123741165,
        -0.008701891,
        -0.069374755,
        0.16210048,
        0.054360896,
        0.15672167,
        0.088200495,
        -0.08889687,
        -0.044999175,
        0.09767987,
        -0.063437454,
        0.16407217,
        0.014678344,
        -0.019296631,
        0.057651147,
        -0.0053806007,
        -0.15748458,
        0.11625193,
        0.14909051,
        0.010031134,
        -0.0040331334,
        0.040697277,
        0.104764864,
        0.099350825,
        0.14498337,
        -0.019580558,
        -0.09459147,
        0.1341085,
        -0.12741876,
        -0.014884755,
        0.13573037,
        -0.10144089,
        0.16208346,
        -0.12023374,
        -0.020085841,
        -0.1577643,
        -0.2165472,
        -0.112319425,
        -0.21863487,
        0.009650532,
        -0.17630689,
        -0.03292055,
        0.16383512,
        0.26723596,
        0.15456592,
        -0.04958982,
        0.05099915,
        0.104675606,
        0.31000006,
        0.22621012,
        0.23847392,
        0.26968986,
        0.0069134403,
        0.14239688,
        0.2510489,
        0.12104564,
        0.25658172,
        -0.006591912,
        0.06313116,
        0.04468951,
        -0.08002775,
        0.059535492,
        0.056466408,
        -0.09989615,
        -0.0663516,
        -0.0115263695,
        -0.06884049,
        -0.025080059,
        0.01030934,
        -0.29164922,
        -0.2241092,
        -0.07870793,
        -0.15215038,
        0.0711633,
        0.1618291,
        -0.14287807,
        0.086148426,
        -0.113617525,
        -0.0053152144,
        0.16114531,
        -0.10628655,
        -0.11186434,
        0.032323107,
        -0.14356227,
        0.097047284,
        -0.11402885,
        -0.025751159,
        -0.08588911,
        0.036505654,
        0.15732451,
        -0.02767022,
        0.08738281,
        0.0066918135,
        -0.1422609,
        0.13079323,
        -0.07774587,
        0.07181296,
        0.11129032,
        0.019315407,
        -0.10093346,
        -0.083046004,
        -0.047822252,
        0.08668722,
        -0.11814864,
        -0.1444946,
        -0.15685634,
        -0.034831837,
        -0.13465711,
        -0.13105503,
        -0.8569171,
        -0.7784587,
        -0.44173667,
        -0.3697978,
        -0.29525673,
        -0.15521325,
        -0.3203911,
        -0.49515626,
        -0.42853054,
        -0.019669171,
        0.34107018,
        0.48478472,
        0.3437561,
        0.01368262,
        0.17386976,
        -0.032107607,
        -0.2964655,
        -0.5729231,
        -0.6777256,
        -0.42451596,
        -0.65135765,
        -0.22615315,
        -0.46677542,
        0.16614214,
        0.14720477,
        0.02055773,
        0.20055367,
        0.36966303,
        0.7780351,
        0.6029292,
        0.7528399,
        0.677075,
        0.07832981,
        -0.21402203,
        -0.41714838,
        -0.61003596,
        -0.021349236,
        -0.16028269,
        -0.13399933,
        0.08849837,
        0.0054571033,
        -0.061935827,
        -0.11199153,
        0.105268195,
        0.033062145,
        0.12642498,
        -0.0048639625,
        0.050677627,
        -0.066943206,
        -0.06899157,
        -0.054174006,
        0.030454561,
        -0.1387664,
        0.026634231,
        -0.15324344,
        -0.07070298,
        0.1403922,
        0.053103372,
        0.08048433,
        -0.13733423,
        0.08169006,
        0.04910913,
        -0.14383312,
        0.10478036,
        0.034876317,
        0.044787794,
        0.086964026,
        0.071110144,
        -0.004729748,
        -0.103523165,
        0.074344814,
        -0.021094576,
        0.12025495,
        0.13227777,
        -0.99062234,
        -1.028205,
        -0.81187624,
        -0.66274273,
        -0.22255011,
        0.16453105,
        0.3438192,
        0.47747377,
        0.48540115,
        0.50654393,
        0.28726378,
        0.21639775,
        0.07843004,
        0.23359402,
        0.12606011,
        0.040162336,
        0.10729936,
        0.14886776,
        -0.0025319073,
        0.17800827,
        -0.10541248,
        0.08226408,
        0.15148288,
        0.06604212,
        0.1595092,
        0.1453993,
        0.4037642,
        0.2704858,
        0.4157936,
        0.6213219,
        0.5366509,
        0.4289677,
        0.29051405,
        -0.23373824,
        -0.4995415,
        -0.87951833,
        0.052772164,
        -0.026295587,
        0.16039596,
        0.13095383,
        -0.05579091,
        -0.09400655,
        0.10378663,
        -0.12906808,
        0.005140871,
        -0.14357212,
        0.15449683,
        0.13599373,
        0.116765335,
        -0.06595986,
        0.091689095,
        0.054112896,
        0.0412782,
        0.16382907,
        0.122578576,
        -0.14277315,
        0.02005209,
        -0.109249786,
        0.017181784,
        0.027331322,
        -0.16422363,
        0.055470556,
        -0.15807377,
        0.015268013,
        0.13289417,
        -0.056910142,
        -0.122043796,
        -0.11807546,
        0.15709697,
        -0.031238869,
        0.06511237,
        -0.07446605,
        0.1334884,
        -0.05326447,
        0.102812946,
        0.017578838,
        -0.09020695,
        -0.56757563,
        -0.47868165,
        -0.29016232,
        0.09715871,
        -0.17055309,
        -0.33033755,
        -0.47750348,
        -0.10796221,
        -0.118333325,
        -0.68776363,
        -0.1313815,
        0.5029018,
        0.43622226,
        0.5640596,
        0.971064,
        0.2587171,
        -0.12367762,
        -0.40991572,
        -0.9417289,
        -0.7217538,
        -0.8216812,
        -1.3147551,
        -1.1378974,
        -0.5620342,
        -0.4070511,
        -0.17380768,
        0.24766505,
        0.4184284,
        0.70652306,
        0.61435235,
        0.57111096,
        -0.105681434,
        0.30068755,
        0.045257002,
        0.07336284,
        0.15369923,
        -0.010832578,
        0.035403028,
        0.1341482,
        -0.065014966,
        -0.14532177,
        0.111686364,
        -0.13882163,
        -0.06607502,
        -0.038720086,
        -0.07964554,
        0.015742004,
        -0.04333061,
        -0.031891644,
        -0.13120562,
        0.10951413,
        0.12004332,
        0.016238615,
        0.08197729,
        -0.0012183934,
        -0.052540325,
        0.11043735,
        0.022577897,
        -0.04765238,
        0.024016112,
        0.06179911,
        -0.102767125,
        0.034335062,
        -0.15499847,
        0.07747777,
        -0.072693616,
        0.08872931,
        0.09499921,
        -0.06384858,
        -0.15113905,
        -0.12993845,
        0.33946753,
        0.11946564,
        0.053826515,
        -0.23812486,
        -0.19419308,
        -0.2113677,
        0.0013928572,
        -0.1141293,
        -0.05061478,
        0.08024178,
        -0.012740469,
        0.098318614,
        -0.14765847,
        -0.14014038,
        0.068700776,
        -0.19820218,
        -0.04259168,
        -0.12830062,
        -0.021565946,
        0.027340159,
        0.15382491,
        0.02867449,
        0.12943949,
        0.08038226,
        0.122570075,
        0.055147868,
        -0.028117053,
        0.27231148,
        0.016550483,
        0.25363576,
        0.38830292,
        0.3135294,
        0.42413896,
        0.47751245,
        0.3813062,
        0.3210493,
        -0.061182916,
        -0.103645146,
        -0.023636103,
        0.02498284,
        -0.13404135,
        -0.06789413,
        0.07832506,
        0.026855454,
        -0.057304412,
        0.0464274,
        -0.1442589,
        -0.0748319,
        -0.0524635,
        0.121350035,
        0.066821024,
        -0.07436222,
        -0.0933902,
        0.0481451,
        0.111609384,
        0.12284036,
        -0.12778327,
        0.039024875,
        -0.08588895,
        0.13493793,
        0.1451023,
        0.11743496,
        -0.15684031,
        0.032004803,
        0.02569969,
        0.14187713,
        -0.121597156,
        -0.13817258,
        -0.12024506,
        0.07839115,
        -0.0797728,
        -0.16141136,
        -0.044887275,
        -0.041417114,
        0.5511485,
        0.13097456,
        0.35592154,
        -0.11655305,
        -0.019785866,
        -0.033001598,
        -0.54639864,
        -0.40379253,
        0.09846747,
        -0.23133326,
        -0.022803552,
        -0.27284697,
        -0.21292219,
        -0.2977834,
        -0.12073546,
        -0.020958621,
        -0.14511012,
        0.17914964,
        -0.23197389,
        0.014694083,
        -0.057887033,
        -0.019746693,
        0.15652291,
        0.42106006,
        0.38419488,
        0.7276765,
        0.46193725,
        -0.15074497,
        -0.21212667,
        -0.481762,
        -0.48164228,
        -0.3803934,
        -0.5721593,
        -0.5901999,
        -0.11926675,
        0.4334083,
        -0.0804351,
        0.12308057,
        0.029201835,
        0.11991714,
        0.013932407,
        0.04122497,
        -0.15622078,
        -0.01651439,
        0.12409283,
        0.11785589,
        0.10262491,
        -0.01566498,
        0.11825283,
        -0.023699522,
        0.04395108,
        0.16200377,
        -0.15920237,
        -0.02735418,
        0.05142294,
        0.06441708,
        0.11251186,
        0.08585833,
        0.13850372,
        -0.07501334,
        0.06938788,
        -0.15025707,
        -0.06741806,
        -0.0047676563,
        -0.05907391,
        -0.07752324,
        -0.14887847,
        0.14510687,
        0.11777605,
        0.13358147,
        -0.15251169,
        -0.1434987,
        0.061767057,
        -0.0054320246,
        -0.20541558,
        -0.06272119,
        0.03745138,
        -0.1820895,
        -0.06359551,
        0.14506231,
        0.15084603,
        0.18216713,
        0.20747325,
        0.2588055,
        0.18817529,
        0.5183633,
        0.4645871,
        0.5792247,
        0.4919577,
        0.18704405,
        0.4537714,
        0.49480173,
        0.41626447,
        0.45859584,
        0.32288945,
        0.2813409,
        0.14258257,
        0.056303784,
        0.19547845,
        0.14711334,
        0.12093267,
        0.010636359,
        -0.1367992,
        -0.31404254,
        -0.06448493,
        -0.16524053,
        -0.17675287,
        0.106565535,
        -0.12895063,
        -0.30425027,
        0.12810569,
        0.025800183,
        0.1574928,
        0.15232687,
        -0.098061316,
        -0.080403544,
        -0.14223988,
        0.019221991,
        -0.13952033,
        -0.15857159,
        -0.041467287,
        -0.097978026,
        0.109923616,
        -0.10241373,
        0.119399056,
        0.14037307,
        0.048470348,
        -0.1572037,
        0.12381227,
        0.1018153,
        0.12967251,
        -0.10114171,
        0.10995166,
        -0.08545713,
        0.15639879,
        -0.067226864,
        -0.15668322,
        0.12233983,
        0.07069397,
        0.052145034,
        -0.14301863,
        0.0022278428,
        -0.14181422,
        0.11308457,
        -0.04547243,
        0.12035893,
        -0.14736392,
        -0.16421779,
        -0.3076982,
        0.39566803,
        0.80722576,
        0.5562127,
        -0.16520035,
        -0.46553087,
        -0.62146705,
        -0.52063894,
        -0.55230534,
        -0.2883952,
        -0.10425008,
        0.15114923,
        0.115497746,
        -0.06506019,
        0.0646785,
        -0.33726645,
        -0.23832768,
        -0.24598858,
        -0.16312915,
        0.043320257,
        0.05130275,
        0.12493578,
        -0.13896611,
        0.15771106,
        0.059833486,
        0.14419559,
        0.3768596,
        0.523122,
        0.84058106,
        0.7741656,
        0.5225817,
        0.16644643,
        -0.4238627,
        -0.8954492,
        -0.9067256,
        -1.0988898,
        0.14161737,
        -0.058849864,
        0.01290524,
        0.15406169,
        -0.14441541,
        -0.03412749,
        0.11834933,
        -0.049571484,
        -0.03368649,
        -0.14232475,
        -0.11367914,
        0.15565856,
        0.07963884,
        0.14804415,
        0.15577148,
        0.036091387,
        -0.09998187,
        -0.13721487,
        0.10188742,
        0.037102163,
        0.07966392,
        -0.11023266,
        -0.12192194,
        0.05011171,
        -0.018600151,
        -0.024414182,
        0.043876216,
        -0.14002149,
        0.018480733,
        0.0953363,
        0.112109944,
        0.025231063,
        -0.050317883,
        -0.004977986,
        -0.023698822,
        -0.011970863,
        0.06616376,
        0.031130537,
        0.111055166,
        0.11317941,
        -0.06262159,
        -0.16812877,
        -0.06387484,
        -0.1523879,
        -0.14339064,
        -0.1447418,
        -0.16093142,
        0.052806348,
        0.0904809,
        0.10360167,
        0.2138919,
        0.2761737,
        0.18965463,
        0.1507011,
        -0.09144626,
        0.17370218,
        0.13339496,
        0.010288902,
        -0.1164699,
        -0.01053943,
        0.09284717,
        0.09380279,
        -0.049988434,
        0.087704405,
        0.14209266,
        0.0257059,
        -0.0087215565,
        -0.19411874,
        -0.10465514,
        0.0018209142,
        -0.04571266,
        0.013625185,
        0.16938648,
        -0.051952142,
        -0.12841256,
        -0.08646924,
        -0.073679626,
        0.048268422,
        0.06794517,
        0.013043255,
        -0.1043812,
        -0.036914036,
        0.066567674,
        -0.028536484,
        -0.0469964,
        0.13689558,
        -0.06903744,
        -0.026445031,
        -0.08631438,
        0.119341955,
        -0.11028777,
        -0.04054489,
        -0.1353185,
        -0.14136119,
        0.028621927,
        -0.12413509,
        -0.109478965,
        0.030707225,
        -0.098529585,
        0.12159668,
        0.07305591,
        -0.059958205,
        0.051367506,
        -0.14823374,
        0.02786012,
        0.14825763,
        -0.004786387,
        0.10185985,
        0.15090568,
        0.07280199,
        -0.1289934,
        0.08484274,
        -0.1613235,
        -0.09779662,
        -0.10718351,
        -0.037612587,
        -0.15154068,
        -0.043264177,
        0.047177628,
        0.016856277,
        0.12984984,
        -0.12231911,
        -0.11417598,
        0.055995353,
        -0.04692564,
        0.005316039,
        -0.07797763,
        0.047521356,
        0.10445447,
        -0.05858852,
        -0.13844743,
        -0.044343844,
        -0.16455877,
        0.1202626,
        -0.08839454,
        0.04103116,
        0.14874887,
        -0.08793993,
        -0.05946406,
        0.08586701,
        0.10249557,
        0.010807605,
        -0.17165925,
        -0.061992317,
        0.14399795,
        0.03913777,
        0.040018234,
        -0.1242493,
        -0.041817576,
        -0.022382468,
        -0.00025586784,
        -0.11312091,
        -0.096852675,
        -0.13916357,
        0.004347235,
        -0.14993297,
        -0.0065164864,
        0.031151697,
        -0.08207101,
        0.029842839,
        0.021591663,
        0.1272551,
        0.011552721,
        0.14241965,
        0.003866747,
        0.08623211,
        -0.15144125,
        0.15621941,
        0.059062704,
        0.072981,
        -0.15340891,
        -0.09692813,
        0.074144095,
        -0.008419916,
        -0.11817172,
        -0.12737733,
        0.09367685,
        -0.109239474,
        -0.070279546,
        0.0871305,
        0.1529053,
        0.06593175,
        -0.038535908,
        0.03875588,
        -0.12721306,
        -0.13728875,
        -0.12818113,
        -0.39685822,
        -0.8991055,
        -0.5553074,
        0.0453376,
        0.26877555,
        0.7461887,
        0.3094144,
        0.1431728,
        0.4095858,
        0.5595981,
        -0.13882633,
        -0.949133,
        -1.3331503,
        -1.3157761,
        -1.1091796,
        -0.53564173,
        -1.2049593,
        -0.5577771,
        0.12456971,
        0.2128675,
        0.41877222,
        0.11647686,
        0.20213866,
        -0.3305048,
        -0.13967559,
        -0.13044596,
        0.17566296,
        0.19482528,
        0.4911098,
        0.45678857,
        0.36592856,
        -0.016277682,
        0.23309346,
        -0.08880692,
        -0.28077793,
        -0.115352094,
        0.15036254,
        0.05955343,
        0.099307105,
        0.07975748,
        0.031491414,
        0.07566078,
        0.038568795,
        -0.09540137,
        -0.046082154,
        0.111493066,
        -0.060250998,
        -0.016416833,
        -0.08050741,
        -0.048132606,
        0.08046669,
        0.12815194,
        0.11761825,
        0.15132214,
        -0.13748167,
        0.122835055,
        0.086373165,
        -0.14720987,
        -0.013192788,
        0.13029964,
        0.09788333,
        -0.116402544,
        0.14926387,
        0.025787055,
        -0.05846551,
        0.15338062,
        0.09801258,
        0.054043487,
        -0.14802836,
        -0.12870394,
        -0.057106003,
        0.16187714,
        -0.033796042,
        -0.24557815,
        -0.2929979,
        -0.27667066,
        -0.0006431362,
        0.2825186,
        0.31434467,
        0.24508685,
        0.24449226,
        0.015888013,
        -0.010651862,
        0.07795216,
        0.07266736,
        0.10484003,
        0.12767197,
        0.25282088,
        -0.09772551,
        0.04675561,
        0.12851404,
        -0.031972855,
        0.07746083,
        0.13234675,
        0.062799074,
        -0.06671388,
        0.02396353,
        0.17549315,
        0.2862784,
        0.111753464,
        0.2821746,
        0.055556867,
        0.00815958,
        0.1309697,
        -0.0047165835,
        0.06634193,
        -0.028129453,
        -0.06573293,
        -0.29436815,
        0.15625916,
        0.0532362,
        0.0022807568,
        0.14533503,
        0.09857969,
        0.056013733,
        0.10372169,
        0.1093386,
        0.06930648,
        0.05757232,
        0.048804462,
        -0.103043176,
        -0.093236156,
        -0.069184184,
        -0.15231179,
        -0.023294747,
        -0.013044506,
        0.05505857,
        -0.033158883,
        -0.038604304,
        -0.029800981,
        -0.0032930672,
        0.120139614,
        0.11266188,
        -0.111616,
        0.06913555,
        -0.0048403293,
        0.1353624,
        0.04408984,
        0.0333333,
        -0.10531519,
        -0.1265927,
        -0.14324585,
        -0.14526843,
        -0.009324983,
        -0.061316416,
        0.1427681,
        -0.13296476,
        0.045809925,
        0.27873456,
        0.642003,
        0.5830527,
        0.53842604,
        0.58032304,
        0.418681,
        0.570378,
        0.5021133,
        0.42988,
        0.29404253,
        0.033687387,
        0.2196436,
        0.047319133,
        -0.1563532,
        -0.08854419,
        -0.056185704,
        -0.07055585,
        -0.2731735,
        -0.14120053,
        0.015360413,
        -0.23821978,
        -0.09520148,
        -0.173243,
        -0.04787959,
        -0.2483095,
        -0.1589434,
        0.058774527,
        -0.05045119,
        -0.04082301,
        -0.038128488,
        -0.04697179,
        -0.018351289,
        -0.036419366,
        -0.15205899,
        0.025634203,
        0.16350885,
        0.01955998,
        0.037741497,
        -0.012863666,
        0.07297771,
        -0.007222727,
        -0.12846814,
        -0.15777984,
        -0.026253492,
        0.08277038,
        0.031317428,
        0.12852187,
        -0.06313639,
        -0.07741079,
        0.050823584,
        0.06903191,
        0.023528084,
        0.14787494,
        0.10120161,
        0.044053182,
        -0.08132213,
        0.059911057,
        0.12601332,
        0.09238352,
        -0.09681273,
        0.06687598,
        0.099652275,
        -0.023881868,
        -0.017971411,
        -0.15463085,
        0.08484626,
        -0.023562461,
        0.04825835,
        0.13015847,
        0.10113339,
        -0.048661627,
        0.10075517,
        0.018719241,
        0.2714104,
        0.34725276,
        -0.23636949,
        -0.18534553,
        -0.27829295,
        -0.09490966,
        0.07570146,
        0.11094606,
        0.03821777,
        -0.14397824,
        0.12696852,
        0.40759388,
        0.044174027,
        0.30123365,
        -0.11867915,
        -0.10393438,
        0.09646928,
        0.33779046,
        0.44312158,
        0.35685584,
        -0.067848384,
        -0.4835243,
        -0.5354506,
        -0.51651055,
        -0.60820454,
        -0.5532101,
        -0.6465244,
        -0.5409015,
        -0.50583845,
        -0.27870494,
        -0.49670538,
        -0.17609861,
        -0.17960458,
        0.21339193,
        0.35007203,
        0.53234,
        -0.15961224,
        -0.09880611,
        0.029193684,
        0.091666475,
        -0.15994501,
        -0.11710944,
        -0.15784098,
        0.15339331,
        -0.076883055,
        0.16321011,
        -0.052845545,
        0.08688475,
        0.08981578,
        -0.04674045,
        0.009900734,
        0.07670714,
        -0.03941311,
        -0.09627877,
        0.092962876,
        -0.092697926,
        0.0058364123,
        -0.048569202,
        -0.013005778,
        0.00494501,
        -0.0029913485,
        0.1487885,
        0.109749064,
        -0.13438772,
        0.110700354,
        -0.10652819,
        0.069088146,
        -0.016426474,
        0.010417178,
        0.0036058575,
        -0.15795907,
        0.15376316,
        -0.0187992,
        0.057631582,
        0.81429607,
        0.8003348,
        0.7494425,
        0.7653536,
        -0.1849054,
        -0.40684155,
        -0.4460498,
        -0.5429003,
        -0.4445372,
        -0.34299126,
        -0.1303814,
        -0.17062023,
        -0.055676952,
        0.11539001,
        -0.085845985,
        -0.31100193,
        -0.23150767,
        0.25591406,
        0.019703705,
        -0.10930142,
        -0.36454222,
        -0.20557313,
        0.2460681,
        0.23522891,
        0.34335113,
        -0.0028181188,
        -0.09510234,
        -0.34826392,
        -0.2822554,
        -0.6732543,
        -0.9331344,
        -1.2593791,
        -0.63639265,
        -0.5712292,
        0.04765319,
        0.8948358,
        -0.1500812,
        0.15721129,
        0.071009174,
        -0.025701568,
        0.14939176,
        -0.013882548,
        0.019306421,
        -0.1433561,
        -0.12426001,
        0.0074498653,
        -0.002675578,
        -0.03914176,
        -0.14579746,
        0.13821076,
        -0.08920875,
        0.101857886,
        -0.11744468,
        0.11462848,
        0.10097851,
        0.16051526,
        0.010043293,
        0.10961349,
        0.120552704,
        0.06107101,
        -0.1303089,
        0.10550909,
        -0.014946207,
        -0.14588028,
        0.09962843,
        0.14116956,
        -0.15034498,
        0.11017229,
        0.16066335,
        -0.11861864,
        0.0064321756,
        -0.0062087625,
        -0.01790765,
        0.12459426,
        -0.67621964,
        -0.14316815,
        0.46809635,
        -0.10756774,
        0.08809676,
        0.114447415,
        -0.1097089,
        -0.3497948,
        -0.5690718,
        -0.4351364,
        -0.07822353,
        0.07234447,
        -0.041026607,
        -0.31821314,
        0.3196276,
        0.36741713,
        0.404859,
        -0.04517463,
        -0.49080998,
        -0.44142348,
        -0.45583504,
        -0.51587,
        -0.6081764,
        -0.44544378,
        -0.39242077,
        -0.10998449,
        0.63836616,
        0.95905536,
        0.8316889,
        1.0153989,
        0.4660088,
        0.26825723,
        0.08750528,
        -0.31108242,
        -1.1534773,
        -1.0538278,
        -0.086686544,
        -0.06734171,
        -0.045825854,
        -0.12373741,
        0.028852165,
        -0.0034836382,
        0.09706931,
        -0.047855176,
        -0.13111433,
        0.055550724,
        -0.053487495,
        0.14040138,
        -0.15724893,
        0.100484625,
        -0.10588706,
        -0.1412839,
        -0.13980423,
        -0.09216737,
        0.030199245,
        -0.13891123,
        0.04333794,
        -0.059825957,
        -0.043046877,
        -0.15130849,
        0.14248924,
        0.009939298,
        -0.068670325,
        -0.088833414,
        0.024124801,
        0.15073334,
        0.13666262,
        -0.01476191,
        -0.07394141,
        0.06273867,
        0.014231443,
        0.1256621,
        0.12105797,
        0.11177884,
        -0.10565655,
        0.20667975,
        0.4019028,
        0.37419778,
        0.5444591,
        0.50830305,
        0.38576725,
        0.3679138,
        0.25955498,
        0.31670952,
        0.26107427,
        0.17984006,
        0.09314395,
        0.2196765,
        -0.11652685,
        0.062182713,
        -0.018201089,
        -0.07419393,
        -0.0666908,
        0.10705645,
        -0.18072972,
        0.04696486,
        0.06936476,
        0.04808171,
        -0.047936138,
        0.03966274,
        -0.06460457,
        -0.0596596,
        0.21286836,
        -0.117909044,
        -0.064483896,
        -0.13176847,
        -0.043920398,
        -0.32138923,
        -0.23328432,
        0.0061405078,
        -0.07904815,
        -0.11619441,
        -0.104252204,
        0.025477096,
        -0.14980134,
        -0.09224792,
        -0.061776772,
        0.047877714,
        -0.011654079,
        0.113760665,
        -0.0025798231,
        0.15016936,
        0.02104938,
        -0.08382083,
        -0.15267146,
        0.156204,
        0.07926804,
        0.009411722,
        0.047502145,
        0.055565536,
        0.10348986,
        0.13503419,
        0.15866213,
        -0.12758185,
        0.1196899,
        0.05544637,
        -0.05570621,
        0.057384998,
        -0.14416593,
        0.041846782,
        0.057873726,
        -0.042104922,
        -0.055279523,
        -0.16077836,
        0.07693879,
        -0.0381746,
        0.009999976,
        -0.09768825,
        0.6048119,
        0.32279655,
        0.0466131,
        0.03376608,
        0.5405763,
        0.6202075,
        -0.033765543,
        -0.5957926,
        -1.1524159,
        -0.49520308,
        0.028597707,
        -0.017807022,
        -0.2192208,
        -0.17459926,
        0.089360476,
        0.054923847,
        0.1552006,
        0.061875205,
        0.01933893,
        0.17209482,
        0.2869378,
        0.118084624,
        0.33334917,
        -0.06330038,
        0.10503007,
        -0.082997635,
        0.06671997,
        -0.28223687,
        -0.09586994,
        -0.33867714,
        0.00030361017,
        -0.30288354,
        -0.82908446,
        -1.0152272,
        -0.2378882,
        -0.28568363,
        0.04827869,
        -0.00019814074,
        0.14886688,
        -0.1018608,
        -0.009825319,
        0.022811279,
        -0.008855268,
        0.14804776,
        -0.07722124,
        0.06442629,
        0.06995101,
        0.12883209,
        -0.1635355,
        0.020017907,
        0.015482485,
        0.0007003546,
        -0.09055462,
        -0.09825733,
        0.13732488,
        0.03575614,
        -0.15951653,
        0.038119882,
        0.03381948,
        -0.009982109,
        0.103584036,
        0.020393044,
        0.15722741,
        0.16220425,
        0.0567037,
        -0.05861026,
        0.07314068,
        -0.13168623,
        -0.101874515,
        0.13472445,
        -0.1052648,
        0.10463108,
        0.027718395,
        -0.14462985,
        -0.21350881,
        0.12315284,
        0.5200041,
        0.7005877,
        0.4179534,
        0.23813152,
        0.21051899,
        0.26455238,
        0.15266892,
        0.120059,
        0.23321882,
        0.2381417,
        0.114028476,
        0.107012756,
        -0.2276708,
        -0.023576397,
        -0.13655517,
        -0.036242764,
        -0.16865194,
        0.09254724,
        0.12800066,
        0.1800801,
        0.16326597,
        0.1551732,
        0.20676018,
        0.067936055,
        0.13976002,
        -0.06933572,
        0.059502363,
        -0.17115512,
        -0.17241098,
        -0.19196981,
        -0.38579932,
        -0.5210111,
        -0.3791424,
        -0.18652806,
        -0.12314089,
        0.13476424,
        -0.04139626,
        -0.015045881,
        0.14380552,
        -0.03657636,
        0.12235163,
        -0.05770676,
        -0.105362035,
        0.11919244,
        -0.04491193,
        0.108468816,
        0.11539118,
        0.0377703,
        0.10932277,
        -0.054757163,
        0.029877216,
        0.0063439906,
        0.020559043,
        -0.10936345,
        -0.12801123,
        -0.123410285,
        0.1468681,
        0.041712016,
        -0.0042316467,
        0.0967605,
        0.14798732,
        -0.034736708,
        -0.04905367,
        -0.12931061,
        0.059746623,
        -0.07739671,
        0.037301555,
        -0.003414467,
        -0.08479268,
        -0.022675887,
        -0.11344534,
        0.09363626,
        0.6565341,
        0.81568897,
        0.5979759,
        0.61576974,
        0.39876494,
        0.39725262,
        0.12263088,
        0.1644737,
        0.22980393,
        0.19053666,
        0.037208837,
        0.09012617,
        0.120499544,
        -0.03703638,
        -0.15552652,
        0.07529276,
        -0.010562367,
        0.06965179,
        -0.15138516,
        0.020172354,
        -0.10113211,
        -0.11145394,
        -0.1708198,
        0.13833067,
        -0.04114116,
        -0.10885738,
        0.109860554,
        -0.0053586373,
        0.07794597,
        -0.19527468,
        -0.060119588,
        0.19652164,
        0.07124575,
        0.3261995,
        0.47729826,
        0.41490716,
        -0.009511709,
        -0.022956535,
        -0.07862531,
        -0.13086605,
        -0.00970915,
        0.11185257,
        0.13229443,
        0.082088456,
        -0.024858668,
        -0.08865021,
        0.15658925,
        -0.04688026,
        0.13449527,
        -0.054813482,
        -0.1642333,
        -0.120372415,
        0.15451072,
        0.09620182,
        -0.102142654,
        0.053512618,
        -0.023268104,
        0.03494236,
        0.14384408,
        -0.14146134,
        0.11381395,
        -0.11279383,
        0.1258261,
        0.09149544,
        0.12255569,
        0.027532399,
        0.036434308,
        -0.14571789,
        -0.046263635,
        -0.020855084,
        0.078373715,
        0.13732918,
        0.10642497,
        -0.07442082,
        -0.1383792,
        0.095854,
        -0.030087864,
        -0.0051415865,
        -0.08648003,
        -0.1372334,
        0.05096654,
        0.095681116,
        -0.0033086084,
        0.028112551,
        -0.15790132,
        0.09882061,
        -0.02320955,
        -0.11731497,
        -0.017629977,
        0.036215164,
        -0.013795944,
        -0.04314197,
        0.12503512,
        -0.14909151,
        -0.08689672,
        0.11976947,
        -0.04407659,
        -0.12785603,
        0.15785895,
        -0.01628373,
        -0.121145904,
        -0.019745644,
        -0.054546583,
        -0.090145305,
        0.07137184,
        -0.15628135,
        -0.016505083,
        0.032052886,
        0.063530445,
        0.061759047,
        -0.0228284,
        -0.027908802,
        -0.1034853,
        -0.057748698,
        -0.0101150125,
        0.102415875,
        -0.021397397,
        -0.048552506,
        0.013123259,
        -0.16215412,
        -0.0939516,
        0.0230847,
        -0.084394805,
        -0.06305922,
        -0.15488048,
        -0.080890626,
        -0.06271159,
        -0.011508897,
        -0.10420631,
        0.15488245,
        -0.16331248,
        0.087500826,
        0.019233912,
        0.11111911,
        -0.10397913,
        -0.0044217557,
        0.12729333,
        -0.10029352,
        0.09939338,
        0.1136459,
        -0.13323058,
        -0.032308564,
        -0.0903568,
        0.065588444,
        -0.10692018,
        -0.098833315,
        -0.07693044,
        0.0052721053,
        0.12513067,
        0.22246207,
        0.5404384,
        0.5550303,
        0.5943037,
        0.11317317,
        0.29929912,
        0.10102466,
        -0.2376949,
        -0.4631025,
        -0.46442044,
        -0.26370752,
        0.05658068,
        0.10600718,
        -0.09086487,
        0.064401746,
        -0.13323443,
        -0.05533887,
        -0.041006096,
        -0.019163748,
        -0.1021636,
        0.19819455,
        0.5176373,
        -0.22028865,
        -0.29542494,
        -0.3472301,
        -0.42453927,
        -0.54187953,
        -0.37990046,
        -0.2797476,
        -0.17575571,
        -0.56016886,
        -0.48147377,
        -0.29330307,
        0.022660216,
        -0.18025404,
        -0.070978954,
        -0.1228517,
        -0.1097707,
        -0.030579522,
        -0.04997982,
        0.0635218,
        0.062672466,
        0.05476652,
        -0.07041426,
        -0.16418557,
        0.019817263,
        0.09990059,
        0.07796471,
        -0.012087151,
        0.023099482,
        0.07967892,
        -0.0612078,
        0.052697733,
        0.14186604,
        0.09995891,
        -0.09675853,
        0.107502,
        0.08473244,
        0.050837547,
        -0.042098805,
        -0.020080745,
        -0.11891393,
        0.0817291,
        0.12415235,
        -0.0041653365,
        -0.0017818809,
        0.04314278,
        -0.111957155,
        -0.080388844,
        0.049354494,
        0.017926425,
        0.10510574,
        0.035314336,
        0.25978443,
        0.43944916,
        0.44089064,
        0.37662485,
        0.4614222,
        0.32356948,
        0.36097407,
        0.25487968,
        0.038134165,
        -0.10183171,
        -0.15647477,
        -0.22814915,
        -0.23112363,
        -0.2217462,
        -0.29340318,
        -0.26280752,
        -0.33773142,
        -0.04783273,
        -0.21098875,
        0.053349067,
        -0.14203714,
        0.099136725,
        0.030648168,
        -0.10875331,
        0.025570594,
        0.06169522,
        0.18256103,
        0.25417498,
        0.45888013,
        0.26844266,
        0.3567225,
        0.3282799,
        0.44039324,
        0.3226109,
        0.3338934,
        0.5090348,
        0.061659575,
        0.10612039,
        -0.06525297,
        0.07021424,
        0.056660473,
        -0.020551324,
        -0.103528306,
        0.06538631,
        0.0018416941,
        -0.06785486,
        -0.15769419,
        -0.053721413,
        -0.15121302,
        -0.11306957,
        0.053725407,
        -0.11231697,
        -0.023729518,
        0.017242178,
        0.098679796,
        -0.018295288,
        -0.13354568,
        -0.11833407,
        -0.12547308,
        -0.024381965,
        -0.12182078,
        0.103412464,
        0.11446585,
        -0.052192852,
        -0.071904294,
        -0.037893057,
        0.13799603,
        -0.07186439,
        0.14804699,
        -0.07650125,
        0.09960748,
        0.08745511,
        -0.14353386,
        0.14002483,
        0.0183468,
        0.2870512,
        0.19005285,
        0.24419042,
        0.13804753,
        0.38285106,
        0.22417073,
        0.1706495,
        0.2480939,
        0.1863753,
        0.0770532,
        0.041370966,
        0.024351245,
        -0.0016618939,
        -0.24090768,
        -0.30907035,
        -0.23823744,
        -0.23071402,
        -0.03740769,
        -0.12988554,
        -0.18764941,
        -0.1245034,
        0.094795845,
        0.035352513,
        -0.1389581,
        0.08310565,
        -0.07231995,
        0.005896276,
        0.05477678,
        -0.07134803,
        0.10058147,
        0.20234722,
        0.1243079,
        0.17387594,
        0.17990805,
        0.021455621,
        0.13841255,
        -0.09282692,
        -0.043580487,
        0.07466544,
        0.0045592934,
        -0.09146169,
        -0.10405251,
        -0.15316704,
        0.040525407,
        0.044633836,
        -0.024728417,
        -0.04467628,
        -0.087606624,
        -0.03466125,
        0.0075326413,
        -0.111823775,
        -0.034605354,
        0.007445082,
        -0.0521945,
        0.113207474,
        -0.12480765,
        0.14862199,
        -0.091036215,
        0.08678837,
        0.029409453,
        -0.053053632,
        0.11722867,
        0.14752306,
        0.0074054897,
        -0.05763699,
        0.02319716,
        -0.03521572,
        -0.0135009885,
        0.02825278,
        -0.06849293,
        0.16239198,
        -0.10928553,
        -0.081659175,
        0.09936722,
        -0.16379422,
        0.048395198,
        -0.08792915,
        0.0011465907,
        -0.13565394,
        -0.065957636,
        -0.10836729,
        -0.11871018,
        -0.11551819,
        0.09306677,
        -0.1419411,
        0.10710208,
        -0.09941084,
        -0.046056442,
        -0.08059211,
        0.052161507,
        -0.0023842296,
        -0.09097565,
        -0.07666229,
        0.029901536,
        0.05017992,
        -0.14087866,
        -0.07262909,
        -0.111871846,
        -0.14781342,
        -0.12183473,
        0.12702885,
        0.13966715,
        0.010088164,
        -0.1365313,
        0.1293234,
        0.13138229,
        0.027758589,
        -0.10861886,
        0.13192505,
        -0.034449354,
        0.018582985,
        0.10425754,
        0.14257671,
        -0.14959823,
        0.15892862,
        0.05177416,
        0.09260224,
        0.16350113,
        0.031338945,
        0.083142,
        0.033715382,
        0.06669964,
        -0.08678159,
        -0.07642529,
        -0.018419027,
        -0.08911586,
        0.1048436,
        0.05790639,
        -0.09653601,
        -0.10177249,
        -0.11722468,
        -0.049817592,
        -0.16326976,
        -0.1239825,
        0.003059268,
        0.15509458,
        -0.1014844,
        0.041343823,
        0.1567771,
        -0.03631434,
        0.051267594,
        -0.04036157,
        -0.06893227,
        -0.079817176,
        -0.04926736,
        -0.110412925,
        -0.059844106,
        0.014313772,
        0.15804006,
        0.07693873,
        0.34548822,
        0.46797827,
        0.39801967,
        0.48804495,
        0.5096047,
        0.46805122,
        0.6584781,
        0.5371489,
        0.49558884,
        0.2806243,
        0.39885032,
        0.042972725,
        -0.003646589,
        -0.054470487,
        0.055421107,
        -0.18481039,
        -0.19947638,
        -0.01916258,
        -0.03873976,
        -0.03784497,
        -0.3470706,
        -0.11129239,
        -0.13488156,
        -0.18735598,
        0.039379485,
        -0.0627191,
        0.063486874,
        0.14977422,
        -0.0120727215,
        -0.06074864,
        0.03144185,
        -0.20150743,
        0.04760722,
        0.115375,
        0.16125144,
        0.05923614,
        0.08623414,
        -0.09392538,
        -0.11798853,
        0.02065453,
        0.12188749,
        0.1128429,
        0.027190417,
        -0.03645508,
        -0.042570136,
        0.052012444,
        0.052646384,
        -0.042320654,
        0.039252445,
        0.022219256,
        -0.024042249,
        0.08461669,
        0.1307313,
        -0.101590976,
        -0.10927464,
        0.16148283,
        -0.07749937,
        0.03540598,
        -0.07235606,
        -0.09824601,
        -0.050598137,
        0.13696264,
        0.09366797,
        -0.06861404,
        0.16080897,
        -0.1468608,
        -0.03783141,
        -0.14581396,
        -0.1225428,
        0.013884991,
        -0.10928961,
        0.097742766,
        -0.019469148,
        -0.14823435,
        0.062336456,
        0.13152832,
        -0.12484202,
        -0.11646728,
        -0.117583014,
        -0.0789512,
        -0.120697774,
        -0.06456931,
        -0.061600234,
        -0.17799665,
        0.12545203,
        -0.081148356,
        -0.027290523,
        0.051597357,
        0.16546504,
        0.15087669,
        0.02242831,
        0.059141267,
        -0.06853267,
        -0.14381114,
        -0.1876486,
        -0.08307745,
        -0.06017241,
        0.09507927,
        -0.019355502,
        0.1530763,
        0.11376739,
        0.106827706,
        0.13128968,
        -0.15726922,
        -0.19859831,
        -0.015622554,
        0.011950533,
        0.124360904,
        -0.04455717,
        0.086417034,
        0.11372046,
        -0.040896162,
        0.08634861,
        0.02573438,
        -0.042983495,
        0.00013977289,
        -0.14450952,
        -0.15311602,
        0.1144139,
        -0.01324448,
        -0.13765195,
        -0.12454672,
        0.055648386,
        0.10176323,
        0.04541418,
        -0.10356703,
        0.12143655,
        -0.0009768009,
        -0.09144742,
        0.07519999,
        -0.00731574,
        0.0871153,
        -0.025686875,
        -0.010716632,
        0.05574341,
        -0.13255061,
        -0.08639418,
        0.14910387,
        -0.10197015,
        0.12781231,
        0.012755051,
        0.06864634,
        -0.08941496,
        0.0971248,
        0.10439871,
        0.5143717,
        0.80189055,
        0.81921434,
        0.8047245,
        0.45581734,
        0.47000158,
        0.3357001,
        0.0717571,
        0.025147188,
        -0.4262477,
        -0.26823267,
        -0.46224713,
        -0.36041194,
        -0.3628206,
        -0.33294192,
        -0.14399832,
        -0.17243399,
        -0.2838601,
        -0.31747466,
        -0.23725341,
        -0.2008168,
        -0.2511139,
        -0.31861135,
        -0.021925643,
        -0.39887458,
        -0.50947964,
        -0.33368108,
        -0.30944875,
        -0.12565626,
        -0.11610219,
        -0.16683975,
        -0.2986443,
        -0.15863986,
        -0.16068827,
        0.115350135,
        0.46626198,
        -0.018701673,
        -0.11051099,
        -0.111135334,
        0.02696155,
        0.13315265,
        -0.12881964,
        0.0046221614,
        0.087448195,
        0.067709565,
        -0.018627435,
        0.01995331,
        0.002838865,
        0.08191469,
        0.01231429,
        -0.058431804,
        -0.1049105,
        0.062344447,
        0.11535101,
        0.1412821,
        0.021508992,
        0.0069300085,
        0.004601538,
        0.15252553,
        -0.14029849,
        0.0016809851,
        0.07548115,
        -0.15407477,
        0.10118799,
        -0.016825572,
        -0.0063559115,
        -0.15165879,
        -0.12960118,
        0.16284893,
        0.05794546,
        0.037797898,
        -0.02124089,
        0.14666368,
        -0.13577761,
        0.7633987,
        0.86578536,
        0.9252432,
        0.71489996,
        0.425109,
        0.13212109,
        0.29726166,
        0.01143405,
        -0.0141704595,
        -0.08403191,
        0.010568815,
        0.029765772,
        -0.07876151,
        -0.076516286,
        -0.13083586,
        -0.055417437,
        -0.18681112,
        -0.32919034,
        -0.16842574,
        -0.09442063,
        -0.22843334,
        -0.12231484,
        -0.209383,
        0.038126122,
        0.049833354,
        -0.15930274,
        -0.18681568,
        0.085353024,
        -0.08705054,
        0.1194625,
        -0.123524755,
        -0.04244546,
        0.1710795,
        0.2142753,
        0.4787079,
        0.43758836,
        -0.07029664,
        -0.11040391,
        -0.13169724,
        0.06991522,
        -0.14576751,
        -0.05611843,
        -0.05169993,
        0.163624,
        0.12042995,
        0.031970307,
        0.12790795,
        -0.009095177,
        -0.15969393,
        0.053887248,
        0.027922943,
        0.0144920945,
        0.07926522,
        0.027901232,
        -0.10209311,
        -0.15570779,
        -0.03098403,
        0.15817524,
        -0.007394552,
        -0.019169942,
        -0.044312976,
        0.071532086,
        0.06472401,
        0.09867413,
        -0.13402677,
        -0.028113082,
        -0.041576877,
        -0.06237623,
        -0.16363102,
        -0.059548452,
        0.027612165,
        -0.06971842,
        -0.0066128373,
        0.07825506,
        -0.02323479,
        0.087897755,
        0.15259609,
        0.45077762,
        0.37606782,
        0.13742457,
        0.34593362,
        0.11768286,
        -0.22947869,
        -0.3578553,
        -0.44855118,
        -0.19383143,
        -0.8833375,
        -0.34211928,
        -0.074016444,
        -0.3911533,
        -0.17268856,
        0.09655413,
        0.1546246,
        0.19718628,
        0.13198522,
        0.098542236,
        0.4604721,
        0.15324102,
        0.19856986,
        0.016704105,
        0.0025204427,
        -0.45826346,
        -0.17113739,
        -0.38277152,
        -0.48971462,
        -0.06600688,
        -0.56786495,
        -0.5030166,
        -0.30472985,
        -0.30850726,
        -0.11421181,
        0.08287801,
        -0.055516616,
        -0.0028956681,
        -0.027593315,
        0.0036628395,
        -0.15380287,
        0.13085376,
        0.12395887,
        0.043907136,
        0.018345311,
        0.12642942,
        0.14740281,
        0.12854056,
        -0.08724701,
        0.12775959,
        -0.09257234,
        0.013227403,
        0.056748852,
        -0.057685517,
        -0.14012662,
        0.074049786,
        0.06397095,
        0.13117348,
        -0.053750336,
        -0.09337891,
        0.1554714,
        0.09246071,
        0.06776181,
        -0.16308832,
        -0.0817607,
        -0.10975059,
        0.13852786,
        0.048591703,
        0.09013043,
        0.124237105,
        0.091708675,
        0.008746728,
        -0.0428507,
        0.07856502,
        -0.0070145032,
        -0.1479895,
        -0.057571214,
        -0.12653372,
        0.21854183,
        0.09233203,
        0.15563862,
        0.43627465,
        0.35736942,
        0.33605805,
        0.06693625,
        0.25035146,
        0.069197886,
        0.0528203,
        -0.18228143,
        0.20987153,
        -0.108548425,
        -0.0113849975,
        0.0028658821,
        0.097032055,
        0.038052812,
        0.027282,
        -0.063244954,
        -0.0795638,
        0.15227196,
        -0.03072302,
        0.20932013,
        0.063795455,
        0.2802482,
        0.268584,
        0.47196913,
        0.44936135,
        0.2574566,
        0.26242712,
        -0.035552174,
        -0.0598675,
        -0.1325741,
        0.055922642,
        0.11476107,
        0.05427681,
        -0.07672874,
        -0.06688437,
        0.020661771,
        -0.1478334,
        0.09025337,
        0.009313032,
        0.10194962,
        -0.1194593,
        -0.0064432025,
        -0.09168142,
        0.04693705,
        0.0018809587,
        -0.1411499,
        0.046151415,
        -0.12242533,
        -0.13103575,
        -0.13946953,
        0.060929626,
        -0.042969733,
        0.046758354,
        0.12570076,
        0.00032818317,
        0.081667095,
        -0.12008311,
        0.0046161264,
        -0.056912184,
        0.10077934,
        -0.119417325,
        -0.09092114,
        -0.03583564,
        0.07662499,
        0.098304525,
        -0.43221477,
        -0.99036896,
        -1.3575884,
        -0.82819724,
        0.083262876,
        -0.012429661,
        0.028070346,
        0.15155192,
        -0.21978348,
        0.13938296,
        0.34926218,
        -0.14475583,
        -0.10641294,
        -0.03649632,
        0.28364265,
        -0.019312704,
        -0.007614643,
        -0.11585967,
        -0.029837126,
        0.5427173,
        0.36043197,
        0.19405803,
        0.16060215,
        -0.3854598,
        -0.9604786,
        -0.854192,
        -0.86541045,
        -0.67574537,
        -1.0226421,
        -0.5344726,
        0.34982908,
        0.88175964,
        1.0332365,
        0.96478415,
        0.5509988,
        0.065796785,
        0.15416296,
        0.12148745,
        0.06376156,
        -0.10971336,
        0.057766303,
        -0.08713992,
        -0.11496328,
        -0.07184185,
        -0.030784667,
        0.12635489,
        0.12209757,
        0.14590277,
        0.0019804835,
        0.037755176,
        -0.0012028366,
        0.006041318,
        -0.018299446,
        -0.09837715,
        0.105322555,
        -0.13730742,
        -0.019646063,
        0.017298892,
        -0.12830995,
        -0.06667522,
        0.10015397,
        0.106905594,
        -0.052583203,
        -0.049071223,
        -0.14941695,
        0.04982096,
        0.05071482,
        0.12846644,
        0.06953941,
        -0.04737746,
        -0.049211234,
        -0.14589132,
        0.056082994,
        -0.009619936,
        -0.08738448,
        -0.049877603,
        -0.18822913,
        0.19029292,
        0.20723733,
        0.43805233,
        0.5143703,
        0.43231657,
        0.510344,
        0.43381473,
        0.37301677,
        0.4376689,
        0.64212936,
        0.4352848,
        0.3568266,
        0.17478013,
        0.30265775,
        0.16947417,
        -0.04053731,
        0.06870084,
        -0.21666194,
        -0.12144533,
        0.019396013,
        -0.070126325,
        0.010540102,
        -0.24309145,
        -0.043438032,
        -0.2918406,
        -0.29702824,
        -0.09942952,
        -0.08050783,
        0.06619719,
        0.12100377,
        0.14078745,
        -0.11939865,
        -0.26194915,
        0.079194546,
        0.067053735,
        -0.05635737,
        -0.14117259,
        0.008242518,
        0.10139777,
        0.10472025,
        -0.029319972,
        -0.1484498,
        -0.01292932,
        0.114013836,
        0.14208452,
        -0.107032046,
        -0.12888773,
        0.08185637,
        -0.00018206239,
        -0.08542138,
        -0.15122466,
        0.12584002,
        -0.04209046,
        -0.02977468,
        0.06248802,
        -0.13632461,
        -0.12285907,
        0.12481411,
        -0.035169736,
        -0.14748244,
        -0.08735918,
        0.028508738,
        0.081154376,
        -0.031098664,
        0.1392728,
        -0.016563818,
        0.15433307,
        0.14158194,
        0.16179882,
        0.11129795,
        -0.072426654,
        -0.0697558,
        0.005540434,
        -0.11249684,
        -0.013529731,
        -0.090950295,
        -0.023739725,
        0.08436899,
        0.028076682,
        -0.08172173,
        0.116416395,
        0.10676801,
        -0.075700395,
        -0.07600137,
        -0.14943132,
        0.12966737,
        -0.06645532,
        0.10516524,
        -0.112877265,
        0.067018874,
        -0.0971403,
        -0.075028576,
        0.120348535,
        -0.07739278,
        0.06894083,
        0.119176276,
        -0.026400482,
        0.15191422,
        -0.15983082,
        -0.044657856,
        -0.17123461,
        -0.07245742,
        0.10253189,
        -0.10580637,
        0.088061556,
        0.16612472,
        -0.05614105,
        0.008112237,
        0.09313251,
        -0.039468147,
        0.102949336,
        0.0072872043,
        -0.09938809,
        -0.13587084,
        0.09761812,
        -0.09433196,
        0.09635599,
        0.098791584,
        -0.14168064,
        0.063283846,
        0.07521403,
        -0.031586498,
        0.0063611567,
        -0.037495375,
        0.020077094,
        -0.0801717,
        -0.05869814,
        -0.055459157,
        0.015391901,
        -0.1147778,
        -0.1573508,
        -0.09870495,
        -0.10524425,
        -0.0009782463,
        -0.01811546,
        -0.08294033,
        -0.13331956,
        0.0890445,
        0.016989335,
        0.13065942,
        0.10886176,
        -0.057675987,
        -0.020668283,
        -0.022914037,
        0.11222313,
        0.39543563,
        0.6480854,
        0.76786494,
        0.67431223,
        0.47794762,
        0.45368433,
        0.5974563,
        0.48921525,
        0.25388685,
        0.17055842,
        0.21563898,
        0.18522751,
        0.03657954,
        0.22906555,
        -0.0036712983,
        0.013285663,
        0.045401964,
        -0.14275596,
        0.038757432,
        0.037864253,
        -0.20366012,
        -0.02773742,
        -0.1104221,
        0.00054919673,
        -0.14943932,
        -0.17875434,
        -0.02517765,
        -0.13079654,
        0.08312401,
        -0.2478479,
        -0.17702043,
        -0.2037901,
        -0.042087615,
        -0.11287824,
        0.025174174,
        0.12625924,
        0.08589615,
        -0.065723,
        -0.025046378,
        0.088635996,
        -0.018346757,
        -0.0101147,
        -0.052648664,
        0.09974353,
        -0.1321335,
        0.031364575,
        0.045108497,
        -0.014944643,
        0.07095364,
        0.03900802,
        0.009677678,
        0.08723678,
        -0.092096776,
        0.10875808,
        -0.13428143,
        -0.017043218,
        0.0484239,
        -0.035231084,
        0.009773463,
        -0.04401838,
        -0.010950789,
        0.022880644,
        -0.008076638,
        -0.12951764,
        -0.075151,
        -0.004439041,
        0.0149486065,
        0.066795245,
        0.00843814,
        0.11736883,
        0.1444586,
        0.021614358,
        -0.11171356,
        0.1388552,
        1.0656215,
        1.4004495,
        0.9981886,
        0.48750496,
        0.1610996,
        0.32090896,
        0.10622449,
        -0.10372518,
        0.023253411,
        -0.18470511,
        0.027683958,
        0.04300971,
        0.00647391,
        -0.049999155,
        -0.13991155,
        0.03343736,
        -0.12347641,
        -0.009178297,
        -0.08713104,
        0.015689122,
        0.110055506,
        0.12208664,
        -0.02610983,
        0.07564216,
        -0.0850641,
        0.11306751,
        -0.03367453,
        -0.14490905,
        0.2987987,
        0.33149827,
        0.44106212,
        0.60185206,
        0.83801246,
        0.92194283,
        0.89024353,
        0.9947858,
        -0.0752872,
        -0.12690972,
        -0.022691682,
        0.12632422,
        0.106487826,
        0.15965082,
        0.07218854,
        0.036365256,
        -0.13915196,
        0.022462934,
        0.019021466,
        0.017471313,
        0.07814328,
        0.05989036,
        -0.06394343,
        -0.13487363,
        0.06480539,
        0.030732155,
        -0.045368202,
        -0.14505956,
        0.14456989,
        0.16069435,
        -0.043131262,
        -0.15888351,
        -0.092086196,
        -0.0011576414,
        0.11341457,
        -0.1096399,
        0.0394257,
        -0.09578067,
        -0.013881922,
        0.041555718,
        -0.028674647,
        -0.0543672,
        -0.0019486994,
        -0.12970586,
        0.063040644,
        0.07357666,
        0.039142136,
        0.12199086,
        -0.07721851,
        0.06847972,
        0.05313924,
        -0.09270908,
        0.029878128,
        -0.16826251,
        0.08891167,
        -0.14407536,
        -0.08160753,
        -0.04057065,
        0.1372021,
        -0.10216827,
        -0.0434257,
        -0.080131665,
        0.11746075,
        0.16700351,
        0.012853225,
        0.03382182,
        0.09936065,
        0.19971317,
        0.16206563,
        -0.09570005,
        -0.19152497,
        -0.18627717,
        -0.29517668,
        -0.25946558,
        -0.2123602,
        0.0012851806,
        -0.0007291531,
        0.10679426,
        0.08033893,
        0.17731464,
        0.22932978,
        -0.05771068,
        0.050089538,
        0.11508231,
        -0.078445554,
        -0.0067380667,
        -0.014429301,
        0.1212659,
        -0.034044117,
        0.09078775,
        0.061940968,
        0.14149185,
        0.14933293,
        0.065585345,
        -0.0065523535,
        -0.064157635,
        -0.07533188,
        -0.12732676,
        -0.055298142,
        -0.03621435,
        -0.051106818,
        0.08750804,
        -0.021813706,
        0.021264926,
        -0.08979508,
        0.019417584,
        -0.10000201,
        0.0023367703,
        -0.03659062,
        -0.05530324,
        -0.09911031,
        0.026102975,
        0.025575206,
        -0.030033559,
        0.04728535,
        0.015340522,
        0.12145476,
        0.109310225,
        0.07425718,
        0.14291625,
        0.10776237,
        0.110001184,
        0.10254818,
        0.4362063,
        0.49205247,
        0.504042,
        0.5875159,
        0.43427512,
        0.08733065,
        0.30322838,
        -0.07274065,
        0.091788135,
        0.09139778,
        -0.28935558,
        -0.507572,
        -0.50290316,
        -0.4624857,
        -0.55202144,
        -0.5171261,
        -0.7747964,
        -0.78248245,
        -0.5340123,
        -0.68393475,
        -0.44620043,
        -0.1860313,
        -0.24998759,
        -0.31016624,
        -0.30164608,
        -0.3994317,
        -0.13423999,
        0.21087101,
        0.10316246,
        0.39164355,
        0.58304024,
        0.37848023,
        0.33558208,
        -0.08666432,
        0.010598972,
        0.15237744,
        0.07075809,
        0.06334005,
        -0.066837065,
        0.051077187,
        -0.05240059,
        0.028630003,
        0.06498733,
        0.12962516,
        -0.048922278,
        0.092955396,
        0.09041892,
        0.08584328,
        0.048028663,
        -0.088553086,
        -0.15499517,
        -0.08573107,
        -0.07353096,
        -0.014791191,
        -0.008461624,
        -0.014438152,
        0.017244294,
        0.022380322,
        -0.13078061,
        -0.095107205,
        -0.09170517,
        -0.06543867,
        -0.07985425,
        -0.15322995,
        -0.090897426,
        -0.005210489,
        -0.00010727346,
        0.037922382,
        -0.11395767,
        -0.09162933,
        -0.09816444,
        -0.087739065,
        -0.38549834,
        -0.4551101,
        -0.073342666,
        -0.14376028,
        0.3804316,
        0.46442297,
        0.16923717,
        0.039186373,
        -0.30954212,
        -0.13752532,
        -0.47957754,
        -0.63940376,
        -0.25838482,
        -0.5217359,
        -0.31185228,
        0.10219896,
        -0.010100767,
        -0.082876556,
        0.2591407,
        0.13825744,
        0.27449122,
        0.41232482,
        0.47900814,
        -0.12354197,
        -0.20032611,
        -0.28838333,
        -0.5774122,
        -0.041751355,
        -0.054178428,
        -0.07471214,
        0.055343878,
        0.30092216,
        0.113279626,
        0.16145244,
        0.13544366,
        -0.038494796,
        -0.072576106,
        -0.049097173,
        -0.021730885,
        0.1405008,
        -0.1531282,
        0.15964897,
        0.037306845,
        0.075160205,
        -0.013076529,
        -0.08316763,
        -0.08593661,
        -0.029474005,
        -0.14656463,
        0.057674497,
        -0.11214157,
        0.11842038,
        -0.099097885,
        0.12724937,
        0.106674775,
        0.117404506,
        -0.11796336,
        0.085416794,
        -0.07268252,
        0.05974552,
        -0.1166233,
        0.08172256,
        0.05493726,
        0.03203906,
        -0.14674693,
        -0.15675381,
        -0.15125476,
        0.07298009,
        -0.07181484,
        0.10009466,
        -0.12677464,
        0.065176606,
        -0.07658697,
        -0.6546708,
        -0.5113355,
        -0.4456112,
        -0.21901864,
        0.04010827,
        0.05484334,
        0.35029095,
        0.3994366,
        0.29545859,
        0.34665227,
        0.4709621,
        0.34907067,
        0.29865426,
        0.085618414,
        0.1585918,
        -0.08330627,
        -0.26943272,
        -0.25815338,
        -0.13281384,
        -0.26356483,
        -0.19369337,
        -0.4562608,
        -0.3658235,
        -0.25544053,
        -0.095883735,
        -0.22147875,
        -0.080619656,
        0.12570298,
        0.1266773,
        0.1901256,
        0.18103561,
        0.18584715,
        -0.12379628,
        -0.49422774,
        -0.6138057,
        -0.50250787,
        -0.14391994,
        -0.02727598,
        -0.04062207,
        -0.109857515,
        0.040735975,
        0.09715174,
        -0.06690585,
        0.1498345,
        -0.0968377,
        0.11370696,
        0.013532028,
        0.030914098,
        -0.05482775,
        0.15347861,
        -0.15272625,
        0.13107114,
        -0.101465546,
        0.117081806,
        0.054724112,
        0.15396972,
        -0.005812779,
        -0.06502908,
        0.1331047,
        0.1507803,
        -0.090573944,
        0.07296234,
        -0.060919166,
        -0.07299683,
        -0.1313729,
        -0.062364236,
        0.0827039,
        0.041448474,
        -0.01291348,
        -0.16244468,
        0.114524946,
        -0.15254849,
        0.15011032,
        -0.06649124,
        0.20690598,
        0.0829224,
        -0.2797781,
        0.20248803,
        0.06815461,
        -0.14221704,
        -0.5205493,
        -0.24577676,
        -0.1253869,
        0.11208738,
        0.23678145,
        -0.12955935,
        -0.40934893,
        -0.1890426,
        -0.03792155,
        0.002881361,
        -0.19103101,
        0.031450607,
        0.16163257,
        0.35920605,
        0.24101207,
        0.14912564,
        -0.2522889,
        -0.33320343,
        -0.40757284,
        -0.13973376,
        0.01133637,
        0.13176537,
        0.07351703,
        0.087448046,
        0.10131631,
        -0.20579036,
        -0.2890847,
        -0.16181554,
        0.26499072,
        0.25552267,
        -0.14185801,
        -0.124817446,
        0.012083501,
        -0.13309932,
        -0.000039979815,
        -0.13654709,
        0.07699418,
        0.08858268,
        -0.06746737,
        -0.07217079,
        0.03720808,
        0.056010216,
        0.010265797,
        0.06975342,
        -0.07831852,
        0.014836624,
        0.14427246,
        0.056327105,
        -0.120840095,
        -0.04292611,
        -0.14588435,
        -0.0011498928,
        -0.035114557,
        0.054098755,
        -0.0380141,
        -0.06851656,
        0.15448143,
        -0.02158308,
        0.10471283,
        0.08931504,
        -0.1333936,
        -0.09758493,
        0.1265815,
        -0.09179571,
        -0.13746417,
        -0.035158098,
        0.013617516,
        0.03498517,
        -0.061650053,
        -0.1507266,
        -0.024727002,
        -0.08547093,
        -0.13982974,
        -0.010396242,
        -0.15315853,
        -0.116466045,
        -0.14089485,
        0.020893037,
        -0.04531478,
        0.071542636,
        0.112721816,
        0.067673266,
        0.017486334,
        -0.036997706,
        -0.021088377,
        0.045166343,
        -0.06333237,
        -0.03446226,
        -0.015556097,
        -0.05042301,
        0.077415764,
        -0.11145522,
        -0.13726807,
        0.08227369,
        0.08407411,
        -0.07052001,
        -0.0890633,
        -0.111340925,
        0.156123,
        -0.09028127,
        -0.0799,
        0.06442538,
        0.05822262,
        0.16193224,
        0.10000263,
        -0.119146876,
        0.008707896,
        0.11371292,
        0.09041579,
        -0.14494926,
        0.12940003,
        -0.051291272,
        -0.07820678,
        -0.030876666,
        -0.14352222,
        0.119175896,
        0.091375455,
        -0.048822686,
        0.09569566,
        -0.12309377,
        0.08633076,
        0.044372633,
        -0.13771638,
        0.1373886,
        0.044080585,
        -0.09019398,
        -0.025601849,
        0.14341001,
        0.12300645,
        -0.046056055,
        0.040896907,
        0.1517471,
        -0.11745048,
        -0.09029757,
        0.025942042,
        0.13201211,
        -0.0626691,
        -0.0885973,
        -0.052634515,
        -0.047256462,
        0.01894395,
        0.054556876,
        0.08824398,
        -0.085124984,
        -0.0921021,
        -0.15349598,
        -0.124311015,
        -0.0010132942,
        -0.062400717,
        0.11950012,
        -0.174127,
        0.0872652,
        -0.15990604,
        -0.036100306,
        -0.09534847,
        -0.046466075,
        -0.09145671,
        0.111802086,
        0.06651522,
        0.10966702,
        -0.007738159,
        -0.16972975,
        0.044673473,
        -0.032468177,
        -0.16444066,
        -0.020468092,
        0.07104813,
        -0.14800341,
        0.0725061,
        -0.04617099,
        0.13919722,
        0.051479742,
        0.0524169,
        0.014970526,
        -0.10583691,
        -0.018503383,
        -0.080724195,
        0.12829034,
        0.04978858,
        -0.1230458,
        0.06786004,
        -0.04389915,
        0.061610535,
        -0.0017190874,
        0.09805621,
        -0.02118951,
        -0.06690432,
        0.11612217,
        -0.06407294,
        -0.11404821,
        -0.06727026,
        0.11264764,
        -0.122898936,
        0.1051396,
        -0.05969332,
        -0.06003777,
        0.096418425,
        -0.113633834,
        0.011747405,
        0.14929189,
        -0.0048152357,
        0.07199946,
        -0.037535205,
        0.086652145,
        -0.04671105,
        0.032522187,
        0.058662117,
        0.010392249,
        0.15242578,
        -0.15866691,
        -0.051810347,
        -0.07136719,
        -0.095547415,
        0.10052489,
        0.14254923,
        -0.14050254,
        0.45704925,
        0.7909285,
        0.73829734,
        0.7288823,
        0.40416148,
        0.5906189,
        0.56828046,
        0.32018405,
        0.14469397,
        0.2181575,
        0.2746123,
        0.075120054,
        0.06499645,
        -0.02382749,
        -0.100344665,
        -0.016178451,
        -0.2178475,
        -0.20451106,
        -0.026765522,
        0.02486772,
        -0.21522258,
        -0.1818834,
        -0.18579465,
        0.0006626162,
        -0.124509946,
        0.019020338,
        -0.04559517,
        -0.14471152,
        0.0031818494,
        -0.2133796,
        -0.2622246,
        -0.08860327,
        0.021951225,
        0.09907944,
        0.15641248,
        0.30773166,
        -0.04312017,
        -0.042399675,
        0.0107194185,
        0.11632113,
        -0.062273026,
        0.05443591,
        0.071936235,
        -0.121316165,
        -0.14348525,
        -0.0307976,
        0.15162064,
        -0.10827385,
        -0.12628321,
        0.0529065,
        0.06829722,
        -0.03567548,
        0.13009648,
        -0.12187255,
        0.005483404,
        0.15180294,
        -0.070280135,
        -0.022134319,
        -0.10073329,
        -0.114793286,
        -0.07017195,
        -0.064559236,
        -0.09945304,
        0.12337519,
        -0.12115076,
        -0.07493017,
        -0.026692554,
        -0.041496485,
        -0.03386581,
        0.15858428,
        0.14567582,
        0.1143771,
        -0.03376092,
        -0.001006633,
        0.33631814,
        0.6693376,
        0.5992572,
        0.5765518,
        0.3490494,
        0.2360321,
        0.14738463,
        -0.1561993,
        -0.10879283,
        -0.12950216,
        -0.10292661,
        -0.20784642,
        -0.041850254,
        -0.27091402,
        -0.23230669,
        -0.08774265,
        -0.29252487,
        -0.29529426,
        -0.0037635812,
        -0.18709718,
        -0.036461804,
        -0.1384066,
        0.012352362,
        -0.017437022,
        0.121666774,
        0.13817416,
        0.024172578,
        0.10046823,
        0.14180687,
        -0.015129549,
        0.24923645,
        0.10453128,
        0.009522542,
        0.29097837,
        0.34628996,
        0.34257138,
        0.112129614,
        0.02168937,
        -0.10892908,
        0.14347164,
        -0.02193141,
        -0.061515845,
        0.15769152,
        -0.11246885,
        0.14816163,
        -0.12227446,
        -0.16324094,
        -0.009580702,
        0.15153037,
        0.13893901,
        0.15077402,
        -0.13393164,
        -0.028779775,
        0.15368693,
        0.09868221,
        -0.1048011,
        0.036818475,
        0.05185522,
        0.11112566,
        0.16129349,
        0.14569561,
        -0.065994546,
        -0.07676268,
        0.005831346,
        -0.03716284,
        0.042544857,
        -0.07648941,
        -0.11584072,
        -0.09630025,
        0.10431363,
        -0.16041501,
        -0.10074254,
        -0.03580518,
        0.063359454,
        0.61438686,
        0.6695442,
        0.7165797,
        0.56044865,
        0.31804192,
        0.33114588,
        0.09959478,
        0.24494417,
        0.057957962,
        0.14192645,
        0.08113192,
        -0.14460802,
        0.00008054939,
        -0.20438166,
        -0.13672654,
        -0.052802585,
        -0.23859033,
        -0.025026297,
        -0.23626213,
        -0.21869287,
        0.0096251145,
        -0.2060693,
        -0.11698503,
        -0.014116729,
        -0.29269052,
        -0.17972523,
        -0.13163796,
        0.010497837,
        0.16641885,
        0.21737194,
        -0.004068385,
        0.26260364,
        0.30206797,
        0.36504513,
        0.2428612,
        0.5545188,
        -0.012759715,
        -0.040555708,
        -0.032292575,
        0.115815386,
        -0.09448568,
        -0.15095836,
        -0.017831653,
        -0.05765275,
        -0.017378345,
        -0.0014178753,
        -0.004007891,
        0.11014511,
        0.023626626,
        -0.12972385,
        -0.022166267,
        0.12026961,
        -0.12731971,
        0.15327813,
        0.14704244,
        -0.15114301,
        -0.0029753894,
        0.03636262,
