{
  "model_type": "dqn",
  "format_version": 4,
  "input_size": 74,
  "output_size": 9,
  "ray_count": 36,
  "hidden_sizes": [
    128,
    128
  ],
  "training_seeds": [
    2,
    3,
    4,
    5,
    6,
    7,
    8,
    9,
    10,
    11,
    12,
    13,
    14,
    15,
    16,
    17,
    18,
    19,
    20,
    21,
    22,
    23,
    24,
    25
  ],
  "random_seeds_per_cycle": 2,
  "action_repeat": 2,
  "episodes_completed": 3560,
  "total_steps_completed": 208239,
  "best_metrics": {
    "average_survival_time": 19.0978,
    "average_return": 2048.2822,
    "average_evades": 95.125,
    "min_survival_time": 7.116705,
    "min_return": 828.2168,
    "timeouts": 21
  },
  "layers": [
    {
      "input_size": 74,
      "output_size": 128,
      "weights": [
        -0.11879721,
        -0.112608895,
        -0.10455599,
        -0.1092562,
        -0.07581055,
        0.06544812,
        -0.15502766,
        0.072427265,
        -0.14327958,
        0.03111946,
        0.10049702,
        -0.047249805,
        -0.085576,
        -0.13777238,
        -0.08113266,
        0.11281412,
        -0.048143342,
        -0.046515707,
        -0.004156788,
        0.1591523,
        -0.015530072,
        -0.09973318,
        0.07608768,
        -0.040499505,
        0.011820437,
        0.004514295,
        0.12842141,
        -0.08056448,
        -0.038914055,
        -0.023814045,
        -0.0821742,
        0.006740871,
        0.100993685,
        -0.06676648,
        0.15602611,
        -0.14221089,
        0.05751595,
        -0.058232494,
        -0.1601473,
        -0.09293204,
        -0.06810395,
        -0.020308316,
        -0.080101185,
        0.10513146,
        -0.032858685,
        -0.15666214,
        -0.14423844,
        -0.13943073,
        -0.0088085085,
        -0.07277836,
        0.014175072,
        -0.005949676,
        -0.08834386,
        0.12693338,
        0.09279363,
        -0.13857159,
        -0.113148704,
        -0.11662416,
        0.021280631,
        0.15687124,
        -0.11489621,
        0.0668616,
        -0.020074353,
        -0.023772389,
        0.15511872,
        0.024107248,
        -0.030848488,
        -0.052891366,
        -0.11232481,
        -0.0012181699,
        -0.05649659,
        0.005308792,
        0.008274615,
        -0.089514405,
        -0.27201188,
        -0.41836625,
        0.21591426,
        0.10803292,
        0.022491105,
        0.060414847,
        0.045798577,
        0.2027161,
        0.049779844,
        0.00753779,
        -0.36609885,
        -0.22213495,
        -0.2929954,
        0.116175056,
        0.30371672,
        0.10877621,
        0.09579387,
        -0.0323907,
        -0.16838245,
        -0.28974348,
        0.060246404,
        -0.13854176,
        0.29094598,
        0.24260627,
        0.2596538,
        -0.07606013,
        -0.63500184,
        -0.721687,
        -0.8067912,
        -0.2118935,
        0.26664975,
        0.08986964,
        0.36967754,
        0.40268078,
        0.022085378,
        -0.28945184,
        0.036626607,
        0.15515418,
        0.06564626,
        0.07791747,
        0.07483363,
        0.034232482,
        -0.12450972,
        -0.06726978,
        0.083508,
        -0.14079736,
        -0.10856786,
        -0.07871777,
        -0.010895088,
        0.11587928,
        0.08978979,
        0.020773485,
        -0.07774141,
        -0.013518304,
        0.14820297,
        -0.056671247,
        0.12261407,
        0.042081133,
        -0.026172817,
        0.09625517,
        -0.09795055,
        -0.118377075,
        -0.09475531,
        0.12927087,
        -0.11980568,
        -0.07507468,
        -0.1149017,
        0.010308251,
        0.16061209,
        -0.11128193,
        0.01166752,
        -0.048803322,
        -0.044844784,
        0.1359436,
        -0.8283745,
        -0.88266546,
        -0.56643194,
        -0.10400925,
        0.025682816,
        0.5215618,
        1.0125908,
        1.1792904,
        0.91005355,
        -0.16225205,
        -1.1775618,
        -1.2068757,
        -0.5042799,
        -0.7100534,
        -0.3850323,
        -0.35000363,
        0.046292678,
        0.37187675,
        0.38960716,
        0.4741026,
        0.40045375,
        0.40939707,
        0.24102443,
        0.094445474,
        0.15385923,
        0.13495876,
        -0.32158583,
        -0.13517003,
        -0.28427333,
        -0.1880831,
        -0.14311312,
        0.17916042,
        -0.4082625,
        -0.1322281,
        -0.3328603,
        -0.6426002,
        -0.12098363,
        0.010730982,
        -0.13316332,
        0.09700574,
        0.032851428,
        0.017060906,
        -0.12775874,
        -0.027245447,
        -0.034216583,
        0.10848303,
        -0.12418161,
        -0.071293816,
        -0.13307819,
        0.04684776,
        -0.11573242,
        -0.10210428,
        -0.09864996,
        0.089029714,
        0.14306606,
        0.126334,
        -0.11501756,
        0.1032597,
        0.13456617,
        0.011717647,
        0.056171924,
        -0.06849406,
        -0.04580822,
        0.023086935,
        -0.012326404,
        0.051731408,
        0.06859879,
        -0.15691537,
        -0.1345213,
        0.037463203,
        -0.07822481,
        -0.11032963,
        0.15437298,
        0.14286436,
        -0.07239427,
        -0.13785523,
        -0.01645954,
        -0.06499495,
        0.0021631639,
        -0.12246985,
        -0.15854506,
        -0.027039412,
        0.15193415,
        -0.07161188,
        -0.061664917,
        -0.010913539,
        0.021209411,
        -0.06902139,
        0.06235658,
        -0.003741524,
        0.077654526,
        0.13068137,
        -0.045096412,
        -0.021105401,
        -0.10078948,
        0.04235745,
        -0.1128521,
        0.09132244,
        -0.10909908,
        -0.016104724,
        0.016442664,
        0.09680952,
        -0.13331175,
        0.039002478,
        -0.04623427,
        -0.10820987,
        0.09539923,
        -0.0041082855,
        0.114302956,
        -0.05073763,
        0.15886606,
        -0.066925645,
        0.12746249,
        -0.10272753,
        0.108744875,
        -0.06608144,
        0.10074936,
        -0.05811835,
        -0.13898766,
        -0.101554714,
        0.11330007,
        -0.06043616,
        0.11458449,
        -0.096264735,
        0.04486893,
        -0.02658242,
        0.14231236,
        0.14113511,
        0.12714748,
        0.046699688,
        -0.091997415,
        -0.11710195,
        -0.023764476,
        -0.025650099,
        -0.10302142,
        0.12838484,
        0.07766536,
        0.12305893,
        0.15138952,
        -0.052722156,
        -0.12429677,
        0.12938567,
        0.13756664,
        0.030194625,
        -0.07428955,
        -0.050960384,
        0.06408195,
        -0.09442281,
        0.26963502,
        0.2887324,
        0.23258474,
        0.14109476,
        -0.055918016,
        -0.19892724,
        -0.37958091,
        -0.22653453,
        -0.07126276,
        -0.020762118,
        -0.061891954,
        0.1899326,
        0.25616646,
        0.17405464,
        0.24299605,
        0.015874457,
        0.10127156,
        0.13050525,
        0.11342709,
        0.048706964,
        0.11703697,
        -0.24438514,
        0.13554262,
        0.21308944,
        0.15258373,
        0.07258282,
        0.034536712,
        0.16182855,
        0.3027296,
        0.3909513,
        0.441758,
        0.36942118,
        0.5929847,
        0.56362414,
        0.48066404,
        0.4609242,
        -0.11180119,
        0.04443641,
        -0.013302535,
        0.08454423,
        0.13927226,
        0.0748453,
        0.05527015,
        0.15028702,
        0.15934332,
        0.09377451,
        0.14553176,
        0.027801529,
        0.13410078,
        -0.040081203,
        -0.07061389,
        -0.028792277,
        0.11788641,
        -0.050270222,
        -0.11600208,
        0.001743108,
        0.0870841,
        0.08940892,
        0.05569774,
        0.07883003,
        -0.0053434074,
        -0.14069444,
        -0.114162035,
        -0.12949781,
        -0.025329992,
        -0.14751494,
        -0.111431226,
        0.07226333,
        -0.15318014,
        -0.002664104,
        0.037730828,
        -0.02859813,
        -0.12079181,
        0.09303419,
        -1.0245484,
        -1.1540451,
        -0.85891896,
        -0.49268445,
        0.08557188,
        0.68312055,
        0.6580945,
        0.40910852,
        0.42413542,
        0.1487869,
        0.04248624,
        -0.34565178,
        -0.05567028,
        -0.10427787,
        0.08351268,
        0.026435124,
        0.23618834,
        -0.40578973,
        -0.2129425,
        -0.7426211,
        -0.5839782,
        -0.4776319,
        -0.39247933,
        -0.43433845,
        -0.7291293,
        -0.7746036,
        -0.41619387,
        0.057161715,
        0.49658608,
        1.0806073,
        0.7062379,
        0.6580422,
        0.7679572,
        0.67870593,
        0.32921872,
        -0.4960218,
        -0.075005695,
        -0.024454013,
        0.07757333,
        0.08043173,
        -0.148748,
        0.12674035,
        0.05299644,
        0.005571246,
        0.14028747,
        0.022159413,
        0.008543462,
        -0.021399751,
        -0.015675917,
        -0.03906901,
        -0.12757733,
        -0.13124771,
        -0.11853284,
        -0.015622303,
        -0.10622932,
        -0.12467289,
        -0.082529716,
        0.1027195,
        0.11580612,
        0.15222909,
        0.09614186,
        0.060674474,
        0.12107451,
        -0.15825662,
        0.023529097,
        -0.072006084,
        0.051875755,
        0.13723548,
        -0.048269868,
        -0.052330077,
        0.06837319,
        0.062002733,
        0.13117664,
        0.1429279,
        0.8352788,
        0.9083031,
        0.88810045,
        0.46051085,
        0.46538082,
        -0.43482468,
        -1.4429008,
        -1.3411028,
        -0.7970043,
        0.17667793,
        0.17758964,
        -0.07791192,
        0.33156836,
        0.053407717,
        0.03788037,
        -0.1922448,
        0.28715354,
        0.15752743,
        0.114573404,
        0.2965833,
        0.11604271,
        -0.013101156,
        -0.0146183465,
        -0.00047204806,
        -0.13124697,
        0.23590952,
        0.22065985,
        -0.2746149,
        -0.06098361,
        -0.13290553,
        -0.5455272,
        -0.8640497,
        -1.2717047,
        -1.1591705,
        -0.27953547,
        0.39672723,
        0.10163851,
        0.0766177,
        -0.061288625,
        0.0065063834,
        -0.036647737,
        -0.006361872,
        -0.09077133,
        0.09690513,
        -0.153193,
        0.07343492,
        -0.13622679,
        0.09222974,
        0.097433254,
        -0.003236428,
        -0.09243821,
        -0.04277376,
        0.061965182,
        -0.023482233,
        -0.055796243,
        -0.035036832,
        0.108655706,
        0.05041121,
        -0.0130701065,
        0.001182422,
        0.0695253,
        -0.10458137,
        0.09912242,
        0.08947073,
        -0.14630309,
        -0.09850109,
        -0.013603643,
        -0.14277793,
        0.071334615,
        -0.081245504,
        0.031958044,
        -0.061523095,
        0.00628528,
        -0.10934915,
        0.18639465,
        0.15384988,
        0.19513673,
        -0.05992093,
        0.083366066,
        0.06584489,
        -0.17132549,
        0.020102996,
        0.18625903,
        0.15921152,
        0.15916753,
        0.102586396,
        0.24905482,
        0.15522946,
        0.23027445,
        0.26399627,
        0.29548287,
        -0.0020156507,
        0.029616637,
        0.1277894,
        -0.12550288,
        0.12331747,
        -0.071467385,
        -0.010494461,
        -0.18092792,
        -0.0968971,
        -0.21426435,
        0.053852145,
        -0.05824517,
        -0.070103705,
        0.031858135,
        -0.017805241,
        0.1942778,
        0.20974162,
        0.16585927,
        0.21686354,
        0.104541525,
        -0.011793777,
        0.13625424,
        0.1016673,
        0.13223101,
        0.12320863,
        0.02745977,
        -0.16090456,
        -0.019076467,
        0.1575147,
        -0.018501103,
        -0.14344752,
        0.03604698,
        0.054769814,
        0.14073326,
        -0.102230415,
        0.11540945,
        -0.13738263,
        0.00024396181,
        0.094004974,
        -0.15445164,
        -0.08333213,
        -0.13781738,
        0.13108437,
        -0.07051343,
        0.104147986,
        -0.020761654,
        -0.04650402,
        -0.05643431,
        -0.059041217,
        0.10315128,
        -0.08500736,
        0.006097451,
        -0.14562574,
        0.11690362,
        0.09694715,
        -0.03811401,
        -0.1585603,
        -0.015223746,
        0.113879085,
        0.076531045,
        -0.07887274,
        0.06436164,
        0.091061816,
        -0.03107333,
        -0.15317048,
        0.14928466,
        -0.15811443,
        0.022609279,
        -0.107625216,
        -0.10393221,
        0.10351662,
        0.046198666,
        -0.08060878,
        0.13436575,
        0.1362661,
        -0.113542706,
        -0.049129095,
        -0.11135658,
        -0.015893813,
        -0.14822493,
        -0.14025249,
        -0.045124613,
        -0.046819095,
        0.1515303,
        -0.10860064,
        0.010158334,
        -0.15049861,
        0.11355589,
        0.020706033,
        -0.08542192,
        -0.10703228,
        -0.01905232,
        -0.063149914,
        0.13722278,
        0.023373142,
        0.13757493,
        0.08219902,
        0.06876969,
        -0.14714731,
        0.107252255,
        -0.08334346,
        -0.13877639,
        -0.15592521,
        -0.06526739,
        -0.040560454,
        0.10796584,
        -0.065128595,
        0.12607427,
        0.1256781,
        -0.13613452,
        -0.16248827,
        0.1500835,
        0.1407906,
        -0.104977176,
        -0.1033179,
        0.118535146,
        -0.10877046,
        -0.02627857,
        -0.049966924,
        -0.04910156,
        0.016396806,
        -0.049141422,
        -0.13252503,
        0.056502476,
        0.006645292,
        0.07411909,
        -0.12195274,
        0.08766036,
        0.025288567,
        0.10840376,
        -0.10197784,
        -0.41238722,
        -0.4264043,
        -0.009414024,
        -0.07074642,
        0.10917524,
        0.49791977,
        0.518883,
        0.57730997,
        0.57527477,
        0.54077214,
        0.23860389,
        0.21920417,
        0.20631015,
        -0.10427727,
        -0.41107437,
        -0.3333001,
        -0.7106671,
        -0.55754316,
        -0.28514424,
        0.009790957,
        0.24736056,
        0.21292163,
        -0.1225536,
        -0.16831484,
        -0.4514323,
        -0.36908513,
        -0.60148245,
        -0.5350056,
        -0.44961733,
        -0.1638085,
        0.089514405,
        0.43316126,
        0.4283673,
        -0.007281474,
        -0.4402943,
        -0.70418066,
        0.10214661,
        0.06871423,
        0.073139235,
        -0.02287367,
        0.13257675,
        0.1615041,
        0.0692182,
        0.13767184,
        -0.10157224,
        -0.021911457,
        0.0513075,
        -0.00073958933,
        -0.099712595,
        -0.070864625,
        -0.036279917,
        0.009568632,
        -0.03322348,
        0.11244582,
        0.12823607,
        0.009008363,
        0.01739575,
        -0.11722574,
        -0.10377622,
        0.14446904,
        -0.03265275,
        0.020874813,
        0.00633204,
        -0.0007971972,
        -0.051759034,
        -0.04963059,
        -0.116027206,
        0.13181104,
        -0.017420515,
        0.0800899,
        -0.13472421,
        -0.09554091,
        0.097341016,
        -0.062399156,
        -0.12859762,
        -0.027161341,
        -0.08848298,
        0.017194232,
        -0.06741828,
        -0.2443857,
        -0.08183953,
        -0.15022933,
        0.12434693,
        0.049942486,
        0.22317941,
        0.21099746,
        -0.027864737,
        0.041130673,
        0.26722786,
        0.0032538474,
        0.107133836,
        0.08108165,
        -0.115417354,
        -0.228658,
        -0.13001963,
        0.04209741,
        -0.12261119,
        -0.09892969,
        0.171939,
        0.1240861,
        0.13601841,
        0.21019827,
        0.18541314,
        0.13943811,
        0.058930524,
        0.32053232,
        0.2833038,
        0.2027792,
        0.06611864,
        -0.09740195,
        0.08675836,
        -0.067790814,
        0.017549127,
        -0.061556883,
        0.031776562,
        0.1530943,
        0.14587428,
        -0.1465221,
        0.018238217,
        -0.039186716,
        0.03275457,
        0.069292605,
        -0.13722679,
        -0.12706368,
        0.045260772,
        0.13381235,
        0.09416859,
        0.024741903,
        -0.011716366,
        0.1520905,
        -0.13342331,
        -0.121096045,
        0.011203334,
        0.06640257,
        0.11360945,
        0.057435095,
        -0.006315142,
        -0.045754008,
        0.09557067,
        0.08765103,
        0.023836091,
        0.06015171,
        0.053238913,
        0.074031994,
        0.10592987,
        -0.065191664,
        0.01665397,
        -0.076043054,
        0.2007706,
        0.09596172,
        0.09114233,
        0.04109553,
        0.11855468,
        0.11328258,
        0.06240939,
        0.1062657,
        0.26342094,
        -0.0019763107,
        0.0038308823,
        0.2115448,
        0.12176487,
        0.206374,
        -0.05096985,
        0.23249152,
        0.28405595,
        0.041912727,
        0.01433599,
        0.025504805,
        0.11008845,
        0.073548794,
        -0.10571894,
        -0.12608936,
        0.024756648,
        -0.21917099,
        -0.046242915,
        -0.006517289,
        -0.07265495,
        -0.017606769,
        0.037677076,
        -0.1671914,
        0.117355086,
        0.12747985,
        0.03953906,
        0.07503036,
        -0.0025454164,
        -0.022215217,
        0.04901035,
        -0.12973902,
        0.06465538,
        -0.082775824,
        -0.0010803193,
        0.04329765,
        0.13687856,
        0.125185,
        0.07416016,
        0.10437481,
        -0.07160119,
        -0.015036166,
        0.106731996,
        0.09225972,
        -0.15039814,
        -0.034172088,
        0.11706863,
        0.014038324,
        0.07107192,
        -0.08856834,
        0.14352022,
        -0.037286192,
        -0.11093572,
        -0.089959316,
        -0.15593646,
        -0.016892165,
        -0.01849088,
        0.034779698,
        -0.06452941,
        -0.03242643,
        0.058678776,
        0.06835829,
        -0.010864526,
        -0.099929735,
        -0.15069109,
        -0.10994735,
        -0.1564957,
        -0.042526707,
        -0.051618874,
        0.014499769,
        -0.1379681,
        0.11910759,
        -0.115647085,
        0.07782525,
        0.010945573,
        -0.11886859,
        -0.15262544,
        -0.15047343,
        -0.1129583,
        -0.086439334,
        -0.009135708,
        -0.003968686,
        -0.027063504,
        0.10519309,
        -0.108263224,
        0.04633069,
        -0.102298886,
        -0.055821873,
        -0.088767216,
        0.07450141,
        -0.050845504,
        -0.008678839,
        0.004670173,
        -0.11452217,
        -0.051136725,
        0.12184577,
        -0.103813685,
        0.1276419,
        -0.122693546,
        -0.08466894,
        -0.15145124,
        0.012085304,
        -0.07201188,
        -0.1410445,
        -0.11298515,
        -0.042436756,
        -0.09285431,
        0.06835973,
        0.14478968,
        0.14334418,
        -0.15197031,
        -0.095050685,
        0.13408129,
        0.14404552,
        -0.08988198,
        0.15844457,
        0.09173636,
        0.007920012,
        -0.010164201,
        -0.1363354,
        -0.09135747,
        -0.15118805,
        -0.033404946,
        -0.12952995,
        -0.12549047,
        -0.12077977,
        -0.09658759,
        -0.10243431,
        -0.040264957,
        0.14292832,
        -0.056363128,
        0.0702997,
        0.0009762496,
        -0.05594883,
        -0.027459577,
        0.0075311214,
        0.15127231,
        0.15628426,
        0.023268104,
        0.15007396,
        -0.013099058,
        0.12804201,
        -0.07654318,
        0.0230013,
        0.07661266,
        -0.08761717,
        -0.12776276,
        -0.10106025,
        0.14367911,
        -0.13582303,
        -0.1030396,
        -0.011850626,
        0.038103484,
        0.068417534,
        -0.06298251,
        -0.0117277615,
        0.10477453,
        0.13523678,
        0.11456742,
        -0.13479498,
        -0.15157266,
        -0.03405832,
        -0.12223327,
        -0.08608713,
        -0.16472802,
        -0.14032167,
        -0.1498319,
        0.025546951,
        -0.011110434,
        -0.12959023,
        -0.00972642,
        -0.015142173,
        -0.09681071,
        -0.043256957,
        0.11183769,
        0.11952178,
        -0.13069235,
        0.039365366,
        -0.098195486,
        0.107410684,
        -0.15804213,
        0.008359328,
        -0.10194962,
        0.1475778,
        -0.1606378,
        0.065761134,
        0.0584902,
        0.054854333,
        0.1366479,
        -0.08133703,
        0.156487,
        0.07623449,
        0.113468036,
        0.07520418,
        0.040979892,
        0.1483611,
        0.13976322,
        0.14021857,
        0.08584036,
        0.09871681,
        -0.117495716,
        0.0069345534,
        -0.0010170937,
        0.025462002,
        0.1559221,
        0.12785484,
        -0.038620144,
        0.06788531,
        0.034923196,
        0.007644072,
        -0.015771434,
        -0.11861126,
        0.06331265,
        0.11325826,
        -0.16470201,
        -0.102049924,
        0.012380416,
        -0.0114885215,
        -0.042619724,
        -0.056369606,
        0.059704043,
        -0.12389976,
        -0.026689753,
        -0.08605191,
        -0.12896271,
        -0.1430391,
        -0.14327958,
        0.09812904,
        0.11988935,
        0.0066034906,
        0.077660136,
        -0.124744356,
        -0.078792684,
        0.012351652,
        -0.045335826,
        -0.052434534,
        -0.08961442,
        0.02600861,
        0.11259259,
        0.12702288,
        0.009636855,
        0.03618732,
        0.10453029,
        -0.0050926697,
        0.059547473,
        0.056519467,
        0.043634128,
        -0.116837695,
        -0.14728676,
        -0.1564065,
        0.09962545,
        -0.0892661,
        -0.13088468,
        -0.028782755,
        -0.039439842,
        -0.12859239,
        0.03380592,
        -0.02309376,
        -0.13433531,
        -0.14426075,
        0.0035280436,
        -0.102651805,
        -0.09899464,
        -0.027798027,
        0.1213799,
        -0.0005031526,
        0.15537266,
        -0.039974824,
        -0.011227518,
        -0.011550203,
        0.02652292,
        -0.058658436,
        -0.06397299,
        0.07225956,
        0.02091235,
        0.044927135,
        0.035708994,
        -0.012079075,
        -0.1054741,
        -0.0771704,
        -0.07695965,
        -0.092466824,
        -0.052928366,
        -0.12216836,
        0.049636662,
        -0.02222608,
        0.01338838,
        -0.12861912,
        -0.12622644,
        0.12704311,
        0.16501819,
        -0.09016943,
        0.2009344,
        0.1670144,
        -0.23006487,
        -0.23958863,
        0.02837765,
        0.20946541,
        -0.27950773,
        0.066135146,
        -0.08134601,
        -0.62932295,
        -0.18905021,
        -0.21684809,
        0.36472547,
        0.6265334,
        0.8662264,
        0.2980224,
        0.10434162,
        -0.1017247,
        -0.6641783,
        -0.53751636,
        -0.86338997,
        -0.76010096,
        -0.6688431,
        -0.2949432,
        -0.30359882,
        -0.55654377,
        -0.29112345,
        0.4270224,
        0.42549944,
        0.3460189,
        0.3626855,
        -0.14562497,
        -0.082821526,
        0.08725266,
        0.0791049,
        0.14237528,
        0.051570937,
        -0.070901856,
        -0.007044539,
        -0.09268291,
        -0.08791635,
        -0.037369058,
        -0.013203844,
        0.15352283,
        -0.039108947,
        0.11535962,
        0.14461695,
        -0.07109337,
        -0.02018857,
        -0.061227128,
        0.08789925,
        -0.07583366,
        0.06697464,
        0.0011539608,
        0.04642676,
        -0.057544492,
        -0.03799191,
        0.15836193,
        -0.14163682,
        -0.03165126,
        -0.14970112,
        0.0093845725,
        -0.04053717,
        0.052951023,
        0.1418796,
        -0.08530101,
        -0.15025918,
        -0.16409898,
        -0.11204934,
        0.06631948,
        0.21655005,
        0.28399777,
        0.21106844,
        -0.041448627,
        0.18376943,
        0.19644319,
        -0.00031694584,
        -0.6352019,
        -0.8546924,
        -1.0663258,
        -0.9628994,
        -1.2176027,
        -1.055597,
        -0.8668559,
        -0.41600928,
        -0.07940145,
        0.45888892,
        0.5183506,
        0.39271587,
        -0.009324109,
        -0.14019817,
        0.09439314,
        -0.13474214,
        0.016385341,
        0.100463256,
        0.24718632,
        0.2012714,
        0.35859355,
        0.02450396,
        0.39353627,
        0.23825808,
        0.099806875,
        0.026668562,
        0.21498466,
        0.3885586,
        0.27022117,
        0.09232743,
        -0.043485984,
        -0.066979736,
        -0.098964386,
        -0.1079593,
        -0.05834961,
        0.03399065,
        0.103404924,
        0.07552834,
        0.004798427,
        0.050691888,
        0.14194866,
        0.017137453,
        0.0032322407,
        -0.16192153,
        0.022253916,
        -0.08541335,
        0.007637456,
        0.04065217,
        0.12551518,
        -0.09047458,
        0.1363462,
        -0.09996717,
        0.04271692,
        -0.13356107,
        0.02455388,
        0.12685348,
        0.11039372,
        -0.16043997,
        -0.023194537,
        0.07759896,
        -0.04667095,
        -0.10736996,
        -0.046085134,
        0.043401197,
        -0.03457533,
        0.06243491,
        -0.0632392,
        0.595545,
        0.7660022,
        0.7219726,
        0.4843853,
        0.52280676,
        0.34822187,
        0.06974189,
        0.36642268,
        0.07407904,
        0.13766143,
        -0.02826719,
        0.10610102,
        0.021326737,
        -0.10938014,
        -0.30294117,
        -0.23408534,
        -0.29309908,
        -0.36752403,
        -0.029005462,
        -0.1806793,
        -0.15890752,
        -0.27775913,
        -0.0071342783,
        -0.098285064,
        0.035977043,
        -0.007299961,
        0.06585225,
        -0.02538203,
        -0.08404258,
        0.23051974,
        0.060146205,
        0.10155906,
        0.35700592,
        0.43077466,
        0.442205,
        0.35733768,
        0.08420631,
        0.124959126,
        -0.12769818,
        0.13773935,
        0.13030304,
        0.053079933,
        -0.05134462,
        -0.12717849,
        0.032211006,
        0.10318129,
        -0.09829151,
        -0.090683654,
        -0.08068877,
        -0.028976455,
        0.018171087,
        -0.11514284,
        -0.13337603,
        -0.043773405,
        0.036292538,
        0.13256241,
        -0.11085548,
        -0.014266863,
        -0.050595313,
        -0.033272,
        0.08403401,
        -0.07665776,
        -0.1514469,
        0.03214097,
        0.13217406,
        0.022836715,
        -0.06983891,
        0.14918394,
        0.007830843,
        -0.07178502,
        0.15205286,
        -0.06423485,
        -0.049920954,
        0.15652888,
        0.55425465,
        0.56566757,
        0.43493867,
        0.475582,
        0.13786305,
        0.16040525,
        0.058629904,
        -0.03334225,
        -0.058415897,
        -0.18356389,
        -0.217891,
        -0.2656835,
        -0.21261455,
        -0.34978023,
        -0.21374032,
        -0.29377156,
        -0.25861293,
        -0.30330724,
        -0.24441248,
        -0.23566565,
        -0.18302405,
        -0.19950058,
        -0.2796845,
        -0.22816342,
        -0.18335433,
        -0.17885458,
        -0.12010055,
        -0.07561744,
        -0.059060436,
        -0.07880109,
        -0.07281963,
        0.002900516,
        -0.022874251,
        0.2258858,
        0.2028739,
        0.4055401,
        0.1300583,
        -0.16438182,
        -0.019246414,
        -0.123741165,
        -0.008701891,
        -0.069374755,
        0.16210048,
        0.054360896,
        0.15672167,
        0.088200495,
        -0.08889687,
        -0.044999175,
        0.09767987,
        -0.063437454,
        0.16407217,
        0.014678344,
        -0.019296631,
        0.057651147,
        -0.0053806007,
        -0.15748458,
        0.11625193,
        0.14909051,
        0.010031134,
        -0.0040331334,
        0.040697277,
        0.104764864,
        0.099350825,
        0.14498337,
        -0.019580558,
        -0.09459147,
        0.1341085,
        -0.12741876,
        -0.014884755,
        0.13573037,
        -0.10144089,
        0.16208346,
        -0.12023374,
        -0.020085841,
        -0.14584936,
        -0.3340851,
        -0.24282163,
        -0.39734077,
        -0.047731858,
        -0.3427035,
        -0.09420958,
        0.037126657,
        0.17465486,
        0.052013192,
        -0.07821127,
        0.029527083,
        0.17020084,
        0.38815957,
        0.30468917,
        0.39472905,
        0.3285311,
        0.16526984,
        0.34382668,
        0.34338972,
        0.11887321,
        0.275964,
        0.033416968,
        0.1496919,
        0.15975851,
        0.06257127,
        0.1247257,
        0.13366193,
        -0.09856778,
        0.017745625,
        0.037268214,
        -0.041834738,
        0.08112763,
        0.06390572,
        -0.16922942,
        -0.13683906,
        -0.07870793,
        -0.15215038,
        0.0711633,
        0.1618291,
        -0.14287807,
        0.086148426,
        -0.113617525,
        -0.0053152144,
        0.16114531,
        -0.10628655,
        -0.11186434,
        0.032323107,
        -0.14356227,
        0.097047284,
        -0.11402885,
        -0.025751159,
        -0.08588911,
        0.036505654,
        0.15732451,
        -0.02767022,
        0.08738281,
        0.0066918135,
        -0.1422609,
        0.13079323,
        -0.07774587,
        0.07181296,
        0.11129032,
        0.019315407,
        -0.10093346,
        -0.083046004,
        -0.047822252,
        0.08668722,
        -0.11814864,
        -0.1444946,
        -0.15685634,
        -0.034831837,
        -0.13465711,
        -0.13105503,
        -0.17711057,
        -0.36503565,
        -0.18199003,
        -0.49027318,
        -0.9202926,
        -1.0385724,
        -0.7735027,
        -0.73630303,
        -0.6954635,
        0.032453317,
        0.41326228,
        0.6443798,
        1.0117031,
        0.8893999,
        -0.0720241,
        -0.39504963,
        -0.97483987,
        -1.163256,
        -0.57000893,
        -0.30818418,
        -0.43729943,
        -0.046875924,
        -0.018978102,
        0.2859773,
        0.4831576,
        0.28217345,
        0.27008292,
        0.20490032,
        0.39737633,
        0.51750493,
        0.43394214,
        0.3428064,
        0.124382876,
        -0.020259919,
        -0.025862789,
        0.14858416,
        -0.021349236,
        -0.16028269,
        -0.13399933,
        0.08849837,
        0.0054571033,
        -0.061935827,
        -0.11199153,
        0.105268195,
        0.033062145,
        0.12642498,
        -0.0048639625,
        0.050677627,
        -0.066943206,
        -0.06899157,
        -0.054174006,
        0.030454561,
        -0.1387664,
        0.026634231,
        -0.15324344,
        -0.07070298,
        0.1403922,
        0.053103372,
        0.08048433,
        -0.13733423,
        0.08169006,
        0.04910913,
        -0.14383312,
        0.10478036,
        0.034876317,
        0.044787794,
        0.086964026,
        0.071110144,
        -0.004729748,
        -0.103523165,
        0.074344814,
        -0.021094576,
        0.12025495,
        0.13227777,
        -1.1434991,
        -1.0652866,
        -0.69112426,
        -0.6303235,
        -0.15507606,
        0.41149294,
        1.0611775,
        0.73213875,
        0.17284672,
        -0.15077832,
        -0.27950215,
        -0.2771487,
        -0.3138621,
        -0.31839097,
        -0.15787402,
        -0.17049383,
        -0.30323794,
        -0.3322122,
        -0.18306485,
        -0.0646386,
        -0.22525579,
        -0.014714442,
        0.0798494,
        -0.053354796,
        -0.04872012,
        0.023407295,
        0.14340585,
        0.18921115,
        0.38594252,
        0.8259702,
        0.65835774,
        0.7345793,
        0.62662446,
        0.27358788,
        -0.17548998,
        -0.7990204,
        0.052772164,
        -0.026295587,
        0.16039596,
        0.13095383,
        -0.05579091,
        -0.09400655,
        0.10378663,
        -0.12906808,
        0.005140871,
        -0.14357212,
        0.15449683,
        0.13599373,
        0.116765335,
        -0.06595986,
        0.091689095,
        0.054112896,
        0.0412782,
        0.16382907,
        0.122578576,
        -0.14277315,
        0.02005209,
        -0.109249786,
        0.017181784,
        0.027331322,
        -0.16422363,
        0.055470556,
        -0.15807377,
        0.015268013,
        0.13289417,
        -0.056910142,
        -0.122043796,
        -0.11807546,
        0.15709697,
        -0.031238869,
        0.06511237,
        -0.07446605,
        0.1334884,
        -0.05326447,
        0.18984082,
        -0.05710409,
        0.24230506,
        0.31705338,
        -0.22354513,
        0.17752217,
        0.20010939,
        0.07569444,
        -0.4251413,
        -0.65872383,
        -0.76125336,
        -0.4371678,
        -0.4968156,
        -0.3453018,
        0.28644642,
        0.40510976,
        0.6898929,
        1.1306387,
        0.7629485,
        -0.058867104,
        -0.6726285,
        -1.1670272,
        -1.4747059,
        -0.910322,
        -1.05513,
        -0.48751438,
        -0.15593897,
        -0.009326065,
        0.36680838,
        0.13908298,
        0.13483547,
        0.2563081,
        0.25545144,
        0.19128996,
        -0.026358776,
        0.2878344,
        0.045257002,
        0.07336284,
        0.15369923,
        -0.010832578,
        0.035403028,
        0.1341482,
        -0.065014966,
        -0.14532177,
        0.111686364,
        -0.13882163,
        -0.06607502,
        -0.038720086,
        -0.07964554,
        0.015742004,
        -0.04333061,
        -0.031891644,
        -0.13120562,
        0.10951413,
        0.12004332,
        0.016238615,
        0.08197729,
        -0.0012183934,
        -0.052540325,
        0.11043735,
        0.022577897,
        -0.04765238,
        0.024016112,
        0.06179911,
        -0.102767125,
        0.034335062,
        -0.15499847,
        0.07747777,
        -0.072693616,
        0.08872931,
        0.09499921,
        -0.06384858,
        -0.15113905,
        -0.12993845,
        0.16522811,
        0.0073412363,
        0.11102521,
        -0.20459954,
        -0.15570419,
        -0.23876965,
        -0.00692892,
        -0.061790615,
        0.004879964,
        0.17515032,
        0.099978626,
        0.20771702,
        -0.11953697,
        -0.13834344,
        0.14344667,
        -0.113824435,
        -0.032163564,
        -0.19051397,
        -0.10352352,
        -0.010213589,
        0.18445404,
        0.053046428,
        0.20437379,
        0.05402872,
        0.18507788,
        0.09855052,
        0.033361714,
        0.34402043,
        0.04824588,
        0.2115483,
        0.2852505,
        0.19960886,
        0.34463468,
        0.303803,
        0.23456725,
        0.21054922,
        -0.061182916,
        -0.103645146,
        -0.023636103,
        0.02498284,
        -0.13404135,
        -0.06789413,
        0.07832506,
        0.026855454,
        -0.057304412,
        0.0464274,
        -0.1442589,
        -0.0748319,
        -0.0524635,
        0.121350035,
        0.066821024,
        -0.07436222,
        -0.0933902,
        0.0481451,
        0.111609384,
        0.12284036,
        -0.12778327,
        0.039024875,
        -0.08588895,
        0.13493793,
        0.1451023,
        0.11743496,
        -0.15684031,
        0.032004803,
        0.02569969,
        0.14187713,
        -0.121597156,
        -0.13817258,
        -0.12024506,
        0.07839115,
        -0.0797728,
        -0.16141136,
        -0.044887275,
        -0.041417114,
        0.6674321,
        0.35432965,
        0.32954553,
        -0.17970553,
        -0.14201015,
        -0.37916476,
        -0.7233831,
        -0.31024274,
        0.03894435,
        -0.1103859,
        -0.013565193,
        -0.14843519,
        0.03788859,
        -0.20219806,
        -0.18588594,
        -0.3727038,
        -0.37300938,
        -0.032094095,
        -0.2454594,
        0.13827938,
        -0.14975251,
        0.10307231,
        0.14332548,
        0.4238342,
        0.23740168,
        0.65293294,
        0.6067649,
        0.22746661,
        0.06734084,
        -0.37252975,
        -0.53287613,
        -0.7297755,
        -0.7578385,
        -0.50276566,
        0.09282086,
        0.7681708,
        -0.0804351,
        0.12308057,
        0.029201835,
        0.11991714,
        0.013932407,
        0.04122497,
        -0.15622078,
        -0.01651439,
        0.12409283,
        0.11785589,
        0.10262491,
        -0.01566498,
        0.11825283,
        -0.023699522,
        0.04395108,
        0.16200377,
        -0.15920237,
        -0.02735418,
        0.05142294,
        0.06441708,
        0.11251186,
        0.08585833,
        0.13850372,
        -0.07501334,
        0.06938788,
        -0.15025707,
        -0.06741806,
        -0.0047676563,
        -0.05907391,
        -0.07752324,
        -0.14887847,
        0.14510687,
        0.11777605,
        0.13358147,
        -0.15251169,
        -0.1434987,
        0.061767057,
        -0.0054320246,
        -0.23494925,
        -0.26528755,
        -0.08275844,
        -0.22078367,
        -0.038086288,
        0.048576742,
        0.18377659,
        0.1890379,
        0.29752725,
        0.36139816,
        0.42875355,
        0.6417111,
        0.5853698,
        0.63644165,
        0.50500387,
        0.44067305,
        0.5807661,
        0.681758,
        0.64999175,
        0.53419524,
        0.4806233,
        0.40332925,
        0.20787825,
        0.122755185,
        0.27311918,
        0.23353556,
        0.087604664,
        0.23296118,
        0.04610756,
        0.06445943,
        0.20148042,
        -0.15270457,
        -0.07005369,
        -0.017520126,
        -0.07794361,
        -0.24284433,
        0.12810569,
        0.025800183,
        0.1574928,
        0.15232687,
        -0.098061316,
        -0.080403544,
        -0.14223988,
        0.019221991,
        -0.13952033,
        -0.15857159,
        -0.041467287,
        -0.097978026,
        0.109923616,
        -0.10241373,
        0.119399056,
        0.14037307,
        0.048470348,
        -0.1572037,
        0.12381227,
        0.1018153,
        0.12967251,
        -0.10114171,
        0.10995166,
        -0.08545713,
        0.15639879,
        -0.067226864,
        -0.15668322,
        0.12233983,
        0.07069397,
        0.052145034,
        -0.14301863,
        0.0022278428,
        -0.14181422,
        0.11308457,
        -0.04547243,
        0.12035893,
        -0.14736392,
        -0.16421779,
        -0.7111375,
        -0.09508206,
        0.39761198,
        0.84599453,
        0.5993555,
        0.41977975,
        0.24517994,
        0.19144952,
        0.32682043,
        -0.013320596,
        -0.27319378,
        -0.63624877,
        -0.97688544,
        -1.1966176,
        -0.62062824,
        -0.6128255,
        -0.63661844,
        -0.44245118,
        -0.23374191,
        -0.07309263,
        -0.05207041,
        0.058897328,
        -0.0596639,
        0.19789526,
        0.105514966,
        0.16435221,
        0.22149917,
        0.5668994,
        0.4659458,
        0.4615792,
        -0.16237468,
        -0.2703858,
        -0.41194698,
        -0.64527357,
        -0.32755736,
        -0.8316822,
        0.14161737,
        -0.058849864,
        0.01290524,
        0.15406169,
        -0.14441541,
        -0.03412749,
        0.11834933,
        -0.049571484,
        -0.03368649,
        -0.14232475,
        -0.11367914,
        0.15565856,
        0.07963884,
        0.14804415,
        0.15577148,
        0.036091387,
        -0.09998187,
        -0.13721487,
        0.10188742,
        0.037102163,
        0.07966392,
        -0.11023266,
        -0.12192194,
        0.05011171,
        -0.018600151,
        -0.024414182,
        0.043876216,
        -0.14002149,
        0.018480733,
        0.0953363,
        0.112109944,
        0.025231063,
        -0.050317883,
        -0.004977986,
        -0.023698822,
        -0.011970863,
        0.06616376,
        0.031130537,
        0.08296894,
        -0.009463651,
        -0.19498396,
        -0.2258668,
        -0.014964771,
        -0.12925097,
        -0.102973446,
        -0.13785248,
        -0.15715183,
        0.015487285,
        -0.0031213877,
        0.011080545,
        0.13678737,
        0.21367432,
        0.14282933,
        0.11839355,
        -0.07277425,
        0.21352169,
        0.22166444,
        0.064514875,
        -0.053399622,
        0.088809624,
        0.16009101,
        0.1298346,
        -0.0054510096,
        0.12033993,
        0.12568386,
        0.07065037,
        -0.002361422,
        -0.09313553,
        -0.018039316,
        0.04749161,
        -0.04567952,
        0.04008099,
        0.20618643,
        -0.04265509,
        -0.12841256,
        -0.08646924,
        -0.073679626,
        0.048268422,
        0.06794517,
        0.013043255,
        -0.1043812,
        -0.036914036,
        0.066567674,
        -0.028536484,
        -0.0469964,
        0.13689558,
        -0.06903744,
        -0.026445031,
        -0.08631438,
        0.119341955,
        -0.11028777,
        -0.04054489,
        -0.1353185,
        -0.14136119,
        0.028621927,
        -0.12413509,
        -0.109478965,
        0.030707225,
        -0.098529585,
        0.12159668,
        0.07305591,
        -0.059958205,
        0.051367506,
        -0.14823374,
        0.02786012,
        0.14825763,
        -0.004786387,
        0.10185985,
        0.15090568,
        0.07280199,
        -0.1289934,
        0.08484274,
        -0.16193655,
        -0.09784128,
        -0.10705044,
        -0.041429978,
        -0.15858623,
        -0.043798715,
        0.044703245,
        0.01469437,
        0.12828992,
        -0.12070172,
        -0.11233927,
        0.057813272,
        -0.04641366,
        0.002145164,
        -0.08146195,
        0.045092084,
        0.101240255,
        -0.055533227,
        -0.13688152,
        -0.04303114,
        -0.16298255,
        0.11701749,
        -0.091571055,
        0.03848971,
        0.14545411,
        -0.09263606,
        -0.06269993,
        0.08221375,
        0.10184626,
        0.008183778,
        -0.17564729,
        -0.06675788,
        0.14262466,
        0.037630368,
        0.038020976,
        -0.12131997,
        -0.041817576,
        -0.022382468,
        -0.00025586784,
        -0.11312091,
        -0.096852675,
        -0.13916357,
        0.004347235,
        -0.14993297,
        -0.0065164864,
        0.031151697,
        -0.08207101,
        0.029842839,
        0.021591663,
        0.1272551,
        0.011552721,
        0.14241965,
        0.003866747,
        0.08623211,
        -0.15144125,
        0.15621941,
        0.059062704,
        0.072981,
        -0.15340891,
        -0.09692813,
        0.074144095,
        -0.008419916,
        -0.11817172,
        -0.12737733,
        0.09367685,
        -0.109239474,
        -0.070279546,
        0.0871305,
        0.1529053,
        0.06593175,
        -0.038535908,
        0.03875588,
        -0.12721306,
        -0.13728875,
        -0.089615464,
        -0.16806628,
        -0.7684409,
        -0.9825035,
        -0.5315638,
        -0.35874048,
        -0.06423547,
        0.22333895,
        0.64383423,
        1.0604227,
        1.3645313,
        0.21030591,
        -0.47276202,
        -0.97766364,
        -1.0962176,
        -0.4254979,
        -0.6698924,
        -0.6299671,
        -0.3172955,
        -0.027217103,
        0.05792133,
        0.102642946,
        0.40902567,
        0.32172188,
        0.19506456,
        -0.003547896,
        0.06556294,
        0.0510215,
        0.03052191,
        0.2689145,
        0.05985331,
        0.041715153,
        0.1867208,
        0.03437036,
        0.0133070685,
        -0.29025525,
        -0.115352094,
        0.15036254,
        0.05955343,
        0.099307105,
        0.07975748,
        0.031491414,
        0.07566078,
        0.038568795,
        -0.09540137,
        -0.046082154,
        0.111493066,
        -0.060250998,
        -0.016416833,
        -0.08050741,
        -0.048132606,
        0.08046669,
        0.12815194,
        0.11761825,
        0.15132214,
        -0.13748167,
        0.122835055,
        0.086373165,
        -0.14720987,
        -0.013192788,
        0.13029964,
        0.09788333,
        -0.116402544,
        0.14926387,
        0.025787055,
        -0.05846551,
        0.15338062,
        0.09801258,
        0.054043487,
        -0.14802836,
        -0.12870394,
        -0.057106003,
        0.16187714,
        -0.033796042,
        -0.12048529,
        -0.16126871,
        -0.12576152,
        0.056399792,
        0.16629045,
        0.10667444,
        0.09644498,
        0.17332594,
        -0.04194542,
        0.01355258,
        0.21564789,
        0.17732862,
        0.11469598,
        0.076596215,
        0.17868598,
        -0.0764252,
        -0.022930525,
        0.11651547,
        -0.00156658,
        0.0891453,
        0.18757428,
        0.05119383,
        -0.0034854673,
        0.103138216,
        0.2049731,
        0.2846863,
        0.07035323,
        0.2817745,
        0.0746988,
        0.027921872,
        0.18912655,
        -0.0158875,
        0.19041705,
        0.054004993,
        0.067376316,
        -0.16339657,
        0.15625916,
        0.0532362,
        0.0022807568,
        0.14533503,
        0.09857969,
        0.056013733,
        0.10372169,
        0.1093386,
        0.06930648,
        0.05757232,
        0.048804462,
        -0.103043176,
        -0.093236156,
        -0.069184184,
        -0.15231179,
        -0.023294747,
        -0.013044506,
        0.05505857,
        -0.033158883,
        -0.038604304,
        -0.029800981,
        -0.0032930672,
        0.120139614,
        0.11266188,
        -0.111616,
        0.06913555,
        -0.0048403293,
        0.1353624,
        0.04408984,
        0.0333333,
        -0.10531519,
        -0.1265927,
        -0.14324585,
        -0.14526843,
        -0.009324983,
        -0.061316416,
        0.1427681,
        -0.13296476,
        0.15680934,
        0.37049803,
        0.63006717,
        0.6668849,
        0.5365401,
        0.59974945,
        0.38015592,
        0.55183774,
        0.5152844,
        0.43591776,
        0.30246863,
        0.07144379,
        0.260891,
        0.040058076,
        -0.14253347,
        -0.11844304,
        -0.08449438,
        -0.10275125,
        -0.2380169,
        -0.12648122,
        0.029813163,
        -0.24862419,
        -0.100311674,
        -0.103313886,
        -0.011113588,
        -0.17086889,
        -0.13806593,
        0.0141578335,
        -0.12408313,
        -0.11996111,
        -0.105840735,
        -0.07392993,
        0.068265975,
        0.12098899,
        0.075358726,
        0.19404636,
        0.16350885,
        0.01955998,
        0.037741497,
        -0.012863666,
        0.07297771,
        -0.007222727,
        -0.12846814,
        -0.15777984,
        -0.026253492,
        0.08277038,
        0.031317428,
        0.12852187,
        -0.06313639,
        -0.07741079,
        0.050823584,
        0.06903191,
        0.023528084,
        0.14787494,
        0.10120161,
        0.044053182,
        -0.08132213,
        0.059911057,
        0.12601332,
        0.09238352,
        -0.09681273,
        0.06687598,
        0.099652275,
        -0.023881868,
        -0.017971411,
        -0.15463085,
        0.08484626,
        -0.023562461,
        0.04825835,
        0.13015847,
        0.10113339,
        -0.048661627,
        0.10075517,
        0.018719241,
        0.04475569,
        0.24928367,
        0.14044769,
        -0.0087952,
        -0.4005854,
        -0.39406747,
        -0.27159876,
        0.10216061,
        -0.09690501,
        -0.013292246,
        0.24727686,
        0.36891955,
        0.36829293,
        0.21980701,
        0.052957524,
        0.11257843,
        0.55990934,
        0.44119534,
        0.47342,
        0.33274296,
        -0.49468842,
        -0.52014786,
        -1.2933253,
        -0.99043965,
        -1.1063871,
        -0.86607146,
        -0.50607026,
        -0.37590975,
        0.0039300304,
        0.012248483,
        -0.29445451,
        0.29618257,
        0.19103967,
        0.13761424,
        0.0766869,
        0.24100716,
        -0.15961224,
        -0.09880611,
        0.029193684,
        0.091666475,
        -0.15994501,
        -0.11710944,
        -0.15784098,
        0.15339331,
        -0.076883055,
        0.16321011,
        -0.052845545,
        0.08688475,
        0.08981578,
        -0.04674045,
        0.009900734,
        0.07670714,
        -0.03941311,
        -0.09627877,
        0.092962876,
        -0.092697926,
        0.0058364123,
        -0.048569202,
        -0.013005778,
        0.00494501,
        -0.0029913485,
        0.1487885,
        0.109749064,
        -0.13438772,
        0.110700354,
        -0.10652819,
        0.069088146,
        -0.016426474,
        0.010417178,
        0.0036058575,
        -0.15795907,
        0.15376316,
        -0.0187992,
        0.057631582,
        0.83037597,
        0.7762268,
        0.5306225,
        0.59025705,
        -0.12883359,
        -0.15024011,
        -0.08539088,
        -0.39289933,
        -0.6284838,
        -0.19838738,
        -0.06684079,
        -0.061328486,
        -0.008719251,
        -0.19189383,
        -0.015903989,
        0.020326348,
        0.21410069,
        -0.12604651,
        -0.2993657,
        -0.034651022,
        -0.08854776,
        0.1223283,
        0.13317195,
        0.3967153,
        0.41714534,
        -0.1191834,
        -0.39080113,
        -0.72189826,
        -0.8609013,
        -0.8908457,
        -1.1569281,
        -1.0511699,
        -0.5210774,
        -0.35994866,
        0.3085739,
        0.93242383,
        -0.1500812,
        0.15721129,
        0.071009174,
        -0.025701568,
        0.14939176,
        -0.013882548,
        0.019306421,
        -0.1433561,
        -0.12426001,
        0.0074498653,
        -0.002675578,
        -0.03914176,
        -0.14579746,
        0.13821076,
        -0.08920875,
        0.101857886,
        -0.11744468,
        0.11462848,
        0.10097851,
        0.16051526,
        0.010043293,
        0.10961349,
        0.120552704,
        0.06107101,
        -0.1303089,
        0.10550909,
        -0.014946207,
        -0.14588028,
        0.09962843,
        0.14116956,
        -0.15034498,
        0.11017229,
        0.16066335,
        -0.11861864,
        0.0064321756,
        -0.0062087625,
        -0.01790765,
        0.12459426,
        -0.6168077,
        -0.022787737,
        0.42482257,
        0.4158325,
        0.584097,
        0.21472546,
        -0.12462992,
        0.047626298,
        0.15735888,
        -0.21965529,
        0.12618566,
        0.07582861,
        0.28220847,
        -0.13168691,
        -0.09402711,
        -0.33599773,
        -0.46821865,
        -0.46755227,
        -0.41422066,
        -0.42422524,
        -0.6585683,
        -0.7679684,
        -0.79007596,
        -0.4681117,
        -0.1965426,
        0.60027313,
        1.0528857,
        1.1629851,
        1.1457169,
        1.0645689,
        0.17741461,
        -0.43620896,
        -0.82305616,
        -0.9934874,
        -0.8068074,
        -0.6546301,
        -0.086686544,
        -0.06734171,
        -0.045825854,
        -0.12373741,
        0.028852165,
        -0.0034836382,
        0.09706931,
        -0.047855176,
        -0.13111433,
        0.055550724,
        -0.053487495,
        0.14040138,
        -0.15724893,
        0.100484625,
        -0.10588706,
        -0.1412839,
        -0.13980423,
        -0.09216737,
        0.030199245,
        -0.13891123,
        0.04333794,
        -0.059825957,
        -0.043046877,
        -0.15130849,
        0.14248924,
        0.009939298,
        -0.068670325,
        -0.088833414,
        0.024124801,
        0.15073334,
        0.13666262,
        -0.01476191,
        -0.07394141,
        0.06273867,
        0.014231443,
        0.1256621,
        0.12105797,
        0.11177884,
        0.044719152,
        0.34776258,
        0.43457088,
        0.4192871,
        0.47236282,
        0.48763326,
        0.34674156,
        0.40087926,
        0.2767595,
        0.36305708,
        0.37017724,
        0.23448929,
        0.10186434,
        0.1393969,
        -0.19175507,
        0.009422688,
        -0.10148029,
        -0.114132956,
        -0.088501744,
        0.09574242,
        -0.19470635,
        0.0441007,
        0.117396474,
        0.13071375,
        -0.057682313,
        0.07899229,
        -0.12602383,
        -0.12341072,
        0.1423767,
        -0.16974442,
        -0.09453649,
        -0.16942525,
        0.113178425,
        -0.16866997,
        -0.035367157,
        0.15590996,
        -0.07904815,
        -0.11619441,
        -0.104252204,
        0.025477096,
        -0.14980134,
        -0.09224792,
        -0.061776772,
        0.047877714,
        -0.011654079,
        0.113760665,
        -0.0025798231,
        0.15016936,
        0.02104938,
        -0.08382083,
        -0.15267146,
        0.156204,
        0.07926804,
        0.009411722,
        0.047502145,
        0.055565536,
        0.10348986,
        0.13503419,
        0.15866213,
        -0.12758185,
        0.1196899,
        0.05544637,
        -0.05570621,
        0.057384998,
        -0.14416593,
        0.041846782,
        0.057873726,
        -0.042104922,
        -0.055279523,
        -0.16077836,
        0.07693879,
        -0.0381746,
        0.009999976,
        -0.09768825,
        0.54451126,
        0.47008702,
        0.23787121,
        0.13055353,
        0.35188562,
        0.29727,
        -0.30358788,
        -0.0000069120724,
        0.0057304716,
        0.0042364597,
        -0.20880692,
        -0.47200498,
        -0.43703786,
        -0.9302413,
        -0.6001172,
        -0.62987036,
        0.0037435612,
        0.39598402,
        0.33738372,
        0.63157535,
        0.6249042,
        0.2258082,
        0.20307761,
        -0.15667723,
        -0.396956,
        -0.7067434,
        -0.6184685,
        -1.0453376,
        -0.3529715,
        -0.31627342,
        -0.13365862,
        -0.05948366,
        -0.04924349,
        -0.15228875,
        0.3088464,
        0.2517429,
        0.04827869,
        -0.00019814074,
        0.14886688,
        -0.1018608,
        -0.009825319,
        0.022811279,
        -0.008855268,
        0.14804776,
        -0.07722124,
        0.06442629,
        0.06995101,
        0.12883209,
        -0.1635355,
        0.020017907,
        0.015482485,
        0.0007003546,
        -0.09055462,
        -0.09825733,
        0.13732488,
        0.03575614,
        -0.15951653,
        0.038119882,
        0.03381948,
        -0.009982109,
        0.103584036,
        0.020393044,
        0.15722741,
        0.16220425,
        0.0567037,
        -0.05861026,
        0.07314068,
        -0.13168623,
        -0.101874515,
        0.13472445,
        -0.1052648,
        0.10463108,
        0.027718395,
        -0.14462985,
        -0.24537668,
        0.03815105,
        0.16583513,
        0.3913668,
        0.27311626,
        0.19447525,
        0.21720739,
        0.39134493,
        0.19839072,
        0.08991093,
        0.32521436,
        0.18435341,
        0.09783731,
        0.102276064,
        -0.07743939,
        0.12500946,
        -0.03548218,
        0.015247449,
        -0.19554949,
        0.04736827,
        0.09828117,
        0.08053861,
        0.12025313,
        0.083917,
        0.120705456,
        0.07865403,
        0.049746316,
        -0.12102698,
        0.037990976,
        -0.11931428,
        -0.09641578,
        -0.13340639,
        -0.22193073,
        -0.31277302,
        -0.32220152,
        -0.14227788,
        -0.12314089,
        0.13476424,
        -0.04139626,
        -0.015045881,
        0.14380552,
        -0.03657636,
        0.12235163,
        -0.05770676,
        -0.105362035,
        0.11919244,
        -0.04491193,
        0.108468816,
        0.11539118,
        0.0377703,
        0.10932277,
        -0.054757163,
        0.029877216,
        0.0063439906,
        0.020559043,
        -0.10936345,
        -0.12801123,
        -0.123410285,
        0.1468681,
        0.041712016,
        -0.0042316467,
        0.0967605,
        0.14798732,
        -0.034736708,
        -0.04905367,
        -0.12931061,
        0.059746623,
        -0.07739671,
        0.037301555,
        -0.003414467,
        -0.08479268,
        -0.022675887,
        -0.11344534,
        0.09363626,
        0.52614343,
        0.6516724,
        0.5067856,
        0.6750294,
        0.4436326,
        0.43182287,
        0.13688405,
        0.24847193,
        0.3541858,
        0.31137776,
        0.18745176,
        0.23122175,
        0.27484977,
        0.066904835,
        -0.033168733,
        0.118644476,
        0.14387703,
        0.15445288,
        -0.087220654,
        0.00024847686,
        -0.093131766,
        -0.13828309,
        -0.18695337,
        0.13495573,
        -0.09292639,
        -0.11311794,
        0.12232797,
        -0.03974543,
        0.061796185,
        -0.054537278,
        0.028279902,
        0.23774076,
        0.0547515,
        0.30452716,
        0.47606188,
        0.3665292,
        -0.009511709,
        -0.022956535,
        -0.07862531,
        -0.13086605,
        -0.00970915,
        0.11185257,
        0.13229443,
        0.082088456,
        -0.024858668,
        -0.08865021,
        0.15658925,
        -0.04688026,
        0.13449527,
        -0.054813482,
        -0.1642333,
        -0.120372415,
        0.15451072,
        0.09620182,
        -0.102142654,
        0.053512618,
        -0.023268104,
        0.03494236,
        0.14384408,
        -0.14146134,
        0.11381395,
        -0.11279383,
        0.1258261,
        0.09149544,
        0.12255569,
        0.027532399,
        0.036434308,
        -0.14571789,
        -0.046263635,
        -0.020855084,
        0.078373715,
        0.13732918,
        0.10642497,
        -0.07442082,
        -0.13868234,
        0.09555088,
        -0.030146739,
        -0.0052009574,
        -0.08654244,
        -0.13732278,
        0.05066339,
        0.095378,
        -0.0036117395,
        0.028103638,
        -0.15791838,
        0.098804705,
        -0.023230316,
        -0.117354274,
        -0.01794919,
        0.035912015,
        -0.014030248,
        -0.04334985,
        0.124732,
        -0.14908785,
        -0.08688871,
        0.119777136,
        -0.044069983,
        -0.12788373,
        0.15755582,
        -0.016607169,
        -0.12147002,
        -0.020066362,
        -0.05488049,
        -0.09047893,
        0.07107759,
        -0.15655085,
        -0.01682142,
        0.031747185,
        0.063225254,
        0.061455898,
        -0.0228284,
        -0.027908802,
        -0.1034853,
        -0.057748698,
        -0.0101150125,
        0.102415875,
        -0.021397397,
        -0.048552506,
        0.013123259,
        -0.16215412,
        -0.0939516,
        0.0230847,
        -0.084394805,
        -0.06305922,
        -0.15488048,
        -0.080890626,
        -0.06271159,
        -0.011508897,
        -0.10420631,
        0.15488245,
        -0.16331248,
        0.087500826,
        0.019233912,
        0.11111911,
        -0.10397913,
        -0.0044217557,
        0.12729333,
        -0.10029352,
        0.09939338,
        0.1136459,
        -0.13323058,
        -0.032308564,
        -0.0903568,
        0.065588444,
        -0.10692018,
        -0.098833315,
        -0.07693044,
        0.0052721053,
        0.300812,
        0.39067742,
        0.3747544,
        0.4815324,
        0.6145169,
        0.091256835,
        0.35638514,
        0.35794133,
        -0.45911428,
        -0.96799415,
        -0.21422456,
        0.1952399,
        0.6001207,
        0.5560949,
        -0.04930927,
        0.046228565,
        0.04379007,
        -0.18589725,
        -0.33843213,
        -0.1444976,
        -0.03341152,
        -0.001400537,
        -0.27615312,
        -0.46614534,
        -0.5078971,
        -0.43233278,
        -0.53991854,
        -0.4001809,
        -0.37763518,
        -0.16964763,
        -0.23456663,
        -0.16359706,
        -0.25688863,
        -0.2711574,
        -0.13538055,
        -0.0010856572,
        -0.070978954,
        -0.1228517,
        -0.1097707,
        -0.030579522,
        -0.04997982,
        0.0635218,
        0.062672466,
        0.05476652,
        -0.07041426,
        -0.16418557,
        0.019817263,
        0.09990059,
        0.07796471,
        -0.012087151,
        0.023099482,
        0.07967892,
        -0.0612078,
        0.052697733,
        0.14186604,
        0.09995891,
        -0.09675853,
        0.107502,
        0.08473244,
        0.050837547,
        -0.042098805,
        -0.020080745,
        -0.11891393,
        0.0817291,
        0.12415235,
        -0.0041653365,
        -0.0017818809,
        0.04314278,
        -0.111957155,
        -0.080388844,
        0.049354494,
        0.017926425,
        0.10510574,
        0.035314336,
        0.34529108,
        0.49870932,
        0.547229,
        0.43619305,
        0.39183936,
        0.22115147,
        0.25688803,
        0.3034041,
        -0.053637758,
        -0.13755791,
        -0.13629115,
        -0.16391549,
        -0.17732583,
        -0.20228289,
        -0.1818913,
        -0.19667771,
        -0.37718466,
        -0.08493374,
        -0.20048796,
        0.10015005,
        -0.07902767,
        0.054157704,
        0.076984495,
        -0.14447938,
        0.0105268955,
        0.077988386,
        0.17275502,
        0.20757005,
        0.36877543,
        0.2072677,
        0.29062217,
        0.2732133,
        0.45858192,
        0.40109727,
        0.3894143,
        0.6182588,
        0.061659575,
        0.10612039,
        -0.06525297,
        0.07021424,
        0.056660473,
        -0.020551324,
        -0.103528306,
        0.06538631,
        0.0018416941,
        -0.06785486,
        -0.15769419,
        -0.053721413,
        -0.15121302,
        -0.11306957,
        0.053725407,
        -0.11231697,
        -0.023729518,
        0.017242178,
        0.098679796,
        -0.018295288,
        -0.13354568,
        -0.11833407,
        -0.12547308,
        -0.024381965,
        -0.12182078,
        0.103412464,
        0.11446585,
        -0.052192852,
        -0.071904294,
        -0.037893057,
        0.13799603,
        -0.07186439,
        0.14804699,
        -0.07650125,
        0.09960748,
        0.08745511,
        -0.14353386,
        0.14002483,
        0.011558993,
        0.40798905,
        0.35313788,
        0.4491359,
        0.2400757,
        0.43470526,
        0.28889504,
        0.30965328,
        0.3856591,
        0.3118988,
        0.17519397,
        0.0784377,
        -0.021643221,
        -0.04491095,
        -0.26929128,
        -0.39249167,
        -0.2938138,
        -0.30041328,
        -0.076025754,
        -0.1376832,
        -0.17975953,
        -0.15623955,
        0.08751368,
        0.13533455,
        -0.03189595,
        0.19798408,
        -0.002674219,
        -0.057280634,
        -0.0835617,
        -0.20477462,
        -0.011791551,
        0.018418772,
        -0.03028954,
        0.10135866,
        0.13337626,
        -0.043110043,
        0.13841255,
        -0.09282692,
        -0.043580487,
        0.07466544,
        0.0045592934,
        -0.09146169,
        -0.10405251,
        -0.15316704,
        0.040525407,
        0.044633836,
        -0.024728417,
        -0.04467628,
        -0.087606624,
        -0.03466125,
        0.0075326413,
        -0.111823775,
        -0.034605354,
        0.007445082,
        -0.0521945,
        0.113207474,
        -0.12480765,
        0.14862199,
        -0.091036215,
        0.08678837,
        0.029409453,
        -0.053053632,
        0.11722867,
        0.14752306,
        0.0074054897,
        -0.05763699,
        0.02319716,
        -0.03521572,
        -0.0135009885,
        0.02825278,
        -0.06849293,
        0.16239198,
        -0.10928553,
        -0.081659175,
        0.100743584,
        -0.16320969,
        0.048558038,
        -0.08817136,
        0.0013786395,
        -0.13601297,
        -0.06573576,
        -0.108051926,
        -0.11805175,
        -0.11430884,
        0.09561475,
        -0.14122435,
        0.10748931,
        -0.0972872,
        -0.043435507,
        -0.077572845,
        0.05355031,
        -0.0013067216,
        -0.08968886,
        -0.075343035,
        0.031218292,
        0.05150521,
        -0.14080602,
        -0.07259604,
        -0.111878626,
        -0.14784329,
        -0.122386955,
        0.12841943,
        0.1409956,
        0.011276929,
        -0.13538612,
        0.13063832,
        0.13271074,
        0.029087177,
        -0.10729015,
        0.13334616,
        -0.034449354,
        0.018582985,
        0.10425754,
        0.14257671,
        -0.14959823,
        0.15892862,
        0.05177416,
        0.09260224,
        0.16350113,
        0.031338945,
        0.083142,
        0.033715382,
        0.06669964,
        -0.08678159,
        -0.07642529,
        -0.018419027,
        -0.08911586,
        0.1048436,
        0.05790639,
        -0.09653601,
        -0.10177249,
        -0.11722468,
        -0.049817592,
        -0.16326976,
        -0.1239825,
        0.003059268,
        0.15509458,
        -0.1014844,
        0.041343823,
        0.1567771,
        -0.03631434,
        0.051267594,
        -0.04036157,
        -0.06893227,
        -0.079817176,
        -0.04926736,
        -0.110412925,
        -0.059844106,
        0.13765262,
        0.28804398,
        0.19888814,
        0.42522198,
        0.43511653,
        0.3007223,
        0.38126507,
        0.41817963,
        0.5189204,
        0.6252397,
        0.6257116,
        0.63305867,
        0.4352673,
        0.48630694,
        0.2180491,
        0.26788175,
        0.11352925,
        0.24857369,
        0.053094324,
        -0.0882705,
        0.115389645,
        0.017058901,
        0.021097813,
        -0.12700346,
        0.03986121,
        0.03727173,
        -0.020682512,
        0.17811914,
        -0.0008360818,
        0.16067712,
        0.10014411,
        -0.17428589,
        -0.09385088,
        -0.04678848,
        -0.0051926393,
        0.22575846,
        0.115375,
        0.16125144,
        0.05923614,
        0.08623414,
        -0.09392538,
        -0.11798853,
        0.02065453,
        0.12188749,
        0.1128429,
        0.027190417,
        -0.03645508,
        -0.042570136,
        0.052012444,
        0.052646384,
        -0.042320654,
        0.039252445,
        0.022219256,
        -0.024042249,
        0.08461669,
        0.1307313,
        -0.101590976,
        -0.10927464,
        0.16148283,
        -0.07749937,
        0.03540598,
        -0.07235606,
        -0.09824601,
        -0.050598137,
        0.13696264,
        0.09366797,
        -0.06861404,
        0.16080897,
        -0.1468608,
        -0.03783141,
        -0.14581396,
        -0.1225428,
        0.013884991,
        -0.10928961,
        0.20219328,
        0.053212274,
        -0.08729058,
        0.19901529,
        0.26972285,
        -0.004774837,
        -0.17563587,
        -0.20902759,
        -0.23544517,
        -0.2391096,
        -0.104569875,
        -0.09997104,
        -0.1199697,
        0.24163347,
        0.03485606,
        -0.033966113,
        0.10168464,
        0.23919034,
        0.09724396,
        -0.14936158,
        -0.13016671,
        -0.2024965,
        -0.25589284,
        -0.11238059,
        -0.072110616,
        -0.06716501,
        0.108115755,
        0.05391001,
        0.20588537,
        0.121865176,
        0.08679448,
        0.08535659,
        -0.24399175,
        -0.25477886,
        0.004615086,
        0.11526814,
        0.124360904,
        -0.04455717,
        0.086417034,
        0.11372046,
        -0.040896162,
        0.08634861,
        0.02573438,
        -0.042983495,
        0.00013977289,
        -0.14450952,
        -0.15311602,
        0.1144139,
        -0.01324448,
        -0.13765195,
        -0.12454672,
        0.055648386,
        0.10176323,
        0.04541418,
        -0.10356703,
        0.12143655,
        -0.0009768009,
        -0.09144742,
        0.07519999,
        -0.00731574,
        0.0871153,
        -0.025686875,
        -0.010716632,
        0.05574341,
        -0.13255061,
        -0.08639418,
        0.14910387,
        -0.10197015,
        0.12781231,
        0.012755051,
        0.06864634,
        -0.08941496,
        0.0971248,
        0.10439871,
        0.48818213,
        0.7800393,
        0.8934903,
        0.83006835,
        0.3903456,
        0.6026413,
        0.4391245,
        0.20246539,
        0.13331595,
        -0.008725729,
        -0.08942268,
        -0.18908922,
        -0.394438,
        -0.34997407,
        -0.46369603,
        -0.41116953,
        -0.6004358,
        -0.4835993,
        -0.46858534,
        -0.3769216,
        -0.3281213,
        -0.28292197,
        -0.42506126,
        -0.3288272,
        -0.39451626,
        -0.34927514,
        -0.34787565,
        -0.27806976,
        -0.07190267,
        -0.2987932,
        0.07910477,
        -0.085081,
        -0.064868666,
        -0.06588779,
        -0.098854855,
        0.15036221,
        -0.018701673,
        -0.11051099,
        -0.111135334,
        0.02696155,
        0.13315265,
        -0.12881964,
        0.0046221614,
        0.087448195,
        0.067709565,
        -0.018627435,
        0.01995331,
        0.002838865,
        0.08191469,
        0.01231429,
        -0.058431804,
        -0.1049105,
        0.062344447,
        0.11535101,
        0.1412821,
        0.021508992,
        0.0069300085,
        0.004601538,
        0.15252553,
        -0.14029849,
        0.0016809851,
        0.07548115,
        -0.15407477,
        0.10118799,
        -0.016825572,
        -0.0063559115,
        -0.15165879,
        -0.12960118,
        0.16284893,
        0.05794546,
        0.037797898,
        -0.02124089,
        0.14666368,
        -0.13577761,
        0.6732331,
        0.6769254,
        0.7277973,
        0.74204963,
        0.5179682,
        0.2758474,
        0.41012514,
        0.17178762,
        0.10483217,
        0.010697119,
        -0.03576424,
        0.0040060556,
        -0.06338465,
        -0.111635074,
        -0.14903806,
        -0.2551558,
        -0.21606214,
        -0.42121536,
        -0.21800584,
        -0.11738302,
        -0.27839768,
        -0.19912544,
        -0.22311217,
        0.015995318,
        0.024325991,
        -0.081181794,
        -0.13271832,
        0.09299457,
        -0.08835354,
        0.13193017,
        -0.09038837,
        0.07889514,
        0.2313682,
        0.36107787,
        0.51774853,
        0.45541328,
        -0.07029664,
        -0.11040391,
        -0.13169724,
        0.06991522,
        -0.14576751,
        -0.05611843,
        -0.05169993,
        0.163624,
        0.12042995,
        0.031970307,
        0.12790795,
        -0.009095177,
        -0.15969393,
        0.053887248,
        0.027922943,
        0.0144920945,
        0.07926522,
        0.027901232,
        -0.10209311,
        -0.15570779,
        -0.03098403,
        0.15817524,
        -0.007394552,
        -0.019169942,
        -0.044312976,
        0.071532086,
        0.06472401,
        0.09867413,
        -0.13402677,
        -0.028113082,
        -0.041576877,
        -0.06237623,
        -0.16363102,
        -0.059548452,
        0.027612165,
        -0.06971842,
        -0.0066128373,
        0.07825506,
        -0.15064414,
        -0.103661545,
        -0.14059228,
        0.26181394,
        0.33308244,
        0.026806366,
        0.26636434,
        0.29117322,
        0.21301407,
        0.120293975,
        -0.022195432,
        -0.1313361,
        -0.73699075,
        -0.70536923,
        -0.3257585,
        -0.53059924,
        -0.24641562,
        0.29821894,
        0.47973123,
        0.39945972,
        -0.009632173,
        -0.15497124,
        0.21355546,
        0.07604218,
        0.219535,
        0.06982084,
        -0.23731484,
        0.14954616,
        0.0021333788,
        -0.43454432,
        -0.51570374,
        -0.005561332,
        -0.4303556,
        0.016184282,
        -0.132621,
        -0.39554194,
        -0.11421181,
        0.08287801,
        -0.055516616,
        -0.0028956681,
        -0.027593315,
        0.0036628395,
        -0.15380287,
        0.13085376,
        0.12395887,
        0.043907136,
        0.018345311,
        0.12642942,
        0.14740281,
        0.12854056,
        -0.08724701,
        0.12775959,
        -0.09257234,
        0.013227403,
        0.056748852,
        -0.057685517,
        -0.14012662,
        0.074049786,
        0.06397095,
        0.13117348,
        -0.053750336,
        -0.09337891,
        0.1554714,
        0.09246071,
        0.06776181,
        -0.16308832,
        -0.0817607,
        -0.10975059,
        0.13852786,
        0.048591703,
        0.09013043,
        0.124237105,
        0.091708675,
        0.008746728,
        0.025125805,
        0.14714907,
        0.21934377,
        0.08685024,
        0.1102106,
        -0.093575254,
        0.19107763,
        -0.020991195,
        0.105253145,
        0.32551676,
        0.34046152,
        0.40157914,
        0.18916613,
        0.27863017,
        0.21487573,
        0.25474462,
        -0.04444725,
        0.25027296,
        0.050848056,
        0.026449371,
        0.066630155,
        0.059353054,
        0.04522791,
        0.05113034,
        0.02339688,
        -0.05730238,
        0.15861426,
        0.005249733,
        0.22095172,
        0.12039503,
        0.25741655,
        0.14919029,
        0.40527636,
        0.31072035,
        0.3318452,
        0.3882282,
        -0.035552174,
        -0.0598675,
        -0.1325741,
        0.055922642,
        0.11476107,
        0.05427681,
        -0.07672874,
        -0.06688437,
        0.020661771,
        -0.1478334,
        0.09025337,
        0.009313032,
        0.10194962,
        -0.1194593,
        -0.0064432025,
        -0.09168142,
        0.04693705,
        0.0018809587,
        -0.1411499,
        0.046151415,
        -0.12242533,
        -0.13103575,
        -0.13946953,
        0.060929626,
        -0.042969733,
        0.046758354,
        0.12570076,
        0.00032818317,
        0.081667095,
        -0.12008311,
        0.0046161264,
        -0.056912184,
        0.10077934,
        -0.119417325,
        -0.09092114,
        -0.03583564,
        0.07662499,
        0.098304525,
        -0.122649305,
        -0.42563826,
        -0.7928303,
        -0.80521363,
        -0.22294234,
        -0.017361611,
        -0.401945,
        -0.091867745,
        -0.18741952,
        -0.10839941,
        -0.056956965,
        0.13238658,
        0.17898566,
        0.14517212,
        -0.08770946,
        0.2273953,
        0.29146636,
        0.09430011,
        0.2530052,
        0.63801897,
        0.3025636,
        0.043644983,
        -0.2205571,
        -0.46076766,
        -0.899424,
        -0.8879154,
        -0.7270383,
        -1.1147733,
        -0.48380303,
        0.26319093,
        0.47375277,
        0.8770147,
        0.87732,
        0.87748754,
        -0.042218544,
        -0.221167,
        0.15416296,
        0.12148745,
        0.06376156,
        -0.10971336,
        0.057766303,
        -0.08713992,
        -0.11496328,
        -0.07184185,
        -0.030784667,
        0.12635489,
        0.12209757,
        0.14590277,
        0.0019804835,
        0.037755176,
        -0.0012028366,
        0.006041318,
        -0.018299446,
        -0.09837715,
        0.105322555,
        -0.13730742,
        -0.019646063,
        0.017298892,
        -0.12830995,
        -0.06667522,
        0.10015397,
        0.106905594,
        -0.052583203,
        -0.049071223,
        -0.14941695,
        0.04982096,
        0.05071482,
        0.12846644,
        0.06953941,
        -0.04737746,
        -0.049211234,
        -0.14589132,
        0.056082994,
        -0.009619936,
        0.024512578,
        0.022987407,
        -0.05107762,
        0.25958616,
        0.14633976,
        0.2926822,
        0.4034398,
        0.29105106,
        0.6033937,
        0.44624442,
        0.4928045,
        0.6325088,
        0.76331073,
        0.5216979,
        0.47986808,
        0.40424755,
        0.4912355,
        0.36933744,
        0.24495876,
        0.122088805,
        -0.08986922,
        -0.039757833,
        0.05310105,
        0.085687876,
        0.032320123,
        -0.2803602,
        -0.055278353,
        -0.2319435,
        -0.21592131,
        0.0774837,
        0.0075956397,
        0.010280123,
        0.10929389,
        0.0052114595,
        0.07342939,
        -0.09690848,
        0.079194546,
        0.067053735,
        -0.05635737,
        -0.14117259,
        0.008242518,
        0.10139777,
        0.10472025,
        -0.029319972,
        -0.1484498,
        -0.01292932,
        0.114013836,
        0.14208452,
        -0.107032046,
        -0.12888773,
        0.08185637,
        -0.00018206239,
        -0.08542138,
        -0.15122466,
        0.12584002,
        -0.04209046,
        -0.02977468,
        0.06248802,
        -0.13632461,
        -0.12285907,
        0.12481411,
        -0.035169736,
        -0.14748244,
        -0.08735918,
        0.028508738,
        0.081154376,
        -0.031098664,
        0.1392728,
        -0.016563818,
        0.15433307,
        0.14158194,
        0.16179882,
        0.11129795,
        -0.072426654,
        -0.08583721,
        -0.0038396905,
        -0.12547456,
        -0.03921751,
        -0.12181657,
        -0.031095501,
        0.06740132,
        0.0140618915,
        -0.09567817,
        0.12681195,
        0.10353263,
        -0.06506247,
        -0.077218145,
        -0.16677254,
        0.12129501,
        -0.07186063,
        0.080845885,
        -0.12338353,
        0.067467645,
        -0.0998963,
        -0.08106017,
        0.10405067,
        -0.102927774,
        0.04451394,
        0.10465119,
        -0.04023714,
        0.1384035,
        -0.14303236,
        -0.027847327,
        -0.14877342,
        -0.054882523,
        0.09672063,
        -0.094680846,
        0.07633437,
        0.15621792,
        -0.061526086,
        0.008112237,
        0.09313251,
        -0.039468147,
        0.102949336,
        0.0072872043,
        -0.09938809,
        -0.13587084,
        0.09761812,
        -0.09433196,
        0.09635599,
        0.098791584,
        -0.14168064,
        0.063283846,
        0.07521403,
        -0.031586498,
        0.0063611567,
        -0.037495375,
        0.020077094,
        -0.0801717,
        -0.05869814,
        -0.055459157,
        0.015391901,
        -0.1147778,
        -0.1573508,
        -0.09870495,
        -0.10524425,
        -0.0009782463,
        -0.01811546,
        -0.08294033,
        -0.13331956,
        0.0890445,
        0.016989335,
        0.13065942,
        0.10886176,
        -0.057675987,
        -0.020668283,
        -0.022914037,
        0.11222313,
        0.46618155,
        0.58707124,
        0.58102876,
        0.6597736,
        0.4721989,
        0.51745427,
        0.57873833,
        0.5842802,
        0.38084626,
        0.24951215,
        0.2901799,
        0.273402,
        0.10970118,
        0.28860897,
        0.044149786,
        0.007188483,
        0.069942586,
        -0.09414006,
        0.07371108,
        0.08019182,
        -0.113025635,
        0.105638936,
        -0.050404813,
        0.06494287,
        -0.1924945,
        -0.19460532,
        -0.09141084,
        -0.16949363,
        0.016349118,
        -0.20103525,
        -0.14869025,
        -0.26764593,
        -0.08120828,
        -0.08439148,
        0.075483955,
        0.22108047,
        0.08589615,
        -0.065723,
        -0.025046378,
        0.088635996,
        -0.018346757,
        -0.0101147,
        -0.052648664,
        0.09974353,
        -0.1321335,
        0.031364575,
        0.045108497,
        -0.014944643,
        0.07095364,
        0.03900802,
        0.009677678,
        0.08723678,
        -0.092096776,
        0.10875808,
        -0.13428143,
        -0.017043218,
        0.0484239,
        -0.035231084,
        0.009773463,
        -0.04401838,
        -0.010950789,
        0.022880644,
        -0.008076638,
        -0.12951764,
        -0.075151,
        -0.004439041,
        0.0149486065,
        0.066795245,
        0.00843814,
        0.11736883,
        0.1444586,
        0.021614358,
        -0.11171356,
        0.1388552,
        0.80801433,
        1.0259024,
        0.92678547,
        0.5595067,
        0.26898018,
        0.37869087,
        0.16372342,
        0.06006448,
        0.21203488,
        0.013073657,
        0.26330888,
        0.26763088,
        0.30892414,
        0.19925958,
        0.19158621,
        0.20699008,
        0.13151816,
        0.031481687,
        -0.015393529,
        -0.07149335,
        0.06043258,
        -0.02756372,
        -0.050544575,
        -0.027741984,
        -0.13265432,
        0.118921265,
        0.05285781,
        -0.118691996,
        0.27442962,
        0.42789796,
        0.38628837,
        0.5698369,
        0.74366313,
        0.74563086,
        0.8240617,
        0.9208765,
        -0.0752872,
        -0.12690972,
        -0.022691682,
        0.12632422,
        0.106487826,
        0.15965082,
        0.07218854,
        0.036365256,
        -0.13915196,
        0.022462934,
        0.019021466,
        0.017471313,
        0.07814328,
        0.05989036,
        -0.06394343,
        -0.13487363,
        0.06480539,
        0.030732155,
        -0.045368202,
        -0.14505956,
        0.14456989,
        0.16069435,
        -0.043131262,
        -0.15888351,
        -0.092086196,
        -0.0011576414,
        0.11341457,
        -0.1096399,
        0.0394257,
        -0.09578067,
        -0.013881922,
        0.041555718,
        -0.028674647,
        -0.0543672,
        -0.0019486994,
        -0.12970586,
        0.063040644,
        0.07357666,
        0.13783397,
        0.24748126,
        0.01117698,
        0.14166595,
        -0.0021668847,
        -0.028625885,
        -0.051747337,
        0.07923102,
        0.37155324,
        -0.13804092,
        -0.61859465,
        -0.73869693,
        -0.40032497,
        -0.3866454,
        -0.08540146,
        -0.05481854,
        0.48288846,
        0.3535403,
        0.28421557,
        0.24199858,
        0.6167443,
        0.51417726,
        -0.2429606,
        -0.5357239,
        -0.8163297,
        -1.0170721,
        -0.7708742,
        -0.50104976,
        -0.1891229,
        0.13495843,
        0.06958568,
        0.24985063,
        0.2016961,
        0.019366018,
        0.0005577536,
        -0.07169636,
        0.050089538,
        0.11508231,
        -0.078445554,
        -0.0067380667,
        -0.014429301,
        0.1212659,
        -0.034044117,
        0.09078775,
        0.061940968,
        0.14149185,
        0.14933293,
        0.065585345,
        -0.0065523535,
        -0.064157635,
        -0.07533188,
        -0.12732676,
        -0.055298142,
        -0.03621435,
        -0.051106818,
        0.08750804,
        -0.021813706,
        0.021264926,
        -0.08979508,
        0.019417584,
        -0.10000201,
        0.0023367703,
        -0.03659062,
        -0.05530324,
        -0.09911031,
        0.026102975,
        0.025575206,
        -0.030033559,
        0.04728535,
        0.015340522,
        0.12145476,
        0.109310225,
        0.07425718,
        0.14291625,
        0.011980304,
        0.173159,
        0.13459256,
        0.1413991,
        0.1754396,
        0.41563186,
        0.12866269,
        -0.0135562625,
        0.072017424,
        0.135275,
        0.2052038,
        0.17423977,
        0.005081549,
        0.069393456,
        0.30547336,
        0.28284645,
        -0.07441081,
        -0.4692033,
        -0.6620818,
        -1.0484481,
        -1.1352322,
        -1.132142,
        -0.9302926,
        -0.6638703,
        -0.55435854,
        -0.22045042,
        0.3783342,
        0.23325351,
        0.37388742,
        0.3813003,
        0.17917722,
        -0.08502327,
        0.3611854,
        0.16425559,
        0.19342113,
        -0.029675469,
        -0.08666432,
        0.010598972,
        0.15237744,
        0.07075809,
        0.06334005,
        -0.066837065,
        0.051077187,
        -0.05240059,
        0.028630003,
        0.06498733,
        0.12962516,
        -0.048922278,
        0.092955396,
        0.09041892,
        0.08584328,
        0.048028663,
        -0.088553086,
        -0.15499517,
        -0.08573107,
        -0.07353096,
        -0.014791191,
        -0.008461624,
        -0.014438152,
        0.017244294,
        0.022380322,
        -0.13078061,
        -0.095107205,
        -0.09170517,
        -0.06543867,
        -0.07985425,
        -0.15322995,
        -0.090897426,
        -0.005210489,
        -0.00010727346,
        0.037922382,
        -0.11395767,
        -0.09162933,
        -0.09816444,
        0.09468625,
        0.013119223,
        -0.005959965,
        0.063732915,
        -0.24076226,
        -0.24686587,
        -0.36639306,
        0.12175851,
        0.40559533,
        0.5195244,
        0.57091814,
        -0.07852879,
        -0.24342006,
        -0.21209927,
        -0.50855845,
        -0.4285034,
        -0.27401474,
        -0.45266223,
        -0.1598019,
        0.35321575,
        0.4800565,
        0.51157904,
        0.6238488,
        0.2380728,
        0.0048202947,
        -0.23970628,
        -0.38559458,
        -0.41290885,
        -0.08682996,
        -0.28843972,
        -0.56682956,
        -0.36525917,
        -0.017930381,
        -0.0012455727,
        -0.14165615,
        -0.12278915,
        -0.038494796,
        -0.072576106,
        -0.049097173,
        -0.021730885,
        0.1405008,
        -0.1531282,
        0.15964897,
        0.037306845,
        0.075160205,
        -0.013076529,
        -0.08316763,
        -0.08593661,
        -0.029474005,
        -0.14656463,
        0.057674497,
        -0.11214157,
        0.11842038,
        -0.099097885,
        0.12724937,
        0.106674775,
        0.117404506,
        -0.11796336,
        0.085416794,
        -0.07268252,
        0.05974552,
        -0.1166233,
        0.08172256,
        0.05493726,
        0.03203906,
        -0.14674693,
        -0.15675381,
        -0.15125476,
        0.07298009,
        -0.07181484,
        0.10009466,
        -0.12677464,
        0.065176606,
        -0.07658697,
        0.045333944,
        -0.3029907,
        -0.8284147,
        -0.5534719,
        -0.0897471,
        0.12988459,
        0.6321639,
        0.8222952,
        0.6379704,
        0.49542877,
        0.5554274,
        0.5739421,
        0.5639532,
        0.21804811,
        0.068886325,
        -0.040746868,
        -0.34229392,
        -0.24689761,
        -0.43123484,
        -0.6567536,
        -0.34955606,
        -0.5646589,
        -0.08640558,
        0.061212398,
        0.20101243,
        -0.180963,
        -0.35554704,
        -0.7289406,
        -0.6273515,
        -0.34729517,
        -0.37554428,
        -0.15986839,
        0.09274466,
        0.05262048,
        -0.096971884,
        0.0561678,
        -0.14391994,
        -0.02727598,
        -0.04062207,
        -0.109857515,
        0.040735975,
        0.09715174,
        -0.06690585,
        0.1498345,
        -0.0968377,
        0.11370696,
        0.013532028,
        0.030914098,
        -0.05482775,
        0.15347861,
        -0.15272625,
        0.13107114,
        -0.101465546,
        0.117081806,
        0.054724112,
        0.15396972,
        -0.005812779,
        -0.06502908,
        0.1331047,
        0.1507803,
        -0.090573944,
        0.07296234,
        -0.060919166,
        -0.07299683,
        -0.1313729,
        -0.062364236,
        0.0827039,
        0.041448474,
        -0.01291348,
        -0.16244468,
        0.114524946,
        -0.15254849,
        0.15011032,
        -0.06649124,
        -0.03468313,
        0.07230751,
        -0.0692433,
        0.18602012,
        0.026451046,
        0.15542148,
        -0.111068144,
        0.1450133,
        0.12917674,
        -0.007945782,
        -0.12696718,
        -0.27476957,
        -0.7688925,
        -0.49114206,
        -0.0865394,
        0.121197715,
        0.10591254,
        0.4229677,
        0.31872836,
        0.34722593,
        0.27211004,
        0.14914292,
        -0.2935572,
        -0.29099813,
        -0.60479695,
        -0.5852976,
        -0.26219034,
        -0.07103271,
        -0.0601495,
        0.06849064,
        0.18991971,
        -0.024432814,
        0.08656708,
        -0.035408035,
        0.033170823,
        0.05989715,
        -0.14185801,
        -0.124817446,
        0.012083501,
        -0.13309932,
        -0.000039979815,
        -0.13654709,
        0.07699418,
        0.08858268,
        -0.06746737,
        -0.07217079,
        0.03720808,
        0.056010216,
        0.010265797,
        0.06975342,
        -0.07831852,
        0.014836624,
        0.14427246,
        0.056327105,
        -0.120840095,
        -0.04292611,
        -0.14588435,
        -0.0011498928,
        -0.035114557,
        0.054098755,
        -0.0380141,
        -0.06851656,
        0.15448143,
        -0.02158308,
        0.10471283,
        0.08931504,
        -0.1333936,
        -0.09758493,
        0.1265815,
        -0.09179571,
        -0.13746417,
        -0.035158098,
        0.013617516,
        0.03498517,
        -0.062259648,
        -0.15158175,
        -0.025784072,
        -0.08652838,
        -0.140055,
        -0.010587396,
        -0.15280795,
        -0.11537798,
        -0.13981956,
        0.021448515,
        -0.044893783,
        0.07156527,
        0.112915196,
        0.06772069,
        0.017534913,
        -0.0371709,
        -0.021235993,
        0.045131523,
        -0.064906746,
        -0.03529738,
        -0.016402302,
        -0.051424343,
        0.07659966,
        -0.110109694,
        -0.13586153,
        0.08274596,
        0.08443853,
        -0.07039853,
        -0.08957122,
        -0.11194236,
        0.15544157,
        -0.09089318,
        -0.080491915,
        0.064448014,
        0.058245305,
        0.16186093,
        0.10000263,
        -0.119146876,
        0.008707896,
        0.11371292,
        0.09041579,
        -0.14494926,
        0.12940003,
        -0.051291272,
        -0.07820678,
        -0.030876666,
        -0.14352222,
        0.119175896,
        0.091375455,
        -0.048822686,
        0.09569566,
        -0.12309377,
        0.08633076,
        0.044372633,
        -0.13771638,
        0.1373886,
        0.044080585,
        -0.09019398,
        -0.025601849,
        0.14341001,
        0.12300645,
        -0.046056055,
        0.040896907,
        0.1517471,
        -0.11745048,
        -0.09029757,
        0.025942042,
        0.13201211,
        -0.0626691,
        -0.0885973,
        -0.052634515,
        -0.047256462,
        0.01894395,
        0.054556876,
        0.08712794,
        -0.09135245,
        -0.092393115,
        -0.15262075,
        -0.12500721,
        -0.0038482416,
        -0.061152317,
        0.11879912,
        -0.1729135,
        0.08767087,
        -0.16340178,
        -0.03976565,
        -0.0984695,
        -0.050122347,
        -0.090561345,
        0.1113035,
        0.06349902,
        0.10658433,
        -0.008579309,
        -0.17089058,
        0.043539204,
        -0.03449039,
        -0.16681357,
        -0.026681647,
        0.06678725,
        -0.15111503,
        0.06723158,
        -0.04992127,
        0.13812901,
        0.050258186,
        0.05358342,
        0.015566512,
        -0.10296982,
        -0.014689245,
        -0.080488466,
        0.12672342,
        0.04978858,
        -0.1230458,
        0.06786004,
        -0.04389915,
        0.061610535,
        -0.0017190874,
        0.09805621,
        -0.02118951,
        -0.06690432,
        0.11612217,
        -0.06407294,
        -0.11404821,
        -0.06727026,
        0.11264764,
        -0.122898936,
        0.1051396,
        -0.05969332,
        -0.06003777,
        0.096418425,
        -0.113633834,
        0.011747405,
        0.14929189,
        -0.0048152357,
        0.07199946,
        -0.037535205,
        0.086652145,
        -0.04671105,
        0.032522187,
        0.058662117,
        0.010392249,
        0.15242578,
        -0.15866691,
        -0.051810347,
        -0.07136719,
        -0.095547415,
        0.10052489,
        0.14254923,
        -0.14050254,
        0.41081378,
        0.73045635,
        0.608811,
        0.7101765,
        0.3561489,
        0.59494466,
        0.5531887,
        0.45279342,
        0.37066683,
        0.40595034,
        0.4203728,
        0.2309617,
        0.17157803,
        0.08427119,
        0.008159887,
        0.0066371355,
        -0.11593199,
        -0.13128696,
        0.010437653,
        0.057731837,
        -0.13991648,
        -0.1075846,
        -0.1500307,
        0.07099902,
        -0.1822552,
        0.00887547,
        -0.06543556,
        -0.18555304,
        -0.046370644,
        -0.16180488,
        -0.15939778,
        -0.022217356,
        0.08177805,
        0.19030723,
        0.25544026,
        0.31181687,
        -0.04312017,
        -0.042399675,
        0.0107194185,
        0.11632113,
        -0.062273026,
        0.05443591,
        0.071936235,
        -0.121316165,
        -0.14348525,
        -0.0307976,
        0.15162064,
        -0.10827385,
        -0.12628321,
        0.0529065,
        0.06829722,
        -0.03567548,
        0.13009648,
        -0.12187255,
        0.005483404,
        0.15180294,
        -0.070280135,
        -0.022134319,
        -0.10073329,
        -0.114793286,
        -0.07017195,
        -0.064559236,
        -0.09945304,
        0.12337519,
        -0.12115076,
        -0.07493017,
        -0.026692554,
        -0.041496485,
        -0.03386581,
        0.15858428,
        0.14567582,
        0.1143771,
        -0.03376092,
        -0.001006633,
        0.21461076,
        0.55673534,
        0.51994556,
        0.6144561,
        0.38308173,
        0.27468422,
        0.17177515,
        -0.068549484,
        -0.07484129,
        -0.034370895,
        -0.07350116,
        -0.22854075,
        -0.08126211,
        -0.3816159,
        -0.30056134,
        -0.26278564,
        -0.39347407,
        -0.42827874,
        -0.16454569,
        -0.3511805,
        -0.17725676,
        -0.28111324,
        0.014676732,
        0.030334052,
        0.07810492,
        0.18259843,
        0.047569457,
        0.099629365,
        0.10184887,
        -0.036303945,
        0.21634085,
        0.23915726,
        0.12297604,
        0.40208834,
        0.34893003,
        0.26548463,
        0.112129614,
        0.02168937,
        -0.10892908,
        0.14347164,
        -0.02193141,
        -0.061515845,
        0.15769152,
        -0.11246885,
        0.14816163,
        -0.12227446,
        -0.16324094,
        -0.009580702,
        0.15153037,
        0.13893901,
        0.15077402,
        -0.13393164,
        -0.028779775,
        0.15368693,
        0.09868221,
        -0.1048011,
        0.036818475,
        0.05185522,
        0.11112566,
        0.16129349,
        0.14569561,
        -0.065994546,
        -0.07676268,
        0.005831346,
        -0.03716284,
        0.042544857,
        -0.07648941,
        -0.11584072,
        -0.09630025,
        0.10431363,
        -0.16041501,
        -0.10074254,
        -0.03580518,
        0.063359454,
        0.5099236,
        0.5601552,
        0.6325721,
        0.580724,
        0.32054284,
        0.36026746,
        0.0896782,
        0.28464672,
        0.14603338,
        0.24271391,
        0.1847255,
        -0.004551078,
        0.20007691,
        -0.028671911,
        0.080639906,
        0.013242302,
        -0.07305445,
        0.024178302,
        -0.20794697,
        -0.2618936,
        -0.0754203,
        -0.3351303,
        -0.18382035,
        -0.03295498,
        -0.31237933,
        -0.1595884,
        -0.03836251,
        -0.0193973,
        0.12423412,
        0.19332132,
        -0.039361086,
        0.3041386,
        0.26346144,
        0.37372068,
        0.31457356,
        0.5614056,
        -0.012759715,
        -0.040555708,
        -0.032292575,
        0.115815386,
        -0.09448568,
        -0.15095836,
        -0.017831653,
        -0.05765275,
        -0.017378345,
        -0.0014178753,
        -0.004007891,
        0.11014511,
        0.023626626,
        -0.12972385,
        -0.022166267,
        0.12026961,
        -0.12731971,
        0.15327813,
        0.14704244,
        -0.15114301,
        -0.0029753894,
        0.03636262,
        0.12552474,
        -0.06885984,
        0.15978341,
        -0.129836,
        -0.1041093,
